svm_type c_svc
kernel_type polynomial
degree 5
gamma 0.00037037
coef0 0
nr_class 2
total_sv 16
rho 1.00011
label 1 -1
nr_sv 6 10
SV
9.041159409702045e-20 0:33 1:87 2:82 3:23 4:77 5:72 6:40 7:91 8:87 9:32 10:83 11:79 12:36 13:87 14:83 15:41 16:95 17:90 18:52 19:106 20:101 21:53 22:107 23:102 24:35 25:89 26:84 27:30 28:84 29:79 30:45 31:86 32:81 33:53 34:94 35:89 36:55 37:96 38:91 39:76 40:117 41:112 42:78 43:119 44:114 45:52 46:93 47:88 48:49 49:90 50:85 51:57 52:98 53:93 54:51 55:102 56:95 57:49 58:100 59:93 60:39 61:91 62:84 63:35 64:87 65:80 66:30 67:84 68:77 69:17 70:74 71:66 72:15 73:72 74:64 75:27 76:84 77:76 78:65 79:112 80:104 81:44 82:91 83:83 84:55 85:102 86:94 87:43 88:92 89:84 90:40 91:91 92:87 93:30 94:81 95:77 96:41 97:92 98:88 99:37 100:88 101:84 102:31 103:82 104:78 105:30 106:84 107:79 108:40 109:96 110:91 111:40 112:96 113:91 114:24 115:82 116:77 117:21 118:79 119:74 120:44 121:90 122:84 123:62 124:108 125:102 126:53 127:99 128:93 129:51 130:97 131:91 132:54 133:100 134:94 135:50 136:96 137:90 138:52 139:98 140:92 141:46 142:92 143:86 144:43 145:95 146:88 147:49 148:101 149:94 150:43 151:95 152:88 153:33 154:87 155:80 156:28 157:85 158:77 159:23 160:80 161:72 162:19 163:78 164:70 165:27 166:86 167:78 168:83 169:125 170:118 171:56 172:100 173:93 174:50 175:97 176:89 177:45 178:94 179:86 180:46 181:97 182:93 183:36 184:87 185:83 186:32 187:82 188:78 189:41 190:92 191:88 192:35 193:86 194:82 195:28 196:82 197:77 198:27 199:83 200:78 201:19 202:77 203:72 204:18 205:78 206:72 207:24 208:84 209:78 210:46 211:98 212:91 213:55 214:107 215:100 216:40 217:92 218:85 219:39 220:91 221:84 222:44 223:96 224:89 225:40 226:92 227:85 228:44 229:96 230:89 231:41 232:93 233:86 234:39 235:91 236:84 237:48 238:100 239:93 240:39 241:93 242:86 243:28 244:82 245:75 246:29 247:86 248:78 249:30 250:89 251:81 252:24 253:83 254:75 255:19 256:78 257:70 258:70 259:112 260:105 261:65 262:107 263:100 264:50 265:94 266:87 267:41 268:90 269:82 270:45 271:96 272:92 273:34 274:85 275:81 276:38 277:88 278:84 279:48 280:98 281:94 282:35 283:86 284:82 285:32 286:86 287:81 288:36 289:94 290:89 291:28 292:88 293:82 294:24 295:84 296:78 297:21 298:83 299:77 300:45 301:102 302:94 303:36 304:93 305:85 306:22 307:79 308:71 309:41 310:98 311:90 312:49 313:106 314:98 315:27 316:84 317:76 318:27 319:84 320:76 321:38 322:95 323:87 324:39 325:91 326:84 327:45 328:99 329:92 330:35 331:89 332:82 333:21 334:78 335:70 336:30 337:87 338:79 339:37 340:96 341:88 342:25 343:84 344:76 345:11 346:70 347:62 348:52 349:93 350:86 351:68 352:110 353:103 354:50 355:94 356:87 357:36 358:85 359:77 360:32 361:92 362:86 363:25 364:87 365:81 366:35 367:91 368:86 369:37 370:93 371:88 372:35 373:91 374:86 375:36 376:92 377:87 378:36 379:92 380:87 381:25 382:81 383:76 384:20 385:76 386:71 387:30 388:86 389:81 390:34 391:90 392:85 393:36 394:92 395:87 396:31 397:87 398:82 399:28 400:84 401:79 402:33 403:89 404:84 405:30 406:86 407:81 408:22 409:78 410:73 411:24 412:80 413:75 414:22 415:80 416:75 417:34 418:92 419:87 420:32 421:88 422:83 423:27 424:83 425:78 426:37 427:91 428:86 429:37 430:88 431:84 432:25 433:76 434:72 435:21 436:72 437:68 438:45 439:90 440:87 441:56 442:101 443:98 444:59 445:104 446:101 447:52 448:97 449:94 450:26 451:86 452:80 453:30 454:90 455:84 456:34 457:90 458:85 459:36 460:92 461:87 462:32 463:88 464:83 465:31 466:87 467:82 468:32 469:88 470:83 471:25 472:81 473:76 474:24 475:80 476:75 477:37 478:93 479:88 480:37 481:93 482:88 483:42 484:98 485:93 486:38 487:94 488:89 489:38 490:94 491:89 492:44 493:100 494:95 495:39 496:95 497:90 498:30 499:86 500:81 501:30 502:86 503:81 504:31 505:89 506:84 507:38 508:96 509:91 510:31 511:87 512:82 513:23 514:79 515:74 516:33 517:87 518:82 519:39 520:90 521:86 522:34 523:85 524:81 525:35 526:86 527:82 528:41 529:86 530:83 531:53 532:98 533:95 534:58 535:103 536:100 537:56 538:101 539:98 540:20 541:78 542:73 543:25 544:85 545:79 546:42 547:98 548:93 549:45 550:101 551:96 552:39 553:95 554:90 555:35 556:91 557:86 558:36 559:92 560:87 561:33 562:89 563:84 564:38 565:94 566:89 567:52 568:108 569:103 570:37 571:93 572:88 573:40 574:96 575:91 576:35 577:91 578:86 579:34 580:90 581:85 582:40 583:96 584:91 585:38 586:94 587:89 588:31 589:87 590:82 591:33 592:89 593:84 594:34 595:92 596:87 597:37 598:95 599:90 600:31 601:87 602:82 603:26 604:82 605:77 606:36 607:90 608:85 609:43 610:94 611:90 612:42 613:93 614:89 615:45 616:96 617:92 618:43 619:90 620:87 621:50 622:97 623:94 624:51 625:98 626:95 627:47 628:94 629:91 630:37 631:93 632:88 633:35 634:91 635:86 636:45 637:101 638:96 639:49 640:105 641:100 642:43 643:99 644:94 645:38 646:94 647:89 648:40 649:96 650:91 651:39 652:95 653:90 654:42 655:98 656:93 657:53 658:109 659:104 660:39 661:95 662:90 663:39 664:95 665:90 666:30 667:86 668:81 669:26 670:82 671:77 672:33 673:89 674:84 675:34 676:90 677:85 678:33 679:89 680:84 681:38 682:94 683:89 684:29 685:87 686:82 687:31 688:89 689:84 690:32 691:88 692:83 693:34 694:90 695:85 696:42 697:96 698:91 699:47 700:98 701:94 702:45 703:96 704:92 705:44 706:95 707:91 708:45 709:92 710:89 711:48 712:95 713:92 714:46 715:93 716:90 717:41 718:88 719:85 720:67 721:121 722:116 723:55 724:109 725:104 726:39 727:95 728:90 729:44 730:100 731:95 732:38 733:94 734:89 735:34 736:90 737:85 738:38 739:94 740:89 741:37 742:93 743:88 744:33 745:89 746:84 747:37 748:93 749:88 750:38 751:94 752:89 753:40 754:96 755:91 756:33 757:89 758:84 759:32 760:88 761:83 762:39 763:95 764:90 765:39 766:95 767:90 768:35 769:91 770:86 771:39 772:95 773:90 774:29 775:87 776:82 777:26 778:84 779:79 780:29 781:85 782:80 783:34 784:90 785:85 786:39 787:93 788:88 789:44 790:95 791:91 792:45 793:96 794:92 795:44 796:95 797:91 798:36 799:86 800:82 801:41 802:91 803:87 804:44 805:94 806:90 807:43 808:93 809:89 810:69 811:120 812:116 813:57 814:108 815:104 816:41 817:97 818:92 819:44 820:100 821:95 822:37 823:93 824:88 825:34 826:90 827:85 828:42 829:98 830:93 831:42 832:98 833:93 834:32 835:88 836:83 837:27 838:83 839:78 840:27 841:83 842:78 843:33 844:89 845:84 846:33 847:89 848:84 849:35 850:91 851:86 852:43 853:99 854:94 855:38 856:94 857:89 858:29 859:85 860:80 861:28 862:84 863:79 864:36 865:94 866:89 867:25 868:83 869:78 870:25 871:81 872:76 873:29 874:85 875:80 876:31 877:85 878:80 879:38 880:89 881:85 882:46 883:97 884:93 885:46 886:97 887:93 888:38 889:88 890:84 891:40 892:90 893:86 894:43 895:93 896:89 897:44 898:94 899:90 900:48 901:99 902:95 903:49 904:100 905:96 906:47 907:103 908:98 909:46 910:102 911:97 912:35 913:91 914:86 915:32 916:88 917:83 918:46 919:102 920:97 921:51 922:107 923:102 924:37 925:93 926:88 927:27 928:83 929:78 930:28 931:84 932:79 933:32 934:88 935:83 936:29 937:85 938:80 939:29 940:85 941:80 942:37 943:93 944:88 945:34 946:90 947:85 948:27 949:83 950:78 951:28 952:84 953:79 954:39 955:97 956:92 957:25 958:83 959:78 960:27 961:83 962:78 963:32 964:88 965:83 966:31 967:85 968:80 969:36 970:87 971:83 972:44 973:95 974:91 975:43 976:94 977:90 978:45 979:96 980:92 981:42 982:93 983:89 984:39 985:90 986:86 987:38 988:89 989:85 990:39 991:89 992:85 993:54 994:104 995:100 996:45 997:101 998:96 999:41 1000:97 1001:92 1002:26 1003:82 1004:77 1005:24 1006:80 1007:75 1008:42 1009:98 1010:93 1011:50 1012:106 1013:101 1014:36 1015:92 1016:87 1017:23 1018:79 1019:74 1020:44 1021:100 1022:95 1023:42 1024:98 1025:93 1026:31 1027:87 1028:82 1029:26 1030:82 1031:77 1032:33 1033:89 1034:84 1035:36 1036:92 1037:87 1038:37 1039:93 1040:88 1041:43 1042:99 1043:94 1044:36 1045:94 1046:89 1047:24 1048:82 1049:77 1050:32 1051:88 1052:83 1053:42 1054:98 1055:93 1056:38 1057:92 1058:87 1059:38 1060:89 1061:85 1062:40 1063:91 1064:87 1065:35 1066:86 1067:82 1068:47 1069:98 1070:94 1071:43 1072:94 1073:90 1074:40 1075:91 1076:87 1077:38 1078:89 1079:85 1080:40 1081:90 1082:88 1083:50 1084:99 1085:97 1086:43 1087:105 1088:99 1089:43 1090:105 1091:99 1092:25 1093:87 1094:81 1095:17 1096:79 1097:73 1098:26 1099:88 1100:82 1101:24 1102:86 1103:80 1104:20 1105:82 1106:76 1107:31 1108:93 1109:87 1110:45 1111:99 1112:94 1113:42 1114:100 1115:95 1116:22 1117:86 1118:80 1119:8 1120:76 1121:69 1122:14 1123:84 1124:77 1125:24 1126:92 1127:85 1128:28 1129:90 1130:84 1131:30 1132:90 1133:84 1134:32 1135:96 1136:90 1137:23 1138:85 1139:79 1140:37 1141:97 1142:91 1143:43 1144:99 1145:94 1146:30 1147:81 1148:77 1149:36 1150:86 1151:82 1152:54 1153:99 1154:96 1155:45 1156:90 1157:87 1158:45 1159:95 1160:91 1161:43 1162:93 1163:89 1164:35 1165:86 1166:82 1167:41 1168:92 1169:88 1170:38 1171:88 1172:86 1173:45 1174:95 1175:93 1176:29 1177:89 1178:83 1179:25 1180:85 1181:79 1182:27 1183:87 1184:81 1185:30 1186:90 1187:84 1188:28 1189:88 1190:82 1191:32 1192:92 1193:86 1194:34 1195:94 1196:88 1197:26 1198:86 1199:80 1200:34 1201:88 1202:83 1203:33 1204:91 1205:86 1206:19 1207:83 1208:77 1209:10 1210:78 1211:71 1212:17 1213:87 1214:80 1215:25 1216:92 1217:85 1218:24 1219:86 1220:80 1221:24 1222:84 1223:78 1224:29 1225:91 1226:85 1227:18 1228:80 1229:74 1230:24 1231:84 1232:78 1233:29 1234:85 1235:80 1236:27 1237:78 1238:74 1239:38 1240:88 1241:84 1242:52 1243:99 1244:96 1245:50 1246:95 1247:92 1248:43 1249:94 1250:90 1251:40 1252:91 1253:87 1254:34 1255:85 1256:81 1257:40 1258:91 1259:87 1260:33 1261:86 1262:83 1263:41 1264:91 1265:89 1266:26 1267:86 1268:80 1269:9 1270:69 1271:63 1272:26 1273:86 1274:80 1275:40 1276:100 1277:94 1278:26 1279:86 1280:80 1281:31 1282:91 1283:85 1284:41 1285:101 1286:95 1287:24 1288:84 1289:78 1290:37 1291:88 1292:84 1293:33 1294:89 1295:84 1296:17 1297:79 1298:73 1299:5 1300:73 1301:66 1302:13 1303:81 1304:74 1305:18 1306:85 1307:78 1308:18 1309:80 1310:74 1311:21 1312:79 1313:74 1314:23 1315:83 1316:77 1317:17 1318:77 1319:71 1320:20 1321:78 1322:73 1323:28 1324:84 1325:79 1326:31 1327:85 1328:80 1329:43 1330:93 1331:89 1332:51 1333:101 1334:97 1335:49 1336:96 1337:93 1338:40 1339:91 1340:87 1341:38 1342:89 1343:85 1344:32 1345:83 1346:79 1347:38 1348:89 1349:85 1350:29 1351:84 1352:81 1353:36 1354:91 1355:88 1356:39 1357:97 1358:92 1359:14 1360:72 1361:67 1362:26 1363:84 1364:79 1365:43 1366:101 1367:96 1368:28 1369:86 1370:81 1371:25 1372:83 1373:78 1374:36 1375:94 1376:89 1377:31 1378:89 1379:84 1380:44 1381:95 1382:91 1383:37 1384:93 1385:88 1386:19 1387:81 1388:75 1389:7 1390:74 1391:67 1392:11 1393:79 1394:72 1395:14 1396:78 1397:72 1398:13 1399:73 1400:67 1401:16 1402:74 1403:69 1404:19 1405:77 1406:72 1407:18 1408:76 1409:71 1410:33 1411:89 1412:84 1413:42 1414:98 1415:93 1416:39 1417:93 1418:88 1419:44 1420:95 1421:91 1422:49 1423:99 1424:95 1425:41 1426:91 1427:87 1428:32 1429:86 1430:81 1431:34 1432:88 1433:83 1434:30 1435:84 1436:79 1437:37 1438:91 1439:86 1440:25 1441:82 1442:79 1443:34 1444:91 1445:88 1446:38 1447:96 1448:91 1449:28 1450:86 1451:81 1452:30 1453:88 1454:83 1455:39 1456:97 1457:92 1458:36 1459:94 1460:89 1461:28 1462:86 1463:81 1464:29 1465:87 1466:82 1467:35 1468:93 1469:88 1470:43 1471:93 1472:89 1473:38 1474:92 1475:87 1476:24 1477:84 1478:78 1479:17 1480:81 1481:75 1482:21 1483:88 1484:81 1485:19 1486:83 1487:77 1488:14 1489:74 1490:68 1491:18 1492:74 1493:69 1494:26 1495:82 1496:77 1497:23 1498:79 1499:74 1500:41 1501:97 1502:92 1503:50 1504:104 1505:99 1506:32 1507:86 1508:81 1509:32 1510:86 1511:81 1512:43 1513:94 1514:90 1515:34 1516:85 1517:81 1518:23 1519:79 1520:74 1521:30 1522:86 1523:81 1524:30 1525:86 1526:81 1527:39 1528:93 1529:88 1530:21 1531:80 1532:76 1533:30 1534:89 1535:85 1536:24 1537:80 1538:75 1539:41 1540:97 1541:92 1542:39 1543:95 1544:90 1545:35 1546:91 1547:86 1548:45 1549:101 1550:96 1551:40 1552:96 1553:91 1554:30 1555:86 1556:81 1557:35 1558:91 1559:86 1560:44 1561:91 1562:88 1563:37 1564:88 1565:84 1566:22 1567:80 1568:75 1569:17 1570:81 1571:75 1572:26 1573:90 1574:84 1575:27 1576:89 1577:83 1578:25 1579:83 1580:78 1581:35 1582:89 1583:84 1584:39 1585:93 1586:88 1587:27 1588:81 1589:76 1590:38 1591:92 1592:87 1593:39 1594:93 1595:88 1596:18 1597:72 1598:67 1599:22 1600:76 1601:71 1602:37 1603:91 1604:86 1605:29 1606:83 1607:78 1608:13 1609:73 1610:67 1611:27 1612:85 1613:80 1614:33 1615:89 1616:84 1617:39 1618:93 1619:88 1620:16 1621:75 1622:71 1623:22 1624:83 1625:79 1626:21 1627:77 1628:72 1629:46 1630:102 1631:97 1632:41 1633:97 1634:92 1635:28 1636:84 1637:79 1638:38 1639:94 1640:89 1641:41 1642:97 1643:92 1644:32 1645:88 1646:83 1647:34 1648:90 1649:85 1650:47 1651:94 1652:91 1653:37 1654:88 1655:84 1656:18 1657:76 1658:71 1659:16 1660:78 1661:72 1662:24 1663:88 1664:82 1665:28 1666:90 1667:84 1668:32 1669:90 1670:85 1671:46 1672:100 1673:95 1674:47 1675:98 1676:94 1677:29 1678:83 1679:78 1680:29 1681:83 1682:78 1683:30 1684:84 1685:79 1686:20 1687:74 1688:69 1689:25 1690:81 1691:76 1692:35 1693:91 1694:86 1695:25 1696:81 1697:76 1698:8 1699:68 1700:62 1701:26 1702:86 1703:80 1704:33 1705:91 1706:86 1707:38 1708:92 1709:87 1710:11 1711:72 1712:68 1713:16 1714:77 1715:73 1716:35 1717:89 1718:84 1719:50 1720:104 1721:99 1722:40 1723:94 1724:89 1725:24 1726:78 1727:73 1728:28 1729:82 1730:77 1731:34 1732:88 1733:83 1734:33 1735:87 1736:82 1737:38 1738:92 1739:87 1740:47 1741:94 1742:91 1743:37 1744:88 1745:84 1746:21 1747:79 1748:74 1749:20 1750:82 1751:76 1752:28 1753:92 1754:86 1755:30 1756:90 1757:84 1758:31 1759:87 1760:82 1761:41 1762:95 1763:90 1764:48 1765:99 1766:95 1767:32 1768:83 1769:79 1770:27 1771:78 1772:74 1773:30 1774:84 1775:79 1776:32 1777:88 1778:83 1779:39 1780:95 1781:90 1782:37 1783:93 1784:88 1785:20 1786:78 1787:73 1788:4 1789:66 1790:60 1791:26 1792:86 1793:80 1794:34 1795:92 1796:87 1797:37 1798:91 1799:86 1800:21 1801:71 1802:69 1803:29 1804:82 1805:79 1806:33 1807:87 1808:82 1809:44 1810:95 1811:91 1812:57 1813:104 1814:101 1815:57 1816:104 1817:101 1818:41 1819:92 1820:88 1821:21 1822:79 1823:74 1824:14 1825:81 1826:74 1827:18 1828:91 1829:83 1830:56 1831:107 1832:103 1833:49 1834:100 1835:96 1836:19 1837:73 1838:68 1839:16 1840:72 1841:67 1842:24 1843:82 1844:77 1845:23 1846:83 1847:77 1848:26 1849:88 1850:82 1851:23 1852:87 1853:81 1854:57 1855:97 1856:96 1857:49 1858:96 1859:94 1860:29 1861:82 1862:79 1863:19 1864:78 1865:74 1866:28 1867:89 1868:85 1869:33 1870:92 1871:88 1872:32 1873:87 1874:84 1875:31 1876:84 1877:81 1878:50 1879:90 1880:89 1881:45 1882:89 1883:88 1884:30 1885:83 1886:80 1887:21 1888:82 1889:78 1890:21 1891:76 1892:73 1893:33 1894:88 1895:85 1896:41 1897:95 1898:90 1899:41 1900:92 1901:88 1902:51 1903:101 1904:97 1905:63 1906:110 1907:107 1908:50 1909:101 1910:97 1911:24 1912:82 1913:77 1914:16 1915:83 1916:76 1917:29 1918:99 1919:92 1920:48 1921:99 1922:95 1923:43 1924:97 1925:92 1926:27 1927:81 1928:76 1929:37 1930:93 1931:88 1932:48 1933:106 1934:101 1935:36 1936:96 1937:90 1938:27 1939:89 1940:83 1941:21 1942:83 1943:77 1944:57 1945:99 1946:98 1947:55 1948:102 1949:100 1950:31 1951:84 1952:81 1953:23 1954:82 1955:78 1956:31 1957:92 1958:88 1959:34 1960:93 1961:89 1962:36 1963:91 1964:88 1965:32 1966:85 1967:82 1968:78 1969:120 1970:119 1971:65 1972:112 1973:110 1974:41 1975:94 1976:91 1977:25 1978:84 1979:80 1980:23 1981:84 1982:80 1983:33 1984:94 1985:90 1986:41 1987:97 1988:92 1989:42 1990:96 1991:91 1992:51 1993:101 1994:97 1995:59 1996:106 1997:103 1998:49 1999:100 2000:96 2001:29 2002:87 2003:82 2004:21 2005:85 2006:79 2007:25 2008:93 2009:86 2010:34 2011:85 2012:81 2013:35 2014:89 2015:84 2016:30 2017:84 2018:79 2019:53 2020:109 2021:104 2022:70 2023:126 2024:121 2025:48 2026:106 2027:101 2028:29 2029:89 2030:83 2031:16 2032:76 2033:70 2034:45 2035:87 2036:86 2037:47 2038:96 2039:94 2040:21 2041:76 2042:73 2043:19 2044:78 2045:74 2046:28 2047:89 2048:85 2049:31 2050:88 2051:85 2052:40 2053:93 2054:90 2055:33 2056:83 2057:81 2058:62 2059:106 2060:105 2061:52 2062:101 2063:99 2064:35 2065:88 2066:85 2067:28 2068:85 2069:82 2070:24 2071:90 2072:85 2073:29 2074:95 2075:90 2076:33 2077:91 2078:86 2079:46 2080:102 2081:97 2082:53 2083:104 2084:100 2085:44 2086:94 2087:90 2088:40 2089:90 2090:86 2091:37 2092:93 2093:88 2094:27 2095:89 2096:83 2097:11 2098:78 2099:71 2100:25 2101:79 2102:74 2103:31 2104:85 2105:80 2106:28 2107:82 2108:77 2109:50 2110:104 2111:99 2112:66 2113:122 2114:117 2115:52 2116:108 2117:103 2118:36 2119:92 2120:87 2121:19 2122:75 2123:70 2124:56 2125:103 2126:101 2127:66 2128:115 2129:113 2130:37 2131:92 2132:89 2133:32 2134:91 2135:87 2136:39 2137:98 2138:94 2139:38 2140:95 2141:92 2142:50 2143:100 2144:98 2145:38 2146:87 2147:85 2148:48 2149:97 2150:95 2151:48 2152:98 2153:96 2154:39 2155:92 2156:89 2157:35 2158:90 2159:87 2160:27 2161:93 2162:88 2163:23 2164:89 2165:84 2166:28 2167:88 2168:82 2169:40 2170:98 2171:93 2172:49 2173:100 2174:96 2175:43 2176:93 2177:89 2178:42 2179:92 2180:88 2181:44 2182:98 2183:93 2184:35 2185:95 2186:89 2187:19 2188:83 2189:77 2190:30 2191:86 2192:81 2193:40 2194:94 2195:89 2196:29 2197:83 2198:78 2199:37 2200:91 2201:86 2202:54 2203:108 2204:103 2205:53 2206:107 2207:102 2208:50 2209:101 2210:97 2211:36 2212:87 2213:83 2214:49 2215:98 2216:96 2217:64 2218:114 2219:112 2220:36 2221:93 2222:90 2223:33 2224:92 2225:88 2226:42 2227:101 2228:97 2229:45 2230:100 2231:97 2232:58 2233:107 2234:105 2235:46 2236:93 2237:91 2238:41 2239:96 2240:93 2241:48 2242:101 2243:98 2244:43 2245:96 2246:93 2247:35 2248:88 2249:85 2250:31 2251:92 2252:88 2253:23 2254:84 2255:80 2256:28 2257:90 2258:84 2259:29 2260:87 2261:82 2262:39 2263:93 2264:88 2265:53 2266:103 2267:99 2268:54 2269:104 2270:100 2271:44 2272:98 2273:93 2274:40 2275:98 2276:93 2277:44 2278:106 2279:100 2280:42 2281:98 2282:93 2283:52 2284:108 2285:103 2286:37 2287:91 2288:86 2289:34 2290:88 2291:83 2292:48 2293:99 2294:95 2295:56 2296:106 2297:102 2298:62 2299:112 2300:108 2301:54 2302:104 2303:100 2304:28 2305:78 2306:76 2307:44 2308:97 2309:94 2310:26 2311:83 2312:80 2313:21 2314:82 2315:78 2316:35 2317:94 2318:90 2319:46 2320:101 2321:98 2322:60 2323:109 2324:107 2325:54 2326:96 2327:95 2328:32 2329:91 2330:87 2331:37 2332:94 2333:91 2334:34 2335:87 2336:84 2337:30 2338:80 2339:78 2340:37 2341:92 2342:89 2343:33 2344:88 2345:85 2346:26 2347:90 2348:84 2349:25 2350:85 2351:79 2352:38 2353:92 2354:87 2355:56 2356:106 2357:102 2358:56 2359:106 2360:102 2361:43 2362:94 2363:90 2364:39 2365:97 2366:92 2367:52 2368:112 2369:106 2370:47 2371:103 2372:98 2373:59 2374:115 2375:110 2376:46 2377:100 2378:95 2379:44 2380:95 2381:91 2382:52 2383:102 2384:98 2385:54 2386:104 2387:100 2388:65 2389:112 2390:109 2391:63 2392:110 2393:107 2394:39 2395:92 2396:89 2397:54 2398:109 2399:106 2400:40 2401:99 2402:95 2403:29 2404:90 2405:86 2406:40 2407:99 2408:95 2409:54 2410:107 2411:104 2412:63 2413:110 2414:108 2415:57 2416:99 2417:98 2418:33 2419:97 2420:92 2421:37 2422:96 2423:92 2424:35 2425:88 2426:85 2427:37 2428:86 2429:84 2430:42 2431:92 2432:90 2433:42 2434:95 2435:92 2436:21 2437:88 2438:81 2439:29 2440:91 2441:85 2442:41 2443:97 2444:92 2445:51 2446:101 2447:97 2448:46 2449:96 2450:92 2451:39 2452:90 2453:86 2454:37 2455:93 2456:88 2457:41 2458:101 2459:95 2460:43 2461:101 2462:96 2463:58 2464:114 2465:109 2466:50 2467:104 2468:99 2469:53 2470:104 2471:100 2472:57 2473:107 2474:103 2475:53 2476:100 2477:97 2478:61 2479:106 2480:103 2481:63 2482:108 2483:105 2484:40 2485:93 2486:90 2487:53 2488:108 2489:105 2490:42 2491:101 2492:97 2493:28 2494:89 2495:85 2496:37 2497:96 2498:92 2499:53 2500:106 2501:103 2502:58 2503:105 2504:103 2505:55 2506:95 2507:94 2508:23 2509:87 2510:82 2511:28 2512:87 2513:83 2514:32 2515:85 2516:82 2517:47 2518:96 2519:94 2520:38 2521:93 2522:90 2523:30 2524:91 2525:87 2526:30 2527:87 2528:84 2529:38 2530:95 2531:92 2532:36 2533:95 2534:91 2535:27 2536:86 2537:82 2538:27 2539:88 2540:84 2541:38 2542:99 2543:95 2544:39 2545:103 2546:98 2547:33 2548:97 2549:92 2550:45 2551:98 2552:95 2553:44 2554:101 2555:98 2556:43 2557:104 2558:100 2559:35 2560:101 2561:96 2562:29 2563:95 2564:90 2565:30 2566:91 2567:87 2568:38 2569:95 2570:92 2571:49 2572:102 2573:99 2574:49 2575:99 2576:97 2577:61 2578:111 2579:109 2580:58 2581:108 2582:106 2583:48 2584:98 2585:96 2586:53 2587:103 2588:101 2589:59 2590:109 2591:107 2592:51 2593:101 2594:99 2595:40 2596:90 2597:88 2598:39 2599:94 2600:91 2601:41 2602:96 2603:93 2604:41 2605:96 2606:93 2607:41 2608:98 2609:95 2610:42 2611:97 2612:94 2613:35 2614:94 2615:90 2616:45 2617:98 2618:95 2619:52 2620:107 2621:104 2622:47 2623:102 2624:99 2625:34 2626:91 2627:88 2628:37 2629:94 2630:91 2631:43 2632:102 2633:98 2634:42 2635:101 2636:97 2637:36 2638:97 2639:93 2640:37 2641:90 2642:87 2643:37 2644:94 2645:91 2646:40 2647:101 2648:97 2649:38 2650:104 2651:99 2652:37 2653:103 2654:98 2655:36 2656:97 2657:93 2658:34 2659:91 2660:88 2661:36 2662:89 2663:86 2664:48 2665:98 2666:96 2667:54 2668:104 2669:102 2670:55 2671:105 2672:103 2673:47 2674:97 2675:95 2676:42 2677:92 2678:90 2679:47 2680:97 2681:95 2682:49 2683:99 2684:97 2685:44 2686:94 2687:92 2688:42 2689:97 2690:94 2691:41 2692:96 2693:93 2694:40 2695:97 2696:94 2697:39 2698:96 2699:93 2700:-1 
2.507757483650518e-19 0:36 1:94 2:93 3:37 4:95 5:94 6:12 7:83 8:80 9:31 10:98 11:95 12:30 13:88 14:87 15:30 16:84 17:84 18:54 19:104 20:104 21:51 22:103 23:103 24:28 25:85 26:84 27:25 28:83 29:82 30:40 31:95 32:92 33:37 34:92 35:89 36:36 37:91 38:88 39:37 40:92 41:89 42:37 43:92 44:89 45:33 46:88 47:85 48:24 49:79 50:76 51:15 52:70 53:67 54:36 55:89 56:86 57:35 58:88 59:85 60:39 61:89 62:87 63:42 64:92 65:90 66:11 67:60 68:58 69:7 70:56 71:54 72:26 73:73 74:71 75:42 76:89 77:87 78:27 79:74 80:71 81:17 82:62 83:59 84:12 85:55 86:52 87:22 88:62 89:57 90:32 91:92 92:91 93:30 94:90 95:89 96:10 97:81 98:78 99:29 100:96 101:93 102:32 103:90 104:89 105:31 106:85 107:85 108:49 109:101 110:101 111:46 112:100 113:100 114:29 115:87 116:86 117:29 118:89 119:88 120:38 121:93 122:90 123:36 124:91 125:88 126:39 127:94 128:91 129:39 130:94 131:91 132:33 133:88 134:85 135:32 136:87 137:84 138:33 139:88 140:85 141:30 142:85 143:82 144:28 145:81 146:78 147:33 148:86 149:83 150:43 151:93 152:91 153:47 154:97 155:95 156:16 157:65 158:63 159:9 160:58 161:56 162:22 163:69 164:67 165:26 166:73 167:71 168:22 169:67 170:64 171:16 172:61 173:58 174:8 175:51 176:48 177:11 178:51 179:46 180:27 181:90 182:88 183:19 184:82 185:80 186:8 187:79 188:76 189:30 190:95 191:93 192:35 193:93 194:92 195:34 196:88 197:88 198:45 199:97 200:97 201:38 202:95 203:94 204:28 205:88 206:87 207:32 208:95 209:93 210:41 211:96 212:93 213:38 214:93 215:90 216:44 217:99 218:96 219:43 220:98 221:95 222:29 223:84 224:81 225:30 226:85 227:82 228:39 229:94 230:91 231:38 232:93 233:90 234:26 235:79 236:76 237:33 238:86 239:83 240:44 241:94 242:92 243:45 244:95 245:93 246:15 247:64 248:62 249:10 250:59 251:57 252:22 253:69 254:67 255:12 256:59 257:57 258:15 259:60 260:57 261:23 262:66 263:63 264:13 265:53 266:51 267:4 268:44 269:39 270:25 271:88 272:86 273:9 274:74 275:72 276:13 277:82 278:79 279:30 280:95 281:93 282:38 283:96 284:95 285:37 286:91 287:91 288:38 289:92 290:92 291:30 292:88 293:87 294:24 295:87 296:85 297:29 298:96 299:93 300:46 301:101 302:98 303:39 304:94 305:91 306:46 307:101 308:98 309:46 310:101 311:98 312:30 313:85 314:82 315:30 316:85 317:82 318:37 319:92 320:89 321:30 322:85 323:82 324:31 325:84 326:81 327:35 328:88 329:85 330:39 331:89 332:87 333:34 334:84 335:82 336:11 337:60 338:58 339:10 340:59 341:57 342:25 343:72 344:70 345:8 346:55 347:53 348:16 349:56 350:54 351:34 352:74 353:72 354:24 355:64 356:62 357:9 358:49 359:44 360:28 361:93 362:91 363:11 364:78 365:75 366:21 367:88 368:85 369:29 370:94 371:92 372:37 373:95 374:94 375:37 376:94 377:93 378:34 379:91 380:90 381:24 382:84 383:83 384:16 385:83 386:80 387:18 388:89 389:86 390:42 391:97 392:94 393:33 394:88 395:85 396:40 397:95 398:92 399:46 400:101 401:98 402:37 403:92 404:89 405:36 406:91 407:88 408:35 409:90 410:87 411:19 412:74 413:71 414:30 415:83 416:80 417:34 418:87 419:84 420:32 421:82 422:80 423:29 424:79 425:77 426:16 427:65 428:63 429:13 430:62 431:60 432:27 433:74 434:72 435:7 436:54 437:52 438:15 439:54 440:52 441:40 442:79 443:77 444:35 445:74 446:72 447:17 448:57 449:52 450:29 451:96 452:93 453:17 454:86 455:83 456:26 457:93 458:90 459:28 460:91 461:89 462:32 463:90 464:89 465:36 466:93 467:92 468:34 469:92 470:91 471:22 472:85 473:83 474:11 475:80 476:77 477:7 478:81 479:77 480:32 481:87 482:84 483:26 484:81 485:78 486:35 487:90 488:87 489:45 490:100 491:97 492:43 493:98 494:95 495:42 496:97 497:94 498:35 499:90 500:87 501:19 502:74 503:71 504:24 505:77 506:74 507:30 508:83 509:80 510:26 511:76 512:74 513:29 514:79 515:77 516:30 517:79 518:77 519:19 520:68 521:66 522:28 523:75 524:73 525:9 526:56 527:54 528:17 529:54 530:52 531:41 532:78 533:76 534:39 535:76 536:74 537:22 538:59 539:55 540:19 541:88 542:85 543:17 544:88 545:85 546:29 547:96 548:93 549:22 550:85 551:83 552:24 553:82 554:81 555:34 556:91 557:90 558:36 559:94 560:93 561:24 562:89 563:87 564:9 565:80 566:77 567:0 568:73 569:69 570:28 571:83 572:80 573:29 574:84 575:81 576:39 577:94 578:91 579:46 580:101 581:98 582:44 583:99 584:96 585:40 586:95 587:92 588:34 589:89 590:86 591:25 592:80 593:77 594:24 595:77 596:74 597:28 598:81 599:78 600:17 601:67 602:65 603:24 604:74 605:72 606:38 607:87 608:85 609:22 610:71 611:69 612:32 613:79 614:77 615:21 616:68 617:66 618:25 619:62 620:60 621:41 622:78 623:76 624:40 625:77 626:75 627:24 628:61 629:57 630:8 631:77 632:74 633:14 634:85 635:82 636:30 637:95 638:93 639:17 640:80 641:78 642:18 643:76 644:75 645:31 646:89 647:88 648:36 649:96 650:95 651:27 652:94 653:91 654:8 655:82 656:78 657:0 658:69 659:65 660:30 661:85 662:82 663:38 664:93 665:90 666:46 667:101 668:98 669:48 670:103 671:100 672:41 673:96 674:93 675:34 676:89 677:86 678:30 679:85 680:82 681:28 682:83 683:80 684:31 685:84 686:81 687:29 688:82 689:79 690:8 691:58 692:56 693:15 694:65 695:63 696:37 697:86 698:84 699:21 700:70 701:68 702:36 703:83 704:81 705:36 706:83 707:81 708:36 709:70 710:69 711:45 712:79 713:78 714:42 715:79 716:77 717:26 718:63 719:59 720:19 721:86 722:81 723:24 724:91 725:86 726:14 727:91 728:84 729:8 730:78 731:72 732:31 733:90 734:86 735:41 736:94 737:91 738:39 739:89 740:87 741:42 742:95 743:92 744:27 745:86 746:82 747:11 748:75 749:70 750:36 751:88 752:88 753:46 754:98 755:98 756:43 757:97 758:97 759:38 760:95 761:94 762:40 763:98 764:97 765:28 766:88 767:87 768:18 769:81 770:79 771:24 772:89 773:87 774:23 775:80 776:79 777:24 778:81 779:80 780:30 781:84 782:84 783:26 784:81 785:78 786:31 787:85 788:80 789:33 790:87 791:82 792:45 793:97 794:90 795:18 796:70 797:63 798:0 799:58 800:48 801:22 802:77 803:68 804:38 805:85 806:77 807:37 808:73 809:67 810:28 811:92 812:87 813:23 814:87 815:82 816:12 817:84 818:78 819:7 820:74 821:69 822:27 823:86 824:82 825:39 826:92 827:89 828:42 829:92 830:90 831:48 832:101 833:98 834:37 835:96 836:92 837:25 838:89 839:84 840:30 841:82 842:82 843:46 844:98 845:98 846:45 847:99 848:99 849:34 850:91 851:90 852:27 853:85 854:84 855:19 856:79 857:78 858:20 859:80 860:79 861:31 862:94 863:92 864:26 865:83 866:82 867:34 868:88 869:88 870:38 871:92 872:92 873:27 874:82 875:79 876:26 877:82 878:77 879:32 880:86 881:81 882:41 883:95 884:88 885:14 886:68 887:61 888:0 889:59 890:49 891:11 892:68 893:59 894:28 895:77 896:69 897:35 898:76 899:69 900:27 901:84 902:81 903:33 904:90 905:87 906:25 907:92 908:87 909:20 910:84 911:79 912:31 913:90 914:86 915:38 916:93 917:90 918:41 919:94 920:91 921:45 922:100 923:97 924:40 925:97 926:94 927:31 928:92 929:88 930:53 931:105 932:105 933:52 934:106 935:106 936:39 937:93 938:93 939:27 940:84 941:83 942:33 943:90 944:89 945:35 946:93 947:92 948:28 949:86 950:85 951:20 952:80 953:79 954:25 955:79 956:79 957:37 958:91 959:91 960:44 961:98 962:98 963:28 964:83 965:80 966:27 967:83 968:78 969:32 970:88 971:83 972:43 973:100 974:92 975:21 976:78 977:70 978:3 979:63 980:55 981:10 982:67 983:59 984:29 985:80 986:73 987:34 988:80 989:74 990:31 991:84 992:81 993:42 994:95 995:92 996:36 997:97 998:93 999:34 1000:93 1001:89 1002:35 1003:92 1004:89 1005:37 1006:94 1007:91 1008:41 1009:96 1010:93 1011:42 1012:99 1013:96 1014:42 1015:99 1016:96 1017:38 1018:97 1019:93 1020:43 1021:97 1022:97 1023:51 1024:105 1025:105 1026:48 1027:102 1028:102 1029:37 1030:91 1031:91 1032:33 1033:90 1034:89 1035:38 1036:95 1037:94 1038:38 1039:95 1040:94 1041:33 1042:90 1043:89 1044:32 1045:86 1046:86 1047:43 1048:97 1049:97 1050:50 1051:104 1052:104 1053:32 1054:87 1055:84 1056:27 1057:85 1058:80 1059:27 1060:85 1061:80 1062:34 1063:94 1064:86 1065:23 1066:83 1067:75 1068:21 1069:81 1070:73 1071:21 1072:80 1073:72 1074:33 1075:90 1076:82 1077:33 1078:85 1079:78 1080:46 1081:96 1082:94 1083:49 1084:99 1085:97 1086:40 1087:93 1088:90 1089:38 1090:93 1091:90 1092:33 1093:90 1094:87 1095:35 1096:92 1097:89 1098:41 1099:100 1100:96 1101:46 1102:103 1103:100 1104:49 1105:106 1106:103 1107:53 1108:108 1109:105 1110:31 1111:85 1112:85 1113:38 1114:92 1115:92 1116:45 1117:99 1118:99 1119:44 1120:98 1121:98 1122:44 1123:98 1124:98 1125:53 1126:105 1127:105 1128:54 1129:106 1130:106 1131:48 1132:100 1133:100 1134:48 1135:100 1136:100 1137:51 1138:105 1139:105 1140:56 1141:110 1142:110 1143:35 1144:92 1145:89 1146:30 1147:90 1148:84 1149:19 1150:81 1151:75 1152:21 1153:84 1154:75 1155:22 1156:85 1157:76 1158:37 1159:97 1160:91 1161:33 1162:93 1163:87 1164:40 1165:100 1166:94 1167:36 1168:96 1169:90 1170:43 1171:96 1172:93 1173:56 1174:111 1175:108 1176:52 1177:99 1178:97 1179:53 1180:103 1181:101 1182:39 1183:94 1184:91 1185:35 1186:94 1187:90 1188:39 1189:100 1190:96 1191:40 1192:99 1193:95 1194:44 1195:101 1196:98 1197:51 1198:104 1199:101 1200:48 1201:105 1202:104 1203:43 1204:100 1205:99 1206:50 1207:104 1208:104 1209:59 1210:113 1211:113 1212:63 1213:115 1214:115 1215:66 1216:116 1217:116 1218:61 1219:111 1220:111 1221:49 1222:99 1223:99 1224:44 1225:96 1226:96 1227:47 1228:99 1229:99 1230:50 1231:104 1232:104 1233:33 1234:90 1235:87 1236:33 1237:95 1238:89 1239:23 1240:87 1241:81 1242:22 1243:89 1244:80 1245:31 1246:98 1247:89 1248:35 1249:92 1250:89 1251:34 1252:95 1253:91 1254:44 1255:110 1256:105 1257:45 1258:112 1259:107 1260:27 1261:84 1262:81 1263:50 1264:109 1265:105 1266:64 1267:106 1268:105 1269:66 1270:113 1271:111 1272:44 1273:99 1274:96 1275:34 1276:95 1277:91 1278:35 1279:99 1280:94 1281:31 1282:92 1283:88 1284:36 1285:91 1286:88 1287:44 1288:94 1289:92 1290:48 1291:105 1292:104 1293:48 1294:105 1295:104 1296:65 1297:119 1298:119 1299:75 1300:127 1301:127 1302:60 1303:110 1304:110 1305:48 1306:96 1307:97 1308:54 1309:102 1310:103 1311:62 1312:108 1313:109 1314:41 1315:91 1316:91 1317:43 1318:95 1319:95 1320:46 1321:100 1322:100 1323:28 1324:87 1325:83 1326:36 1327:98 1328:92 1329:29 1330:96 1331:89 1332:28 1333:97 1334:87 1335:37 1336:106 1337:96 1338:27 1339:84 1340:81 1341:27 1342:88 1343:84 1344:38 1345:105 1346:100 1347:42 1348:116 1349:110 1350:20 1351:81 1352:77 1353:26 1354:87 1355:83 1356:62 1357:100 1358:100 1359:66 1360:110 1361:109 1362:42 1363:97 1364:94 1365:33 1366:94 1367:90 1368:37 1369:101 1370:96 1371:32 1372:93 1373:89 1374:39 1375:94 1376:91 1377:48 1378:98 1379:96 1380:36 1381:93 1382:92 1383:24 1384:81 1385:80 1386:39 1387:93 1388:93 1389:59 1390:111 1391:111 1392:53 1393:103 1394:103 1395:45 1396:93 1397:94 1398:54 1399:100 1400:101 1401:60 1402:106 1403:107 1404:52 1405:102 1406:102 1407:55 1408:107 1409:107 1410:53 1411:107 1412:107 1413:26 1414:85 1415:81 1416:33 1417:95 1418:89 1419:27 1420:94 1421:87 1422:20 1423:89 1424:79 1425:23 1426:94 1427:84 1428:32 1429:89 1430:86 1431:19 1432:80 1433:76 1434:18 1435:88 1436:82 1437:29 1438:106 1439:99 1440:39 1441:93 1442:88 1443:40 1444:94 1445:89 1446:48 1447:103 1448:100 1449:47 1450:102 1451:99 1452:51 1453:106 1454:103 1455:46 1456:101 1457:98 1458:33 1459:88 1460:85 1461:34 1462:89 1463:86 1464:43 1465:98 1466:95 1467:44 1468:99 1469:96 1470:5 1471:89 1472:84 1473:26 1474:102 1475:98 1476:31 1477:91 1478:90 1479:32 1480:82 1481:82 1482:49 1483:97 1484:98 1485:52 1486:109 1487:108 1488:30 1489:99 1490:96 1491:12 1492:89 1493:85 1494:43 1495:102 1496:98 1497:42 1498:97 1499:94 1500:53 1501:102 1502:100 1503:55 1504:102 1505:100 1506:42 1507:89 1508:87 1509:35 1510:84 1511:82 1512:33 1513:88 1514:85 1515:30 1516:89 1517:85 1518:39 1519:94 1520:91 1521:32 1522:89 1523:86 1524:29 1525:88 1526:84 1527:30 1528:94 1529:89 1530:52 1531:106 1532:101 1533:54 1534:108 1535:103 1536:39 1537:96 1538:93 1539:36 1540:93 1541:90 1542:40 1543:97 1544:94 1545:39 1546:96 1547:93 1548:32 1549:89 1550:86 1551:35 1552:92 1553:89 1554:45 1555:102 1556:99 1557:46 1558:103 1559:100 1560:7 1561:89 1562:84 1563:23 1564:97 1565:93 1566:33 1567:93 1568:92 1569:42 1570:94 1571:94 1572:56 1573:106 1574:106 1575:47 1576:104 1577:103 1578:26 1579:93 1580:90 1581:15 1582:91 1583:87 1584:38 1585:102 1586:97 1587:36 1588:95 1589:91 1590:48 1591:101 1592:98 1593:58 1594:107 1595:105 1596:53 1597:102 1598:100 1599:46 1600:99 1601:96 1602:40 1603:99 1604:95 1605:30 1606:94 1607:89 1608:48 1609:105 1610:102 1611:41 1612:98 1613:95 1614:30 1615:89 1616:85 1617:25 1618:86 1619:82 1620:46 1621:102 1622:97 1623:50 1624:106 1625:101 1626:43 1627:100 1628:97 1629:40 1630:97 1631:94 1632:42 1633:99 1634:96 1635:42 1636:99 1637:96 1638:38 1639:95 1640:92 1641:45 1642:102 1643:99 1644:53 1645:110 1646:107 1647:50 1648:107 1649:104 1650:8 1651:88 1652:83 1653:22 1654:93 1655:90 1656:38 1657:98 1658:97 1659:55 1660:107 1661:107 1662:60 1663:112 1664:112 1665:43 1666:100 1667:99 1668:24 1669:89 1670:87 1671:22 1672:93 1673:90 1674:30 1675:97 1676:92 1677:25 1678:89 1679:84 1680:37 1681:96 1682:92 1683:54 1684:109 1685:106 1686:56 1687:111 1688:108 1689:49 1690:108 1691:104 1692:39 1693:103 1694:98 1695:27 1696:94 1697:89 1698:46 1699:105 1700:101 1701:48 1702:107 1703:103 1704:41 1705:100 1706:96 1707:31 1708:90 1709:86 1710:35 1711:91 1712:86 1713:41 1714:97 1715:92 1716:47 1717:106 1718:102 1719:46 1720:105 1721:101 1722:46 1723:105 1724:101 1725:38 1726:97 1727:93 1728:34 1729:93 1730:89 1731:46 1732:105 1733:101 1734:51 1735:110 1736:106 1737:39 1738:98 1739:94 1740:10 1741:84 1742:80 1743:25 1744:94 1745:91 1746:44 1747:104 1748:103 1749:55 1750:109 1751:109 1752:53 1753:107 1754:107 1755:43 1756:100 1757:99 1758:32 1759:95 1760:93 1761:30 1762:97 1763:94 1764:25 1765:97 1766:91 1767:18 1768:85 1769:80 1770:24 1771:88 1772:83 1773:40 1774:99 1775:95 1776:39 1777:98 1778:94 1779:32 1780:96 1781:91 1782:31 1783:98 1784:93 1785:25 1786:97 1787:91 1788:27 1789:88 1790:84 1791:46 1792:105 1793:101 1794:56 1795:113 1796:110 1797:51 1798:106 1799:103 1800:34 1801:92 1802:87 1803:36 1804:94 1805:89 1806:37 1807:96 1808:92 1809:41 1810:100 1811:96 1812:40 1813:99 1814:95 1815:28 1816:87 1817:83 1818:23 1819:82 1820:78 1821:39 1822:98 1823:94 1824:44 1825:103 1826:99 1827:27 1828:86 1829:82 1830:13 1831:82 1832:79 1833:32 1834:99 1835:96 1836:49 1837:109 1838:108 1839:47 1840:104 1841:103 1842:40 1843:97 1844:96 1845:45 1846:102 1847:101 1848:45 1849:105 1850:104 1851:37 1852:100 1853:98 1854:30 1855:102 1856:96 1857:21 1858:88 1859:83 1860:25 1861:89 1862:84 1863:34 1864:93 1865:89 1866:26 1867:85 1868:81 1869:18 1870:82 1871:77 1872:25 1873:92 1874:87 1875:30 1876:102 1877:96 1878:12 1879:78 1880:73 1881:32 1882:93 1883:89 1884:56 1885:111 1886:108 1887:68 1888:118 1889:116 1890:33 1891:91 1892:86 1893:26 1894:86 1895:80 1896:28 1897:89 1898:85 1899:33 1900:94 1901:90 1902:35 1903:96 1904:92 1905:26 1906:87 1907:83 1908:21 1909:82 1910:78 1911:37 1912:98 1913:94 1914:44 1915:105 1916:101 1917:33 1918:94 1919:90 1920:22 1921:87 1922:85 1923:39 1924:102 1925:100 1926:50 1927:110 1928:109 1929:41 1930:99 1931:98 1932:31 1933:89 1934:88 1935:43 1936:101 1937:100 1938:52 1939:110 1940:109 1941:42 1942:100 1943:99 1944:32 1945:99 1946:94 1947:27 1948:91 1949:86 1950:41 1951:100 1952:96 1953:55 1954:110 1955:107 1956:43 1957:98 1958:95 1959:27 1960:86 1961:82 1962:26 1963:90 1964:85 1965:30 1966:97 1967:92 1968:16 1969:86 1970:80 1971:20 1972:84 1973:79 1974:41 1975:96 1976:93 1977:69 1978:118 1979:116 1980:29 1981:89 1982:83 1983:21 1984:81 1985:75 1986:29 1987:90 1988:86 1989:29 1990:90 1991:86 1992:34 1993:95 1994:91 1995:34 1996:95 1997:91 1998:28 1999:89 2000:85 2001:35 2002:96 2003:92 2004:46 2005:107 2006:103 2007:46 2008:107 2009:103 2010:37 2011:97 2012:96 2013:41 2014:101 2015:100 2016:48 2017:108 2018:107 2019:42 2020:102 2021:101 2022:30 2023:90 2024:89 2025:37 2026:95 2027:94 2028:47 2029:104 2030:103 2031:43 2032:97 2033:97 2034:33 2035:97 2036:92 2037:30 2038:89 2039:85 2040:51 2041:104 2042:101 2043:75 2044:124 2045:122 2046:69 2047:118 2048:116 2049:49 2050:102 2051:99 2052:37 2053:96 2054:92 2055:32 2056:96 2057:91 2058:28 2059:100 2060:94 2061:22 2062:86 2063:81 2064:36 2065:89 2066:86 2067:63 2068:110 2069:108 2070:33 2071:93 2072:87 2073:29 2074:89 2075:83 2076:29 2077:90 2078:86 2079:22 2080:83 2081:79 2082:29 2083:90 2084:86 2085:35 2086:96 2087:92 2088:27 2089:88 2090:84 2091:25 2092:86 2093:82 2094:37 2095:98 2096:94 2097:47 2098:108 2099:104 2100:48 2101:106 2102:105 2103:38 2104:98 2105:97 2106:45 2107:105 2108:104 2109:46 2110:109 2111:107 2112:34 2113:94 2114:93 2115:32 2116:90 2117:89 2118:41 2119:95 2120:95 2121:43 2122:95 2123:95 2124:45 2125:104 2126:100 2127:34 2128:89 2129:86 2130:48 2131:97 2132:95 2133:72 2134:119 2135:117 2136:74 2137:121 2138:119 2139:60 2140:109 2141:107 2142:50 2143:105 2144:102 2145:46 2146:105 2147:101 2148:33 2149:107 2150:101 2151:29 2152:93 2153:88 2154:40 2155:93 2156:90 2157:59 2158:103 2159:102 2160:43 2161:97 2162:92 2163:51 2164:105 2165:100 2166:40 2167:97 2168:94 2169:18 2170:84 2171:79 2172:45 2173:98 2174:95 2175:67 2176:111 2177:110 2178:32 2179:91 2180:87 2181:36 2182:95 2183:91 2184:51 2185:108 2186:105 2187:3 2188:75 2189:69 2190:41 2191:94 2192:91 2193:44 2194:101 2195:98 2196:33 2197:97 2198:92 2199:30 2200:97 2201:92 2202:26 2203:93 2204:88 2205:32 2206:96 2207:91 2208:50 2209:107 2210:104 2211:45 2212:98 2213:95 2214:45 2215:102 2216:101 2217:37 2218:94 2219:93 2220:48 2221:105 2222:104 2223:57 2224:114 2225:113 2226:42 2227:99 2228:98 2229:34 2230:91 2231:90 2232:41 2233:98 2234:97 2235:44 2236:101 2237:100 2238:48 2239:101 2240:98 2241:44 2242:99 2243:96 2244:32 2245:89 2246:86 2247:37 2248:98 2249:94 2250:36 2251:90 2252:85 2253:40 2254:94 2255:89 2256:37 2257:96 2258:92 2259:20 2260:86 2261:81 2262:44 2263:97 2264:94 2265:64 2266:108 2267:107 2268:32 2269:89 2270:86 2271:31 2272:88 2273:85 2274:49 2275:104 2276:101 2277:18 2278:88 2279:82 2280:37 2281:90 2282:87 2283:43 2284:100 2285:97 2286:33 2287:97 2288:92 2289:27 2290:93 2291:88 2292:20 2293:86 2294:81 2295:29 2296:93 2297:88 2298:51 2299:108 2300:105 2301:43 2302:96 2303:93 2304:41 2305:98 2306:97 2307:37 2308:94 2309:93 2310:42 2311:99 2312:98 2313:42 2314:99 2315:98 2316:34 2317:91 2318:90 2319:36 2320:93 2321:92 2322:41 2323:98 2324:97 2325:34 2326:91 2327:90 2328:56 2329:109 2330:106 2331:53 2332:108 2333:105 2334:49 2335:106 2336:103 2337:43 2338:102 2339:98 2340:37 2341:91 2342:86 2343:40 2344:94 2345:89 2346:27 2347:86 2348:82 2349:12 2350:79 2351:74 2352:34 2353:87 2354:84 2355:53 2356:97 2357:96 2358:31 2359:88 2360:85 2361:33 2362:88 2363:85 2364:49 2365:102 2366:99 2367:30 2368:97 2369:92 2370:32 2371:85 2372:82 2373:41 2374:98 2375:95 2376:36 2377:97 2378:93 2379:26 2380:92 2381:87 2382:16 2383:82 2384:77 2385:29 2386:90 2387:86 2388:51 2389:108 2390:105 2391:42 2392:95 2393:92 2394:41 2395:98 2396:97 2397:41 2398:98 2399:97 2400:40 2401:97 2402:96 2403:32 2404:89 2405:88 2406:29 2407:86 2408:85 2409:41 2410:98 2411:97 2412:44 2413:101 2414:100 2415:31 2416:88 2417:87 2418:43 2419:98 2420:95 2421:45 2422:100 2423:97 2424:46 2425:103 2426:100 2427:41 2428:100 2429:96 2430:49 2431:100 2432:96 2433:54 2434:105 2435:101 2436:25 2437:86 2438:82 2439:15 2440:82 2441:77 2442:31 2443:84 2444:81 2445:44 2446:88 2447:87 2448:32 2449:87 2450:84 2451:36 2452:89 2453:86 2454:42 2455:91 2456:89 2457:19 2458:85 2459:80 2460:31 2461:81 2462:79 2463:40 2464:95 2465:92 2466:37 2467:98 2468:94 2469:34 2470:98 2471:93 2472:23 2473:87 2474:82 2475:28 2476:89 2477:85 2478:51 2479:106 2480:103 2481:44 2482:94 2483:92 2484:47 2485:104 2486:103 2487:47 2488:104 2489:103 2490:44 2491:101 2492:100 2493:36 2494:93 2495:92 2496:32 2497:89 2498:88 2499:40 2500:97 2501:96 2502:45 2503:102 2504:101 2505:43 2506:100 2507:99 2508:33 2509:88 2510:85 2511:37 2512:92 2513:89 2514:30 2515:87 2516:84 2517:39 2518:98 2519:94 2520:53 2521:104 2522:100 2523:58 2524:108 2525:104 2526:35 2527:96 2528:92 2529:30 2530:97 2531:92 2532:46 2533:99 2534:96 2535:50 2536:92 2537:91 2538:34 2539:87 2540:84 2541:40 2542:90 2543:88 2544:38 2545:85 2546:83 2547:8 2548:69 2549:65 2550:32 2551:82 2552:80 2553:39 2554:92 2555:89 2556:37 2557:96 2558:92 2559:40 2560:104 2561:99 2562:34 2563:98 2564:93 2565:32 2566:91 2567:87 2568:49 2569:102 2570:99 2571:47 2572:97 2573:95 2574:47 2575:104 2576:103 2577:48 2578:105 2579:104 2580:47 2581:104 2582:103 2583:43 2584:100 2585:99 2586:36 2587:93 2588:92 2589:31 2590:88 2591:87 2592:40 2593:97 2594:96 2595:56 2596:113 2597:112 2598:41 2599:98 2600:95 2601:42 2602:99 2603:96 2604:35 2605:92 2606:89 2607:46 2608:103 2609:100 2610:49 2611:99 2612:95 2613:48 2614:98 2615:94 2616:28 2617:92 2618:87 2619:26 2620:96 2621:90 2622:57 2623:110 2624:107 2625:59 2626:101 2627:100 2628:38 2629:88 2630:86 2631:51 2632:100 2633:98 2634:58 2635:100 2636:99 2637:25 2638:82 2639:79 2640:35 2641:84 2642:82 2643:40 2644:93 2645:90 2646:32 2647:89 2648:86 2649:39 2650:100 2651:96 2652:42 2653:103 2654:99 2655:35 2656:92 2657:89 2658:46 2659:99 2660:96 2661:51 2662:100 2663:98 2664:41 2665:98 2666:97 2667:44 2668:101 2669:100 2670:44 2671:101 2672:100 2673:43 2674:100 2675:99 2676:36 2677:93 2678:92 2679:23 2680:80 2681:79 2682:31 2683:88 2684:87 2685:56 2686:113 2687:112 2688:44 2689:101 2690:98 2691:44 2692:101 2693:98 2694:47 2695:104 2696:101 2697:50 2698:107 2699:104 2700:-1 
3.773579479583705e-19 0:33 1:71 2:71 3:36 4:80 5:79 6:34 7:84 8:82 9:20 10:77 11:74 12:12 13:69 14:66 15:21 16:71 17:69 18:36 19:80 20:79 21:50 22:88 23:88 24:51 25:95 26:96 27:39 28:83 29:84 30:35 31:79 32:80 33:57 34:101 35:102 36:59 37:103 38:104 39:46 40:90 41:91 42:50 43:94 44:95 45:43 46:87 47:88 48:65 49:101 50:101 51:71 52:107 53:107 54:75 55:113 56:113 57:64 58:102 59:102 60:55 61:95 62:94 63:49 64:91 65:90 66:49 67:91 68:90 69:70 70:112 71:111 72:73 73:110 74:106 75:59 76:100 77:95 78:56 79:104 80:98 81:26 82:80 83:73 84:16 85:73 86:65 87:36 88:93 89:85 90:47 91:87 92:86 93:42 94:86 95:85 96:31 97:81 98:79 99:18 100:73 101:70 102:16 103:71 104:68 105:27 106:77 107:75 108:39 109:83 110:82 111:46 112:86 113:85 114:42 115:86 116:87 117:34 118:78 119:79 120:34 121:78 122:79 123:55 124:99 125:100 126:56 127:100 128:101 129:44 130:88 131:89 132:49 133:93 134:94 135:41 136:85 137:86 138:65 139:105 140:104 141:62 142:102 143:101 144:60 145:102 146:101 147:55 148:97 149:96 150:54 151:98 152:97 153:48 154:92 155:91 156:40 157:87 158:85 159:55 160:102 161:100 162:76 163:113 164:109 165:60 166:101 167:96 168:53 169:104 170:97 171:33 172:87 173:80 174:26 175:83 176:75 177:44 178:98 179:91 180:48 181:90 182:89 183:40 184:87 185:85 186:27 187:77 188:75 189:17 190:70 191:67 192:20 193:73 194:70 195:35 196:85 197:83 198:46 199:93 200:91 201:51 202:93 203:92 204:36 205:80 206:81 207:35 208:79 209:80 210:37 211:81 212:82 213:55 214:99 215:100 216:54 217:98 218:99 219:45 220:89 221:90 222:53 223:97 224:98 225:46 226:90 227:91 228:53 229:97 230:96 231:39 232:86 233:84 234:35 235:82 236:80 237:40 238:89 239:87 240:50 241:99 242:97 243:43 244:93 245:91 246:33 247:83 248:81 249:42 250:95 251:92 252:64 253:104 254:99 255:44 256:88 257:82 258:38 259:89 260:82 261:29 262:83 263:76 264:25 265:82 266:74 267:38 268:92 269:85 270:40 271:87 272:85 273:41 274:88 275:86 276:32 277:81 278:79 279:22 280:71 281:69 282:24 283:73 284:71 285:36 286:85 287:83 288:46 289:93 290:91 291:44 292:91 293:89 294:39 295:83 296:84 297:41 298:85 299:86 300:43 301:87 302:88 303:55 304:99 305:100 306:53 307:97 308:98 309:49 310:93 311:94 312:62 313:106 314:107 315:56 316:100 317:101 318:47 319:96 320:94 321:33 322:83 323:81 324:26 325:76 326:74 327:34 328:87 329:84 330:43 331:96 332:93 333:30 334:85 335:82 336:20 337:75 338:72 339:30 340:85 341:82 342:64 343:105 344:100 345:44 346:90 347:84 348:37 349:89 350:82 351:35 352:92 353:84 354:36 355:93 356:85 357:46 358:98 359:91 360:33 361:82 362:80 363:39 364:88 365:86 366:38 367:85 368:83 369:29 370:76 371:74 372:30 373:77 374:75 375:39 376:86 377:84 378:35 379:84 380:82 381:26 382:75 383:73 384:42 385:86 386:87 387:46 388:90 389:91 390:44 391:88 392:89 393:51 394:95 395:96 396:48 397:92 398:93 399:51 400:95 401:96 402:66 403:110 404:111 405:58 406:102 407:103 408:55 409:104 410:102 411:48 412:98 413:96 414:40 415:90 416:88 417:41 418:94 419:91 420:42 421:95 422:92 423:24 424:79 425:76 426:17 427:72 428:69 429:26 430:81 431:78 432:58 433:102 434:96 435:43 436:91 437:85 438:37 439:89 440:82 441:39 442:96 443:88 444:38 445:95 446:87 447:45 448:97 449:90 450:16 451:69 452:66 453:27 454:77 455:75 456:33 457:80 458:78 459:35 460:77 461:76 462:42 463:84 464:83 465:49 466:96 467:94 468:39 469:89 470:87 471:19 472:72 473:69 474:42 475:86 476:87 477:47 478:91 479:92 480:44 481:88 482:89 483:47 484:91 485:92 486:45 487:89 488:90 489:50 490:94 491:95 492:63 493:107 494:108 495:49 496:93 497:94 498:53 499:97 500:96 501:56 502:103 503:101 504:50 505:97 506:95 507:49 508:98 509:96 510:50 511:99 512:97 513:40 514:90 515:88 516:41 517:91 518:89 519:46 520:99 521:96 522:48 523:94 524:88 525:43 526:94 527:87 528:35 529:89 530:82 531:36 532:93 533:85 534:33 535:87 536:80 537:39 538:90 539:83 540:7 541:62 542:59 543:26 544:76 545:74 546:38 547:82 548:81 549:40 550:80 551:79 552:47 553:87 554:86 555:53 556:97 557:96 558:41 559:91 560:89 561:19 562:74 563:71 564:41 565:85 566:86 567:50 568:94 569:95 570:48 571:92 572:93 573:51 574:95 575:96 576:50 577:94 578:95 579:55 580:99 581:100 582:60 583:104 584:105 585:37 586:81 587:82 588:48 589:88 590:87 591:59 592:99 593:98 594:49 595:91 596:90 597:49 598:91 599:90 600:54 601:98 602:97 603:56 604:100 605:99 606:58 607:105 608:103 609:59 610:106 611:104 612:52 613:100 614:94 615:59 616:110 617:103 618:49 619:103 620:96 621:44 622:101 623:93 624:36 625:90 626:83 627:44 628:95 629:88 630:16 631:73 632:70 633:41 634:91 635:89 636:54 637:98 638:97 639:49 640:87 641:87 642:43 643:81 644:81 645:41 646:85 647:84 648:28 649:78 650:76 651:7 652:64 653:61 654:44 655:88 656:89 657:54 658:98 659:99 660:54 661:98 662:99 663:59 664:103 665:104 666:59 667:103 668:104 669:62 670:106 671:107 672:61 673:105 674:106 675:31 676:75 677:76 678:55 679:91 680:91 681:66 682:102 683:102 684:50 685:88 686:88 687:44 688:82 689:82 690:51 691:91 692:90 693:54 694:96 695:95 696:55 697:97 698:96 699:47 700:89 701:88 702:46 703:94 704:88 705:59 706:111 707:104 708:48 709:105 710:97 711:40 712:97 713:89 714:28 715:82 716:75 717:39 718:87 719:81 720:9 721:66 722:63 723:45 724:95 725:93 726:49 727:91 728:90 729:43 730:79 731:79 732:42 733:76 734:76 735:40 736:78 737:78 738:44 739:88 740:87 741:34 742:84 743:82 744:33 745:83 746:83 747:38 748:84 749:85 750:42 751:80 752:82 753:56 754:89 755:92 756:78 757:111 758:114 759:77 760:115 761:117 762:50 763:96 764:97 765:29 766:79 767:79 768:39 769:81 770:80 771:63 772:105 773:104 774:54 775:96 776:95 777:44 778:88 779:87 780:43 781:87 782:86 783:36 784:83 785:81 786:45 787:92 788:90 789:51 790:100 791:98 792:19 793:73 794:68 795:46 796:100 797:95 798:67 799:121 800:116 801:42 802:98 803:93 804:13 805:69 806:64 807:29 808:87 809:82 810:20 811:75 812:72 813:46 814:96 815:94 816:45 817:87 818:86 819:41 820:79 821:79 822:45 823:81 824:81 825:44 826:82 827:82 828:45 829:89 830:88 831:34 832:83 833:81 834:24 835:74 836:74 837:47 838:93 839:94 840:49 841:88 842:90 843:50 844:85 845:88 846:69 847:104 848:107 849:64 850:103 851:105 852:38 853:84 854:85 855:34 856:84 857:84 858:40 859:82 860:81 861:63 862:105 863:104 864:54 865:96 866:95 867:46 868:90 869:89 870:41 871:88 872:86 873:31 874:78 875:76 876:42 877:91 878:89 879:61 880:110 881:108 882:37 883:91 884:86 885:48 886:102 887:97 888:56 889:112 890:107 891:40 892:96 893:91 894:23 895:79 896:74 897:40 898:98 899:93 900:21 901:74 902:71 903:45 904:94 905:92 906:39 907:83 908:82 909:35 910:75 911:74 912:45 913:83 914:83 915:54 916:94 917:93 918:57 919:101 920:100 921:43 922:90 923:88 924:41 925:89 926:90 927:60 928:106 929:107 930:51 931:92 932:94 933:49 934:87 935:89 936:72 937:110 938:112 939:63 940:104 941:106 942:43 943:89 944:90 945:56 946:104 947:105 948:51 949:93 950:92 951:70 952:112 953:111 954:55 955:99 956:98 957:50 958:94 959:93 960:44 961:91 962:89 963:25 964:74 965:72 966:39 967:88 968:86 969:65 970:114 971:112 972:48 973:104 974:99 975:41 976:97 977:92 978:39 979:95 980:90 981:34 982:90 983:85 984:33 985:89 986:84 987:55 988:111 989:106 990:22 991:71 992:69 993:53 994:102 995:100 996:45 997:89 998:88 999:30 1000:72 1001:71 1002:37 1003:79 1004:78 1005:55 1006:97 1007:96 1008:66 1009:108 1010:107 1011:49 1012:91 1013:90 1014:59 1015:105 1016:106 1017:53 1018:99 1019:100 1020:42 1021:86 1022:87 1023:53 1024:97 1025:98 1026:76 1027:120 1028:121 1029:67 1030:111 1031:112 1032:49 1033:95 1034:96 1035:60 1036:106 1037:107 1038:64 1039:108 1040:107 1041:75 1042:119 1043:118 1044:56 1045:100 1046:99 1047:47 1048:94 1049:92 1050:44 1051:93 1052:91 1053:27 1054:76 1055:74 1056:33 1057:83 1058:81 1059:53 1060:103 1061:101 1062:57 1063:115 1064:110 1065:39 1066:97 1067:92 1068:29 1069:87 1070:82 1071:30 1072:86 1073:81 1074:34 1075:90 1076:85 1077:50 1078:106 1079:101 1080:30 1081:77 1082:75 1083:61 1084:108 1085:106 1086:50 1087:97 1088:95 1089:29 1090:76 1091:74 1092:30 1093:74 1094:73 1095:46 1096:88 1097:87 1098:63 1099:103 1100:102 1101:56 1102:94 1103:94 1104:49 1105:93 1106:94 1107:35 1108:81 1109:82 1110:39 1111:85 1112:86 1113:55 1114:103 1115:104 1116:61 1117:109 1118:110 1119:51 1120:97 1121:98 1122:39 1123:85 1124:86 1125:35 1126:79 1127:80 1128:64 1129:108 1130:107 1131:65 1132:112 1133:110 1134:42 1135:89 1136:87 1137:38 1138:87 1139:85 1140:44 1141:93 1142:91 1143:32 1144:82 1145:80 1146:32 1147:82 1148:80 1149:34 1150:84 1151:82 1152:40 1153:100 1154:94 1155:27 1156:87 1157:81 1158:22 1159:80 1160:75 1161:25 1162:83 1163:78 1164:32 1165:88 1166:83 1167:44 1168:98 1169:93 1170:30 1171:72 1172:71 1173:50 1174:94 1175:93 1176:37 1177:86 1178:84 1179:28 1180:78 1181:76 1182:29 1183:78 1184:76 1185:40 1186:84 1187:83 1188:66 1189:106 1190:105 1191:77 1192:113 1193:113 1194:44 1195:85 1196:87 1197:38 1198:84 1199:85 1200:47 1201:97 1202:97 1203:47 1204:99 1205:99 1206:32 1207:84 1208:84 1209:30 1210:80 1211:80 1212:35 1213:81 1214:82 1215:29 1216:70 1217:72 1218:49 1219:96 1220:94 1221:45 1222:92 1223:90 1224:27 1225:76 1226:74 1227:35 1228:84 1229:82 1230:43 1231:93 1232:91 1233:36 1234:86 1235:84 1236:31 1237:84 1238:81 1239:21 1240:74 1241:71 1242:12 1243:74 1244:68 1245:12 1246:74 1247:68 1248:18 1249:78 1250:72 1251:25 1252:83 1253:78 1254:35 1255:89 1256:84 1257:45 1258:96 1259:92 1260:31 1261:71 1262:70 1263:39 1264:83 1265:82 1266:24 1267:73 1268:71 1269:22 1270:75 1271:72 1272:32 1273:82 1274:80 1275:42 1276:86 1277:85 1278:70 1279:108 1280:108 1281:87 1282:121 1283:121 1284:55 1285:94 1286:96 1287:51 1288:97 1289:98 1290:44 1291:96 1292:96 1293:27 1294:84 1295:83 1296:17 1297:74 1298:73 1299:28 1300:80 1301:80 1302:43 1303:89 1304:90 1305:49 1306:88 1307:90 1308:43 1309:90 1310:88 1311:33 1312:82 1313:80 1314:27 1315:76 1316:74 1317:46 1318:96 1319:94 1320:50 1321:100 1322:98 1323:37 1324:90 1325:87 1326:34 1327:87 1328:84 1329:21 1330:74 1331:71 1332:7 1333:71 1334:65 1335:16 1336:80 1337:74 1338:27 1339:87 1340:81 1341:32 1342:90 1343:85 1344:40 1345:94 1346:89 1347:43 1348:94 1349:90 1350:47 1351:85 1352:85 1353:50 1354:92 1355:91 1356:24 1357:74 1358:72 1359:19 1360:72 1361:69 1362:27 1363:80 1364:77 1365:38 1366:85 1367:83 1368:62 1369:100 1370:100 1371:73 1372:104 1373:105 1374:58 1375:97 1376:99 1377:50 1378:96 1379:97 1380:28 1381:80 1382:80 1383:12 1384:70 1385:69 1386:22 1387:80 1388:79 1389:37 1390:89 1391:89 1392:47 1393:93 1394:94 1395:60 1396:99 1397:101 1398:46 1399:95 1400:93 1401:35 1402:84 1403:82 1404:38 1405:87 1406:85 1407:63 1408:113 1409:111 1410:59 1411:109 1412:107 1413:37 1414:90 1415:87 1416:35 1417:90 1418:87 1419:24 1420:79 1421:76 1422:6 1423:73 1424:66 1425:21 1426:85 1427:79 1428:31 1429:93 1430:87 1431:37 1432:95 1433:90 1434:46 1435:100 1436:95 1437:46 1438:97 1439:93 1440:56 1441:92 1442:92 1443:36 1444:78 1445:77 1446:27 1447:77 1448:75 1449:20 1450:75 1451:72 1452:17 1453:72 1454:69 1455:44 1456:94 1457:92 1458:61 1459:103 1460:102 1461:43 1462:79 1463:79 1464:49 1465:93 1466:92 1467:43 1468:87 1469:86 1470:31 1471:78 1472:76 1473:34 1474:81 1475:79 1476:45 1477:94 1478:92 1479:45 1480:95 1481:93 1482:40 1483:90 1484:88 1485:43 1486:93 1487:91 1488:60 1489:89 1490:93 1491:47 1492:80 1493:83 1494:59 1495:98 1496:100 1497:69 1498:115 1499:116 1500:57 1501:103 1502:104 1503:54 1504:98 1505:99 1506:59 1507:98 1508:100 1509:50 1510:85 1511:88 1512:15 1513:79 1514:74 1515:32 1516:91 1517:87 1518:43 1519:96 1520:93 1521:49 1522:99 1523:97 1524:49 1525:102 1526:99 1527:32 1528:91 1529:87 1530:47 1531:85 1532:85 1533:33 1534:75 1535:74 1536:28 1537:77 1538:75 1539:24 1540:77 1541:74 1542:24 1543:77 1544:74 1545:50 1546:99 1547:97 1548:69 1549:111 1550:110 1551:55 1552:93 1553:93 1554:49 1555:93 1556:92 1557:49 1558:93 1559:92 1560:37 1561:84 1562:82 1563:32 1564:79 1565:77 1566:38 1567:87 1568:85 1569:39 1570:89 1571:87 1572:35 1573:85 1574:83 1575:37 1576:87 1577:85 1578:63 1579:98 1580:101 1581:45 1582:84 1583:86 1584:47 1585:93 1586:94 1587:53 1588:103 1589:103 1590:40 1591:92 1592:92 1593:45 1594:93 1595:94 1596:58 1597:102 1598:103 1599:54 1600:95 1601:97 1602:26 1603:90 1604:85 1605:43 1606:102 1607:98 1608:46 1609:99 1610:96 1611:39 1612:89 1613:87 1614:38 1615:91 1616:88 1617:30 1618:89 1619:85 1620:55 1621:95 1622:94 1623:43 1624:87 1625:86 1626:39 1627:88 1628:86 1629:33 1630:83 1631:81 1632:27 1633:77 1634:75 1635:44 1636:93 1637:91 1638:59 1639:103 1640:102 1641:51 1642:91 1643:90 1644:50 1645:94 1646:93 1647:59 1648:103 1649:102 1650:49 1651:96 1652:94 1653:37 1654:84 1655:82 1656:36 1657:85 1658:83 1659:37 1660:87 1661:85 1662:34 1663:84 1664:82 1665:33 1666:83 1667:81 1668:57 1669:98 1670:100 1671:39 1672:85 1673:86 1674:38 1675:90 1676:90 1677:38 1678:96 1679:95 1680:29 1681:87 1682:86 1683:34 1684:91 1685:90 1686:49 1687:101 1688:101 1689:49 1690:97 1691:98 1692:35 1693:96 1694:92 1695:48 1696:105 1697:102 1698:44 1699:99 1700:96 1701:34 1702:87 1703:84 1704:33 1705:88 1706:85 1707:29 1708:88 1709:84 1710:56 1711:100 1712:99 1713:51 1714:95 1715:94 1716:48 1717:95 1718:93 1719:38 1720:87 1721:85 1722:28 1723:77 1724:75 1725:38 1726:85 1727:83 1728:48 1729:92 1730:91 1731:40 1732:84 1733:83 1734:40 1735:84 1736:83 1737:58 1738:102 1739:101 1740:54 1741:101 1742:99 1743:38 1744:85 1745:83 1746:33 1747:82 1748:80 1749:34 1750:84 1751:82 1752:30 1753:80 1754:78 1755:27 1756:77 1757:75 1758:44 1759:92 1760:93 1761:32 1762:84 1763:84 1764:29 1765:87 1766:86 1767:24 1768:89 1769:87 1770:19 1771:84 1772:82 1773:26 1774:89 1775:87 1776:39 1777:97 1778:96 1779:40 1780:94 1781:94 1782:32 1783:91 1784:87 1785:39 1786:96 1787:93 1788:36 1789:93 1790:90 1791:36 1792:91 1793:88 1794:37 1795:94 1796:91 1797:30 1798:87 1799:84 1800:36 1801:85 1802:83 1803:38 1804:85 1805:83 1806:43 1807:87 1808:86 1809:40 1810:84 1811:83 1812:36 1813:80 1814:79 1815:41 1816:85 1817:84 1818:46 1819:93 1820:91 1821:42 1822:91 1823:89 1824:27 1825:71 1826:70 1827:49 1828:93 1829:92 1830:50 1831:97 1832:95 1833:37 1834:84 1835:82 1836:30 1837:79 1838:77 1839:30 1840:80 1841:78 1842:26 1843:76 1844:74 1845:24 1846:74 1847:72 1848:40 1849:90 1850:90 1851:30 1852:84 1853:84 1854:22 1855:82 1856:81 1857:15 1858:82 1859:79 1860:12 1861:79 1862:76 1863:21 1864:86 1865:84 1866:34 1867:94 1868:93 1869:37 1870:94 1871:93 1872:29 1873:84 1874:81 1875:31 1876:88 1877:85 1878:28 1879:85 1880:82 1881:27 1882:86 1883:82 1884:35 1885:92 1886:89 1887:34 1888:91 1889:88 1890:27 1891:77 1892:75 1893:30 1894:79 1895:77 1896:38 1897:82 1898:81 1899:43 1900:83 1901:82 1902:44 1903:84 1904:83 1905:42 1906:86 1907:85 1908:39 1909:88 1910:86 1911:38 1912:88 1913:86 1914:31 1915:75 1916:74 1917:50 1918:94 1919:93 1920:50 1921:97 1922:95 1923:41 1924:88 1925:86 1926:37 1927:86 1928:84 1929:36 1930:86 1931:84 1932:35 1933:85 1934:83 1935:39 1936:89 1937:87 1938:34 1939:84 1940:84 1941:31 1942:85 1943:85 1944:25 1945:85 1946:84 1947:17 1948:82 1949:80 1950:17 1951:84 1952:81 1953:26 1954:89 1955:87 1956:35 1957:93 1958:92 1959:35 1960:92 1961:91 1962:32 1963:85 1964:82 1965:33 1966:90 1967:87 1968:24 1969:83 1970:79 1971:14 1972:75 1973:71 1974:27 1975:86 1976:82 1977:41 1978:96 1979:93 1980:30 1981:83 1982:80 1983:34 1984:83 1985:81 1986:41 1987:83 1988:82 1989:46 1990:84 1991:84 1992:48 1993:86 1994:86 1995:41 1996:83 1997:82 1998:29 1999:78 2000:76 2001:24 2002:77 2003:74 2004:43 2005:87 2006:86 2007:51 2008:95 2009:94 2010:46 2011:93 2012:91 2013:39 2014:86 2015:84 2016:38 2017:87 2018:85 2019:38 2020:88 2021:86 2022:43 2023:93 2024:91 2025:55 2026:105 2027:103 2028:37 2029:83 2030:84 2031:40 2032:90 2033:90 2034:33 2035:90 2036:89 2037:26 2038:86 2039:85 2040:27 2041:90 2042:88 2043:35 2044:95 2045:94 2046:39 2047:96 2048:95 2049:41 2050:93 2051:93 2052:40 2053:90 2054:88 2055:40 2056:95 2057:92 2058:25 2059:86 2060:82 2061:15 2062:79 2063:74 2064:29 2065:90 2066:86 2067:46 2068:101 2069:98 2070:27 2071:82 2072:79 2073:33 2074:83 2075:81 2076:40 2077:82 2078:81 2079:50 2080:86 2081:86 2082:55 2083:91 2084:91 2085:44 2086:86 2087:85 2088:27 2089:77 2090:75 2091:20 2092:75 2093:72 2094:44 2095:88 2096:87 2097:43 2098:87 2099:86 2100:32 2101:79 2102:77 2103:26 2104:73 2105:71 2106:27 2107:76 2108:74 2109:28 2110:78 2111:76 2112:37 2113:87 2114:85 2115:56 2116:106 2117:104 2118:49 2119:93 2120:94 2121:49 2122:97 2123:98 2124:37 2125:91 2126:91 2127:25 2128:83 2129:82 2130:27 2131:87 2132:86 2133:40 2134:97 2135:96 2136:49 2137:101 2138:101 2139:54 2140:104 2141:104 2142:43 2143:93 2144:91 2145:41 2146:96 2147:93 2148:30 2149:91 2150:87 2151:28 2152:92 2153:87 2154:41 2155:102 2156:98 2157:48 2158:103 2159:100 2160:44 2161:88 2162:87 2163:38 2164:82 2165:81 2166:54 2167:101 2168:99 2169:36 2170:85 2171:83 2172:41 2173:90 2174:88 2175:19 2176:69 2177:67 2178:37 2179:87 2180:85 2181:37 2182:87 2183:85 2184:46 2185:88 2186:87 2187:21 2188:68 2189:66 2190:33 2191:83 2192:81 2193:42 2194:97 2195:94 2196:18 2197:73 2198:70 2199:20 2200:70 2201:68 2202:47 2203:94 2204:92 2205:58 2206:100 2207:99 2208:51 2209:104 2210:101 2211:48 2212:101 2213:98 2214:39 2215:94 2216:91 2217:34 2218:89 2219:86 2220:36 2221:93 2222:90 2223:42 2224:99 2225:96 2226:36 2227:93 2228:90 2229:24 2230:83 2231:79 2232:24 2233:83 2234:79 2235:38 2236:93 2237:90 2238:58 2239:108 2240:106 2241:54 2242:101 2243:99 2244:39 2245:88 2246:86 2247:28 2248:85 2249:82 2250:31 2251:78 2252:76 2253:25 2254:72 2255:70 2256:42 2257:89 2258:87 2259:40 2260:89 2261:87 2262:36 2263:85 2264:83 2265:18 2266:68 2267:66 2268:34 2269:84 2270:82 2271:40 2272:93 2273:90 2274:44 2275:88 2276:87 2277:35 2278:84 2279:82 2280:49 2281:102 2282:99 2283:47 2284:104 2285:101 2286:22 2287:79 2288:76 2289:27 2290:80 2291:77 2292:51 2293:100 2294:98 2295:58 2296:102 2297:101 2298:34 2299:89 2300:86 2301:35 2302:90 2303:87 2304:42 2305:97 2306:94 2307:52 2308:107 2309:104 2310:52 2311:109 2312:106 2313:43 2314:100 2315:97 2316:29 2317:86 2318:83 2319:21 2320:78 2321:75 2322:11 2323:70 2324:66 2325:23 2326:78 2327:75 2328:44 2329:94 2330:92 2331:44 2332:93 2333:91 2334:35 2335:85 2336:83 2337:25 2338:82 2339:79 2340:36 2341:83 2342:81 2343:31 2344:78 2345:76 2346:33 2347:82 2348:80 2349:40 2350:89 2351:87 2352:24 2353:74 2354:72 2355:25 2356:75 2357:73 2358:27 2359:80 2360:77 2361:29 2362:82 2363:79 2364:35 2365:82 2366:80 2367:43 2368:93 2369:91 2370:51 2371:108 2372:105 2373:42 2374:101 2375:97 2376:21 2377:80 2378:76 2379:25 2380:82 2381:79 2382:47 2383:97 2384:95 2385:53 2386:100 2387:98 2388:40 2389:97 2390:94 2391:35 2392:92 2393:89 2394:41 2395:98 2396:95 2397:54 2398:111 2399:108 2400:51 2401:108 2402:105 2403:33 2404:90 2405:87 2406:22 2407:79 2408:76 2409:24 2410:81 2411:78 2412:19 2413:78 2414:74 2415:23 2416:80 2417:77 2418:36 2419:89 2420:86 2421:40 2422:90 2423:88 2424:35 2425:88 2426:85 2427:27 2428:84 2429:81 2430:42 2431:91 2432:89 2433:45 2434:94 2435:92 2436:30 2437:79 2438:77 2439:32 2440:82 2441:80 2442:18 2443:68 2444:66 2445:48 2446:101 2447:98 2448:41 2449:94 2450:91 2451:24 2452:79 2453:76 2454:36 2455:86 2456:84 2457:38 2458:93 2459:90 2460:39 2461:98 2462:94 2463:30 2464:94 2465:89 2466:20 2467:84 2468:79 2469:26 2470:85 2471:81 2472:40 2473:95 2474:92 2475:52 2476:102 2477:100 2478:43 2479:104 2480:100 2481:37 2482:96 2483:92 2484:37 2485:96 2486:92 2487:43 2488:102 2489:98 2490:39 2491:96 2492:93 2493:27 2494:84 2495:81 2496:28 2497:85 2498:82 2499:40 2500:97 2501:94 2502:35 2503:92 2504:89 2505:30 2506:87 2507:84 2508:31 2509:86 2510:83 2511:31 2512:86 2513:83 2514:30 2515:85 2516:82 2517:25 2518:82 2519:79 2520:39 2521:88 2522:86 2523:51 2524:100 2525:98 2526:28 2527:78 2528:76 2529:29 2530:79 2531:77 2532:19 2533:72 2534:69 2535:70 2536:125 2537:122 2538:63 2539:118 2540:115 2541:45 2542:100 2543:97 2544:47 2545:102 2546:99 2547:32 2548:91 2549:87 2550:21 2551:85 2552:80 2553:22 2554:89 2555:84 2556:26 2557:93 2558:88 2559:28 2560:92 2561:87 2562:41 2563:100 2564:96 2565:60 2566:115 2567:112 2568:30 2569:94 2570:89 2571:31 2572:95 2573:90 2574:35 2575:96 2576:92 2577:37 2578:98 2579:94 2580:35 2581:94 2582:90 2583:33 2584:90 2585:87 2586:39 2587:94 2588:91 2589:47 2590:102 2591:99 2592:23 2593:80 2594:77 2595:19 2596:76 2597:73 2598:17 2599:76 2600:72 2601:22 2602:81 2603:77 2604:22 2605:81 2606:77 2607:17 2608:74 2609:71 2610:41 2611:91 2612:89 2613:56 2614:106 2615:104 2616:34 2617:84 2618:82 2619:31 2620:84 2621:81 2622:25 2623:80 2624:77 2625:68 2626:123 2627:120 2628:59 2629:116 2630:113 2631:54 2632:111 2633:108 2634:46 2635:103 2636:100 2637:21 2638:82 2639:78 2640:4 2641:71 2642:66 2643:10 2644:82 2645:76 2646:20 2647:92 2648:86 2649:25 2650:92 2651:87 2652:38 2653:99 2654:95 2655:57 2656:114 2657:111 2658:32 2659:99 2660:94 2661:39 2662:105 2663:100 2664:40 2665:106 2666:101 2667:36 2668:97 2669:93 2670:32 2671:91 2672:87 2673:33 2674:90 2675:87 2676:35 2677:90 2678:87 2679:32 2680:87 2681:84 2682:8 2683:63 2684:60 2685:10 2686:67 2687:64 2688:13 2689:74 2690:70 2691:23 2692:87 2693:82 2694:24 2695:85 2696:81 2697:20 2698:77 2699:74 2700:-1 
9.518826635573264e-19 0:37 1:81 2:82 3:34 4:75 5:77 6:51 7:90 8:92 9:62 10:101 11:103 12:25 13:73 14:74 15:25 16:73 17:74 18:41 19:89 20:90 21:41 22:89 23:90 24:47 25:95 26:96 27:52 28:100 29:101 30:33 31:81 32:82 33:38 34:86 35:87 36:43 37:93 38:93 39:34 40:84 41:84 42:41 43:91 44:91 45:38 46:90 47:90 48:24 49:78 50:78 51:37 52:91 53:91 54:43 55:100 56:99 57:22 58:79 59:78 60:13 61:76 62:66 63:17 64:80 65:71 66:30 67:90 68:84 69:26 70:85 71:81 72:31 73:88 74:87 75:40 76:96 77:97 78:35 79:88 80:91 81:40 82:92 83:98 84:39 85:86 86:90 87:42 88:89 89:93 90:40 91:84 92:83 93:39 94:83 95:82 96:52 97:96 98:95 99:59 100:103 101:102 102:30 103:79 104:77 105:32 106:81 107:79 108:47 109:96 110:94 111:48 112:97 113:95 114:52 115:101 116:99 117:53 118:102 119:100 120:37 121:86 122:84 123:38 124:87 125:85 126:39 127:89 128:87 129:25 130:75 131:73 132:36 133:89 134:86 135:37 136:92 137:89 138:20 139:75 140:72 141:33 142:90 143:87 144:51 145:108 146:105 147:32 148:89 149:86 150:8 151:77 152:67 153:11 154:80 155:70 156:21 157:88 158:81 159:18 160:84 161:79 162:28 163:92 164:87 165:36 166:96 167:95 168:27 169:87 170:87 171:36 172:96 173:96 174:40 175:94 176:89 177:37 178:91 179:86 180:35 181:82 182:79 183:42 184:89 185:86 186:47 187:97 188:93 189:43 190:93 191:89 192:42 193:92 194:88 195:46 196:96 197:92 198:47 199:97 200:93 201:45 202:95 203:91 204:59 205:109 206:105 207:59 208:109 209:105 210:37 211:87 212:83 213:41 214:91 215:87 216:33 217:87 218:82 219:20 220:74 221:69 222:33 223:89 224:84 225:37 226:93 227:88 228:16 229:74 230:69 231:30 232:88 233:83 234:52 235:112 236:106 237:39 238:99 239:93 240:8 241:79 242:69 243:8 244:79 245:69 246:18 247:86 248:79 249:17 250:85 251:78 252:26 253:92 254:87 255:30 256:96 257:91 258:22 259:86 260:81 261:31 262:95 263:90 264:49 265:109 266:99 267:37 268:97 269:87 270:33 271:83 272:79 273:40 274:91 275:87 276:39 277:90 278:86 279:28 280:79 281:75 282:49 283:99 284:95 285:52 286:102 287:98 288:43 289:93 290:89 291:40 292:90 293:86 294:62 295:112 296:108 297:61 298:111 299:107 300:38 301:88 302:84 303:43 304:93 305:89 306:31 307:85 308:80 309:22 310:78 311:73 312:34 313:90 314:85 315:34 316:92 317:87 318:17 319:75 320:70 321:25 322:85 323:79 324:47 325:107 326:101 327:42 328:104 329:98 330:14 331:82 332:75 333:9 334:77 335:70 336:18 337:86 338:79 339:20 340:87 341:80 342:26 343:93 344:86 345:32 346:96 347:90 348:22 349:86 350:80 351:32 352:94 353:88 354:40 355:103 356:93 357:28 358:91 359:81 360:40 361:92 362:85 363:42 364:94 365:87 366:35 367:89 368:82 369:27 370:81 371:74 372:45 373:96 374:89 375:46 376:97 377:90 378:42 379:93 380:86 381:43 382:94 383:87 384:57 385:108 386:101 387:57 388:108 389:101 390:42 391:93 392:86 393:43 394:94 395:87 396:28 397:85 398:77 399:28 400:85 401:77 402:34 403:93 404:85 405:33 406:92 407:84 408:19 409:79 410:71 411:22 412:82 413:74 414:36 415:99 416:90 417:43 418:106 419:97 420:19 421:86 422:79 423:9 424:76 425:69 426:22 427:86 428:80 429:27 430:92 431:83 432:33 433:96 434:87 435:39 436:99 437:91 438:32 439:92 440:84 441:38 442:99 443:89 444:26 445:93 446:84 447:22 448:87 449:78 450:49 451:101 452:94 453:44 454:98 455:91 456:35 457:92 458:84 459:34 460:91 461:83 462:38 463:89 464:82 465:36 466:87 467:80 468:43 469:94 470:87 471:48 472:99 473:92 474:51 475:102 476:95 477:53 478:104 479:97 480:47 481:98 482:91 483:41 484:92 485:85 486:28 487:85 488:77 489:33 490:90 491:82 492:36 493:95 494:87 495:32 496:91 497:83 498:21 499:81 500:73 501:17 502:80 503:71 504:30 505:93 506:84 507:43 508:106 509:97 510:26 511:88 512:82 513:12 514:74 515:68 516:25 517:87 518:81 519:35 520:95 521:87 522:37 523:97 524:89 525:44 526:104 527:94 528:39 529:99 530:89 531:45 532:102 533:93 534:30 535:99 536:89 537:29 538:96 539:89 540:36 541:87 542:80 543:43 544:94 545:87 546:50 547:101 548:94 549:45 550:93 551:87 552:49 553:92 554:89 555:42 556:87 557:84 558:49 559:94 560:91 561:68 562:115 563:112 564:69 565:120 566:116 567:43 568:97 569:92 570:33 571:87 572:82 573:47 574:103 575:98 576:38 577:92 578:85 579:33 580:87 581:80 582:35 583:92 584:84 585:27 586:86 587:78 588:8 589:68 590:60 591:9 592:72 593:63 594:25 595:90 596:81 597:27 598:94 599:85 600:30 601:93 602:84 603:21 604:84 605:75 606:27 607:90 608:81 609:34 610:99 611:90 612:25 613:90 614:81 615:20 616:87 617:78 618:33 619:100 620:91 621:35 622:104 623:94 624:34 625:102 626:95 627:22 628:92 629:85 630:36 631:88 632:81 633:37 634:88 635:81 636:40 637:91 638:84 639:36 640:87 641:80 642:52 643:102 644:98 645:46 646:96 647:92 648:45 649:95 650:91 651:59 652:109 653:105 654:71 655:122 656:118 657:67 658:118 659:114 660:56 661:107 662:103 663:51 664:102 665:98 666:34 667:88 668:81 669:31 670:85 671:78 672:40 673:97 674:89 675:36 676:95 677:87 678:15 679:75 680:67 681:9 682:72 683:63 684:17 685:80 686:71 687:10 688:75 689:66 690:24 691:89 692:80 693:18 694:83 695:74 696:21 697:86 698:77 699:28 700:93 701:84 702:22 703:87 704:78 705:26 706:89 707:80 708:38 709:101 710:92 711:37 712:100 713:91 714:25 715:93 716:86 717:16 718:86 719:79 720:39 721:91 722:84 723:37 724:89 725:82 726:36 727:88 728:81 729:35 730:87 731:80 732:39 733:99 734:93 735:34 736:92 737:87 738:31 739:87 740:82 741:38 742:92 743:87 744:58 745:109 746:105 747:79 748:126 749:123 750:71 751:118 752:115 753:51 754:96 755:93 756:30 757:84 758:77 759:27 760:84 761:76 762:45 763:102 764:94 765:50 766:109 767:101 768:32 769:91 770:83 771:25 772:85 773:77 774:27 775:87 776:79 777:12 778:75 779:66 780:15 781:84 782:74 783:14 784:83 785:73 786:13 787:80 788:71 789:22 790:85 791:76 792:25 793:85 794:77 795:34 796:93 797:85 798:48 799:105 800:97 801:42 802:96 803:89 804:18 805:86 806:79 807:15 808:83 809:76 810:39 811:93 812:86 813:39 814:96 815:88 816:39 817:96 818:88 819:37 820:94 821:86 822:19 823:86 824:79 825:17 826:81 827:75 828:19 829:81 830:75 831:25 832:83 833:78 834:43 835:94 836:90 837:67 838:114 839:111 840:73 841:118 842:115 843:59 844:102 845:99 846:26 847:83 848:75 849:21 850:78 851:70 852:37 853:94 854:86 855:46 856:103 857:95 858:34 859:93 860:85 861:36 862:95 863:87 864:41 865:100 866:92 867:30 868:89 869:81 870:8 871:79 872:69 873:16 874:85 875:75 876:12 877:77 878:68 879:18 880:81 881:72 882:28 883:87 884:79 885:44 886:98 887:91 888:58 889:109 890:102 891:47 892:98 893:91 894:17 895:85 896:78 897:16 898:83 899:76 900:31 901:88 902:80 903:38 904:97 905:89 906:36 907:95 908:87 909:30 910:90 911:82 912:8 913:78 914:71 915:9 916:77 917:70 918:21 919:85 920:79 921:32 922:92 923:86 924:33 925:89 926:84 927:44 928:94 929:90 930:61 931:108 932:105 933:70 934:115 935:112 936:32 937:89 938:81 939:21 940:78 941:70 942:24 943:81 944:73 945:27 946:84 947:76 948:22 949:79 950:71 951:32 952:86 953:79 954:41 955:95 956:88 957:35 958:89 959:82 960:12 961:77 962:68 963:23 964:88 965:79 966:17 967:77 968:69 969:23 970:82 971:74 972:35 973:92 974:84 975:47 976:99 977:92 978:59 979:110 980:103 981:48 982:99 983:92 984:12 985:80 986:73 987:19 988:81 989:75 990:23 991:82 992:74 993:32 994:92 995:84 996:24 997:87 998:78 999:17 1000:80 1001:71 1002:8 1003:75 1004:68 1005:9 1006:76 1007:69 1008:22 1009:86 1010:80 1011:32 1012:94 1013:88 1014:26 1015:84 1016:79 1017:20 1018:76 1019:71 1020:35 1021:89 1022:84 1023:56 1024:110 1025:105 1026:45 1027:104 1028:96 1029:33 1030:92 1031:84 1032:26 1033:83 1034:75 1035:22 1036:79 1037:71 1038:24 1039:78 1040:71 1041:31 1042:83 1043:76 1044:34 1045:86 1046:79 1047:31 1048:83 1049:76 1050:26 1051:80 1052:73 1053:39 1054:93 1055:86 1056:26 1057:80 1058:73 1059:32 1060:86 1061:79 1062:41 1063:95 1064:88 1065:38 1066:92 1067:85 1068:46 1069:100 1070:93 1071:41 1072:95 1073:88 1074:6 1075:74 1076:67 1077:20 1078:80 1079:74 1080:29 1081:88 1082:80 1083:32 1084:95 1085:86 1086:20 1087:85 1088:76 1089:12 1090:79 1091:70 1092:23 1093:85 1094:79 1095:22 1096:84 1097:78 1098:25 1099:87 1100:81 1101:30 1102:92 1103:86 1104:26 1105:88 1106:82 1107:14 1108:76 1109:70 1110:13 1111:75 1112:69 1113:25 1114:87 1115:81 1116:40 1117:99 1118:91 1119:36 1120:95 1121:87 1122:30 1123:87 1124:79 1125:32 1126:86 1127:79 1128:43 1129:95 1130:88 1131:43 1132:94 1133:87 1134:34 1135:85 1136:78 1137:32 1138:80 1139:74 1140:42 1141:86 1142:80 1143:53 1144:99 1145:93 1146:36 1147:84 1148:78 1149:42 1150:93 1151:86 1152:42 1153:96 1154:89 1155:21 1156:80 1157:72 1158:25 1159:85 1160:77 1161:23 1162:86 1163:77 1164:8 1165:76 1166:69 1167:29 1168:87 1169:82 1170:40 1171:100 1172:92 1173:40 1174:103 1175:94 1176:23 1177:90 1178:81 1179:20 1180:87 1181:78 1182:46 1183:104 1184:99 1185:44 1186:102 1187:97 1188:35 1189:95 1190:89 1191:34 1192:96 1193:90 1194:36 1195:100 1196:94 1197:24 1198:91 1199:84 1200:8 1201:76 1202:69 1203:5 1204:73 1205:66 1206:14 1207:73 1208:65 1209:21 1210:80 1211:72 1212:23 1213:80 1214:72 1215:34 1216:88 1217:81 1218:55 1219:107 1220:100 1221:53 1222:104 1223:97 1224:37 1225:85 1226:79 1227:31 1228:79 1229:73 1230:52 1231:89 1232:85 1233:63 1234:103 1235:98 1236:44 1237:88 1238:82 1239:47 1240:95 1241:89 1242:41 1243:95 1244:88 1245:9 1246:69 1247:61 1248:8 1249:73 1250:64 1251:10 1252:77 1253:68 1254:14 1255:82 1256:75 1257:38 1258:96 1259:91 1260:40 1261:96 1262:91 1263:35 1264:91 1265:86 1266:30 1267:86 1268:81 1269:43 1270:99 1271:94 1272:64 1273:123 1274:119 1275:38 1276:97 1277:93 1278:27 1279:84 1280:81 1281:31 1282:86 1283:83 1284:42 1285:92 1286:90 1287:34 1288:83 1289:81 1290:25 1291:74 1292:72 1293:47 1294:94 1295:92 1296:20 1297:87 1298:82 1299:0 1300:66 1301:61 1302:15 1303:76 1304:72 1305:19 1306:77 1307:72 1308:35 1309:89 1310:82 1311:66 1312:117 1313:110 1314:56 1315:103 1316:95 1317:33 1318:77 1319:70 1320:50 1321:98 1322:92 1323:49 1324:100 1325:93 1326:48 1327:100 1328:93 1329:32 1330:89 1331:81 1332:15 1333:75 1334:67 1335:15 1336:78 1337:69 1338:13 1339:80 1340:71 1341:4 1342:71 1343:62 1344:7 1345:67 1346:61 1347:36 1348:94 1349:89 1350:34 1351:90 1352:85 1353:33 1354:89 1355:84 1356:27 1357:83 1358:78 1359:28 1360:84 1361:79 1362:49 1363:106 1364:103 1365:37 1366:94 1367:91 1368:33 1369:88 1370:85 1371:42 1372:95 1373:92 1374:52 1375:102 1376:100 1377:44 1378:93 1379:91 1380:36 1381:85 1382:83 1383:52 1384:99 1385:97 1386:31 1387:92 1388:88 1389:12 1390:73 1391:69 1392:22 1393:81 1394:77 1395:23 1396:81 1397:76 1398:33 1399:87 1400:80 1401:53 1402:105 1403:98 1404:40 1405:91 1406:83 1407:26 1408:77 1409:69 1410:44 1411:95 1412:88 1413:46 1414:97 1415:90 1416:44 1417:96 1418:89 1419:25 1420:82 1421:74 1422:11 1423:70 1424:62 1425:15 1426:78 1427:69 1428:18 1429:83 1430:74 1431:5 1432:72 1433:63 1434:9 1435:69 1436:63 1437:30 1438:88 1439:83 1440:39 1441:93 1442:88 1443:43 1444:97 1445:92 1446:35 1447:89 1448:84 1449:21 1450:75 1451:70 1452:33 1453:88 1454:85 1455:36 1456:91 1457:88 1458:34 1459:87 1460:84 1461:39 1462:92 1463:89 1464:49 1465:99 1466:97 1467:46 1468:95 1469:93 1470:47 1471:96 1472:94 1473:55 1474:104 1475:102 1476:37 1477:92 1478:89 1479:23 1480:78 1481:75 1482:28 1483:83 1484:80 1485:30 1486:86 1487:81 1488:31 1489:88 1490:80 1491:33 1492:90 1493:82 1494:25 1495:82 1496:73 1497:25 1498:82 1499:73 1500:38 1501:89 1502:82 1503:43 1504:94 1505:87 1506:41 1507:93 1508:86 1509:21 1510:75 1511:68 1512:7 1513:66 1514:58 1515:19 1516:79 1517:71 1518:22 1519:85 1520:76 1521:8 1522:71 1523:62 1524:17 1525:77 1526:71 1527:26 1528:84 1529:79 1530:43 1531:97 1532:92 1533:45 1534:99 1535:94 1536:36 1537:90 1538:85 1539:12 1540:66 1541:61 1542:29 1543:79 1544:77 1545:39 1546:89 1547:87 1548:30 1549:80 1550:78 1551:28 1552:78 1553:76 1554:34 1555:84 1556:82 1557:36 1558:85 1559:83 1560:47 1561:96 1562:94 1563:54 1564:103 1565:101 1566:37 1567:86 1568:84 1569:27 1570:77 1571:75 1572:29 1573:82 1574:79 1575:33 1576:89 1577:84 1578:29 1579:88 1580:80 1581:20 1582:80 1583:72 1584:19 1585:80 1586:70 1587:28 1588:91 1589:81 1590:35 1591:86 1592:79 1593:42 1594:94 1595:87 1596:42 1597:94 1598:87 1599:23 1600:77 1601:70 1602:12 1603:69 1604:61 1605:23 1606:82 1607:74 1608:26 1609:85 1610:77 1611:6 1612:66 1613:58 1614:19 1615:79 1616:73 1617:19 1618:77 1619:72 1620:37 1621:88 1622:84 1623:36 1624:87 1625:83 1626:31 1627:82 1628:78 1629:11 1630:62 1631:58 1632:29 1633:78 1634:76 1635:42 1636:91 1637:89 1638:33 1639:82 1640:80 1641:27 1642:76 1643:74 1644:29 1645:78 1646:76 1647:28 1648:78 1649:76 1650:36 1651:86 1652:84 1653:41 1654:91 1655:89 1656:33 1657:82 1658:80 1659:27 1660:77 1661:75 1662:26 1663:79 1664:76 1665:36 1666:92 1667:87 1668:29 1669:88 1670:80 1671:14 1672:74 1673:66 1674:19 1675:80 1676:70 1677:29 1678:92 1679:82 1680:34 1681:86 1682:79 1683:41 1684:93 1685:86 1686:44 1687:96 1688:89 1689:30 1690:84 1691:77 1692:22 1693:76 1694:69 1695:30 1696:87 1697:79 1698:28 1699:85 1700:77 1701:8 1702:65 1703:57 1704:18 1705:78 1706:72 1707:12 1708:70 1709:65 1710:27 1711:77 1712:73 1713:30 1714:80 1715:76 1716:34 1717:84 1718:80 1719:29 1720:79 1721:75 1722:36 1723:80 1724:79 1725:48 1726:92 1727:91 1728:43 1729:90 1730:88 1731:39 1732:86 1733:84 1734:37 1735:86 1736:84 1737:29 1738:79 1739:77 1740:27 1741:77 1742:75 1743:29 1744:79 1745:77 1746:27 1747:82 1748:79 1749:22 1750:77 1751:74 1752:22 1753:77 1754:74 1755:36 1756:92 1757:87 1758:31 1759:88 1760:80 1761:17 1762:74 1763:66 1764:25 1765:82 1766:73 1767:27 1768:84 1769:75 1770:36 1771:88 1772:81 1773:38 1774:90 1775:83 1776:41 1777:93 1778:86 1779:36 1780:88 1781:81 1782:30 1783:82 1784:75 1785:35 1786:87 1787:80 1788:33 1789:85 1790:78 1791:17 1792:69 1793:62 1794:24 1795:84 1796:78 1797:17 1798:75 1799:70 1800:26 1801:76 1802:72 1803:30 1804:80 1805:76 1806:33 1807:83 1808:79 1809:37 1810:87 1811:83 1812:46 1813:88 1814:87 1815:48 1816:90 1817:89 1818:46 1819:90 1820:89 1821:41 1822:88 1823:86 1824:40 1825:89 1826:87 1827:31 1828:81 1829:79 1830:22 1831:72 1832:70 1833:25 1834:78 1835:75 1836:15 1837:76 1838:72 1839:11 1840:72 1841:68 1842:12 1843:71 1844:67 1845:33 1846:91 1847:86 1848:35 1849:89 1850:82 1851:28 1852:80 1853:73 1854:40 1855:91 1856:83 1857:28 1858:79 1859:71 1860:36 1861:90 1862:83 1863:29 1864:83 1865:76 1866:32 1867:84 1868:77 1869:34 1870:86 1871:79 1872:31 1873:83 1874:76 1875:35 1876:86 1877:79 1878:36 1879:87 1880:80 1881:29 1882:80 1883:73 1884:23 1885:83 1886:77 1887:19 1888:77 1889:72 1890:30 1891:80 1892:76 1893:28 1894:78 1895:74 1896:20 1897:70 1898:66 1899:23 1900:73 1901:69 1902:54 1903:94 1904:93 1905:47 1906:87 1907:86 1908:42 1909:84 1910:83 1911:35 1912:79 1913:78 1914:34 1915:83 1916:81 1917:29 1918:79 1919:77 1920:20 1921:70 1922:68 1923:31 1924:84 1925:81 1926:1 1927:68 1928:63 1929:0 1930:65 1931:60 1932:3 1933:64 1934:60 1935:30 1936:88 1937:83 1938:36 1939:90 1940:83 1941:38 1942:89 1943:82 1944:55 1945:102 1946:94 1947:36 1948:80 1949:73 1950:37 1951:91 1952:84 1953:23 1954:77 1955:70 1956:24 1957:76 1958:69 1959:30 1960:82 1961:75 1962:30 1963:81 1964:74 1965:32 1966:83 1967:76 1968:38 1969:89 1970:82 1971:40 1972:88 1973:82 1974:8 1975:68 1976:62 1977:9 1978:67 1979:62 1980:33 1981:87 1982:82 1983:18 1984:74 1985:69 1986:8 1987:66 1988:61 1989:11 1990:69 1991:64 1992:45 1993:95 1994:91 1995:43 1996:93 1997:89 1998:36 1999:86 2000:82 2001:28 2002:78 2003:74 2004:26 2005:76 2006:72 2007:29 2008:79 2009:75 2010:31 2011:81 2012:77 2013:29 2014:79 2015:75 2016:32 2017:90 2018:85 2019:9 2020:63 2021:58 2022:20 2023:67 2024:64 2025:65 2026:108 2027:105 2028:61 2029:104 2030:101 2031:36 2032:83 2033:80 2034:36 2035:90 2036:85 2037:24 2038:82 2039:77 2040:10 2041:83 2042:75 2043:10 2044:80 2045:73 2046:13 2047:81 2048:74 2049:20 2050:84 2051:78 2052:23 2053:81 2054:76 2055:22 2056:76 2057:71 2058:24 2059:74 2060:70 2061:30 2062:77 2063:74 2064:0 2065:70 2066:62 2067:5 2068:69 2069:63 2070:28 2071:82 2072:77 2073:22 2074:78 2075:73 2076:21 2077:79 2078:74 2079:15 2080:73 2081:68 2082:49 2083:99 2084:95 2085:41 2086:91 2087:87 2088:30 2089:80 2090:76 2091:23 2092:73 2093:69 2094:19 2095:69 2096:65 2097:21 2098:71 2099:67 2100:27 2101:77 2102:73 2103:32 2104:82 2105:78 2106:28 2107:86 2108:81 2109:10 2110:64 2111:59 2112:23 2113:70 2114:67 2115:65 2116:108 2117:105 2118:60 2119:103 2120:100 2121:36 2122:83 2123:80 2124:38 2125:92 2126:87 2127:29 2128:87 2129:82 2130:3 2131:73 2132:66 2133:2 2134:72 2135:65 2136:9 2137:76 2138:69 2139:22 2140:84 2141:78 2142:28 2143:86 2144:81 2145:28 2146:82 2147:77 2148:29 2149:79 2150:75 2151:33 2152:80 2153:77 2154:4 2155:68 2156:62 2157:16 2158:76 2159:70 2160:23 2161:74 2162:70 2163:25 2164:79 2165:74 2166:33 2167:89 2168:84 2169:17 2170:75 2171:70 2172:41 2173:91 2174:87 2175:31 2176:81 2177:77 2178:25 2179:75 2180:71 2181:26 2182:76 2183:72 2184:24 2185:74 2186:70 2187:21 2188:71 2189:67 2190:26 2191:76 2192:72 2193:36 2194:86 2195:82 2196:26 2197:84 2198:79 2199:14 2200:68 2201:63 2202:25 2203:72 2204:69 2205:63 2206:106 2207:103 2208:59 2209:102 2210:99 2211:37 2212:84 2213:81 2214:39 2215:93 2216:88 2217:31 2218:89 2219:84 2220:2 2221:70 2222:63 2223:4 2224:71 2225:64 2226:11 2227:75 2228:69 2229:24 2230:84 2231:78 2232:34 2233:90 2234:85 2235:39 2236:90 2237:86 2238:35 2239:85 2240:81 2241:33 2242:80 2243:77 2244:26 2245:77 2246:73 2247:37 2248:88 2249:84 2250:22 2251:73 2252:69 2253:26 2254:80 2255:75 2256:31 2257:87 2258:82 2259:21 2260:77 2261:72 2262:30 2263:77 2264:74 2265:24 2266:71 2267:68 2268:28 2269:75 2270:72 2271:41 2272:88 2273:85 2274:42 2275:89 2276:86 2277:33 2278:80 2279:77 2280:34 2281:81 2282:78 2283:46 2284:93 2285:90 2286:30 2287:88 2288:83 2289:19 2290:73 2291:68 2292:24 2293:71 2294:68 2295:57 2296:100 2297:97 2298:60 2299:103 2300:100 2301:41 2302:88 2303:85 2304:38 2305:92 2306:87 2307:25 2308:83 2309:78 2310:11 2311:75 2312:69 2313:18 2314:80 2315:74 2316:23 2317:83 2318:77 2319:24 2320:82 2321:77 2322:35 2323:89 2324:84 2325:46 2326:97 2327:93 2328:43 2329:93 2330:89 2331:34 2332:81 2333:78 2334:52 2335:92 2336:90 2337:59 2338:102 2339:99 2340:33 2341:83 2342:79 2343:31 2344:82 2345:78 2346:28 2347:82 2348:77 2349:28 2350:82 2351:77 2352:35 2353:80 2354:77 2355:31 2356:76 2357:73 2358:38 2359:83 2360:80 2361:52 2362:97 2363:94 2364:52 2365:97 2366:94 2367:42 2368:87 2369:84 2370:44 2371:89 2372:86 2373:55 2374:100 2375:97 2376:37 2377:95 2378:90 2379:26 2380:80 2381:75 2382:23 2383:70 2384:67 2385:50 2386:93 2387:90 2388:60 2389:103 2390:100 2391:45 2392:92 2393:89 2394:36 2395:90 2396:85 2397:16 2398:74 2399:69 2400:21 2401:79 2402:74 2403:32 2404:90 2405:85 2406:33 2407:89 2408:84 2409:26 2410:80 2411:75 2412:34 2413:85 2414:81 2415:53 2416:103 2417:99 2418:56 2419:103 2420:100 2421:42 2422:89 2423:86 2424:64 2425:98 2426:97 2427:68 2428:107 2429:105 2430:43 2431:90 2432:87 2433:34 2434:85 2435:81 2436:30 2437:81 2438:77 2439:32 2440:86 2441:81 2442:49 2443:94 2444:91 2445:45 2446:90 2447:87 2448:46 2449:91 2450:88 2451:50 2452:95 2453:92 2454:47 2455:92 2456:89 2457:41 2458:86 2459:83 2460:46 2461:91 2462:88 2463:57 2464:102 2465:99 2466:37 2467:95 2468:90 2469:32 2470:86 2471:81 2472:24 2473:71 2474:68 2475:46 2476:89 2477:86 2478:57 2479:100 2480:97 2481:45 2482:92 2483:89 2484:33 2485:87 2486:82 2487:13 2488:71 2489:66 2490:26 2491:80 2492:75 2493:38 2494:92 2495:87 2496:40 2497:91 2498:87 2499:29 2500:80 2501:76 2502:35 2503:85 2504:81 2505:54 2506:104 2507:100 2508:62 2509:109 2510:106 2511:53 2512:100 2513:97 2514:60 2515:94 2516:93 2517:63 2518:103 2519:101 2520:38 2521:85 2522:82 2523:32 2524:82 2525:78 2526:32 2527:83 2528:79 2529:31 2530:82 2531:78 2532:50 2533:93 2534:90 2535:52 2536:95 2537:92 2538:52 2539:95 2540:92 2541:49 2542:92 2543:89 2544:43 2545:86 2546:83 2547:41 2548:84 2549:81 2550:46 2551:89 2552:86 2553:52 2554:95 2555:92 2556:29 2557:87 2558:82 2559:34 2560:88 2561:83 2562:30 2563:77 2564:74 2565:45 2566:88 2567:85 2568:52 2569:95 2570:92 2571:39 2572:86 2573:83 2574:31 2575:85 2576:80 2577:17 2578:75 2579:70 2580:30 2581:80 2582:76 2583:40 2584:90 2585:86 2586:43 2587:93 2588:89 2589:38 2590:88 2591:84 2592:39 2593:86 2594:83 2595:48 2596:95 2597:92 2598:54 2599:101 2600:98 2601:54 2602:101 2603:98 2604:56 2605:95 2606:93 2607:53 2608:98 2609:95 2610:27 2611:74 2612:71 2613:24 2614:74 2615:70 2616:33 2617:84 2618:80 2619:24 2620:75 2621:71 2622:37 2623:80 2624:77 2625:46 2626:89 2627:86 2628:52 2629:95 2630:92 2631:50 2632:93 2633:90 2634:45 2635:88 2636:85 2637:44 2638:87 2639:84 2640:44 2641:87 2642:84 2643:44 2644:87 2645:84 2646:20 2647:78 2648:73 2649:35 2650:89 2651:84 2652:35 2653:82 2654:79 2655:46 2656:89 2657:86 2658:47 2659:90 2660:87 2661:33 2662:80 2663:77 2664:31 2665:85 2666:80 2667:24 2668:82 2669:77 2670:37 2671:84 2672:81 2673:42 2674:89 2675:86 2676:48 2677:95 2678:92 2679:48 2680:95 2681:92 2682:42 2683:89 2684:86 2685:38 2686:85 2687:82 2688:42 2689:89 2690:86 2691:48 2692:95 2693:92 2694:60 2695:100 2696:98 2697:49 2698:96 2699:93 2700:-1 
