svm_type c_svc
kernel_type polynomial
degree 9
gamma 0.00148148
coef0 0
nr_class 2
total_sv 43
rho 1.0001
label 1 -1
nr_sv 10 33
SV
8.150135224989305e-37 0:255 1:255 2:255 3:49 4:101 5:101 6:41 7:95 8:95 9:35 10:89 11:89 12:38 13:90 14:90 15:35 16:87 17:87 18:26 19:78 20:78 21:22 22:76 23:76 24:12 25:69 26:68 27:6 28:64 29:63 30:16 31:73 32:72 33:28 34:85 35:84 36:33 37:87 38:87 39:39 40:91 41:91 42:255 43:255 44:255 45:255 46:255 47:255 48:46 49:100 50:100 51:35 52:89 53:89 54:25 55:79 56:79 57:29 58:81 59:81 60:31 61:83 62:83 63:32 64:82 65:82 66:33 67:85 68:85 69:20 70:78 71:77 72:21 73:81 74:80 75:35 76:93 77:92 78:43 79:100 80:99 81:42 82:96 83:96 84:44 85:98 86:98 87:255 88:255 89:255 90:255 91:255 92:255 93:40 94:94 95:94 96:28 97:82 98:82 99:17 100:71 101:71 102:23 103:75 104:75 105:28 106:80 107:80 108:31 109:81 110:81 111:34 112:86 113:86 114:19 115:77 116:76 117:24 118:84 119:83 120:37 121:95 122:94 123:35 124:92 125:91 126:27 127:81 128:81 129:30 130:84 131:84 132:255 133:255 134:255 135:255 136:255 137:255 138:38 139:92 140:92 141:30 142:84 143:84 144:24 145:78 146:78 147:31 148:83 149:83 150:33 151:85 152:85 153:32 154:82 155:82 156:32 157:84 158:84 159:23 160:81 161:80 162:29 163:87 164:86 165:37 166:94 167:93 168:30 169:87 170:86 171:25 172:79 173:79 174:38 175:90 176:90 177:255 178:255 179:255 180:255 181:255 182:255 183:44 184:96 185:96 186:40 187:92 188:92 189:35 190:87 191:87 192:41 193:93 194:93 195:41 196:93 197:93 198:37 199:89 200:89 201:35 202:89 203:89 204:25 205:82 206:81 207:28 208:86 209:85 210:34 211:91 212:90 213:33 214:90 215:89 216:37 217:91 218:91 219:54 220:106 221:106 222:255 223:255 224:255 225:255 226:255 227:255 228:44 229:96 230:96 231:38 232:90 233:90 234:33 235:85 236:85 237:39 238:91 239:91 240:42 241:94 242:94 243:40 244:92 245:92 246:40 247:94 248:94 249:33 250:90 251:89 252:30 253:88 254:87 255:35 256:92 257:91 258:40 259:94 260:94 261:45 262:97 263:97 264:53 265:105 266:105 267:255 268:255 269:255 270:255 271:255 272:255 273:42 274:92 275:92 276:35 277:87 278:87 279:31 280:83 281:83 282:38 283:90 284:90 285:42 286:94 287:94 288:42 289:94 290:94 291:43 292:97 293:97 294:51 295:108 296:107 297:41 298:98 299:97 300:42 301:96 302:96 303:46 304:100 305:100 306:48 307:100 308:100 309:50 310:102 311:102 312:255 313:255 314:255 315:255 316:255 317:255 318:255 319:255 320:255 321:255 322:255 323:255 324:255 325:255 326:255 327:255 328:255 329:255 330:255 331:255 332:255 333:255 334:255 335:255 336:255 337:255 338:255 339:255 340:255 341:255 342:255 343:255 344:255 345:255 346:255 347:255 348:255 349:255 350:255 351:255 352:255 353:255 354:255 355:255 356:255 357:255 358:255 359:255 360:40 361:88 362:89 363:45 364:95 365:95 366:44 367:94 368:94 369:42 370:92 371:92 372:46 373:96 374:96 375:45 376:95 377:95 378:43 379:95 380:95 381:50 382:102 383:102 384:37 385:91 386:91 387:22 388:76 389:76 390:19 391:73 392:73 393:26 394:80 395:80 396:30 397:82 398:82 399:36 400:86 401:86 402:42 403:92 404:92 405:42 406:90 407:91 408:48 409:96 410:97 411:44 412:92 413:93 414:39 415:89 416:89 417:40 418:90 419:90 420:39 421:89 422:89 423:38 424:90 425:90 426:47 427:99 428:99 429:42 430:96 431:96 432:24 433:78 434:78 435:19 436:73 437:73 438:29 439:81 440:81 441:38 442:88 443:88 444:44 445:94 446:94 447:46 448:96 449:96 450:43 451:89 452:90 453:46 454:94 455:95 456:40 457:88 458:89 459:32 460:80 461:81 462:29 463:79 464:79 465:27 466:77 467:77 468:27 469:79 470:79 471:38 472:90 473:90 474:38 475:92 476:92 477:26 478:80 479:80 480:27 481:79 482:79 483:33 484:85 485:85 486:38 487:88 488:88 489:44 490:94 491:94 492:47 493:95 494:96 495:45 496:91 497:92 498:49 499:95 500:96 501:42 502:88 503:89 504:29 505:77 506:78 507:24 508:74 509:74 510:20 511:70 512:70 513:21 514:73 515:73 516:33 517:85 518:85 519:28 520:82 521:82 522:28 523:82 524:82 525:35 526:87 527:87 528:36 529:88 530:88 531:33 532:83 533:83 534:37 535:87 536:87 537:45 538:93 539:94 540:49 541:93 542:94 543:51 544:97 545:98 546:44 547:90 548:91 549:32 550:80 551:81 552:28 553:78 554:78 555:24 556:74 557:74 558:23 559:75 560:75 561:33 562:85 563:85 564:31 565:83 566:83 567:31 568:83 569:83 570:35 571:87 572:87 573:35 574:87 575:87 576:35 577:85 578:85 579:42 580:92 581:92 582:46 583:94 584:95 585:45 586:89 587:90 588:49 589:93 590:94 591:42 592:88 593:89 594:34 595:82 596:83 597:34 598:82 599:83 600:29 601:79 602:79 603:25 604:77 605:77 606:32 607:84 608:84 609:40 610:92 611:92 612:34 613:86 614:86 615:32 616:84 617:84 618:33 619:85 620:85 621:42 622:92 623:92 624:55 625:105 626:105 627:52 628:100 629:101 630:41 631:85 632:86 633:46 634:90 635:91 636:41 637:87 638:88 639:38 640:86 641:87 642:42 643:90 644:91 645:38 646:88 647:88 648:30 649:82 650:82 651:32 652:84 653:84 654:41 655:93 656:93 657:39 658:91 659:91 660:41 661:91 662:91 663:38 664:88 665:88 666:43 667:91 668:92 669:56 670:104 671:105 672:55 673:103 674:104 675:-1 
1.778134356133426e-36 0:48 1:96 2:97 3:49 4:97 5:98 6:58 7:104 8:105 9:54 10:100 11:101 12:47 13:93 14:94 15:36 16:82 17:83 18:36 19:84 20:85 21:255 22:255 23:255 24:52 25:100 26:101 27:57 28:105 29:106 30:52 31:100 32:101 33:25 34:75 35:75 36:56 37:106 38:106 39:58 40:110 41:110 42:36 43:88 44:88 45:40 46:86 47:87 48:42 49:88 50:89 51:49 52:95 53:96 54:41 55:89 56:90 57:51 58:99 59:100 60:36 61:86 62:86 63:41 64:91 65:91 66:255 67:255 68:255 69:43 70:93 71:93 72:55 73:105 74:105 75:52 76:102 77:102 78:32 79:84 80:84 81:48 82:100 83:100 84:48 85:100 86:100 87:33 88:85 89:85 90:39 91:85 92:86 93:41 94:87 95:88 96:48 97:94 98:95 99:39 100:87 101:88 102:38 103:90 104:90 105:25 106:79 107:79 108:39 109:91 110:91 111:255 112:255 113:255 114:37 115:89 116:89 117:52 118:104 119:104 120:49 121:101 122:101 123:36 124:88 125:88 126:31 127:83 128:83 129:39 130:91 131:91 132:34 133:88 134:88 135:42 136:88 137:89 138:42 139:88 140:89 141:48 142:94 143:95 144:37 145:85 146:86 147:35 148:87 149:87 150:18 151:75 152:74 153:34 154:88 155:88 156:255 157:255 158:255 159:25 160:79 161:79 162:44 163:98 164:98 165:41 166:95 167:95 168:30 169:84 170:84 171:24 172:78 173:78 174:41 175:95 176:95 177:45 178:99 179:99 180:38 181:84 182:85 183:37 184:83 185:84 186:41 187:87 188:88 189:29 190:77 191:78 192:42 193:94 194:94 195:23 196:78 197:75 198:32 199:86 200:86 201:255 202:255 203:255 204:15 205:69 206:69 207:37 208:91 209:91 210:35 211:87 212:87 213:27 214:79 215:79 216:38 217:90 218:90 219:57 220:109 221:109 222:62 223:114 224:114 225:41 226:87 227:88 228:34 229:80 230:81 231:44 232:88 233:89 234:28 235:74 236:75 237:43 238:92 239:90 240:34 241:85 242:81 243:30 244:80 245:78 246:255 247:255 248:255 249:23 250:73 251:71 252:33 253:83 254:81 255:39 256:89 257:87 258:32 259:82 260:80 261:40 262:90 263:90 264:60 265:110 266:110 267:63 268:113 269:113 270:49 271:97 272:98 273:46 274:92 275:93 276:50 277:96 278:97 279:29 280:76 281:74 282:47 283:96 284:94 285:36 286:86 287:82 288:32 289:82 290:78 291:255 292:255 293:255 294:32 295:81 296:79 297:36 298:85 299:83 300:39 301:88 302:86 303:31 304:80 305:78 306:36 307:84 308:85 309:46 310:94 311:95 312:54 313:102 314:103 315:47 316:97 317:97 318:49 319:97 320:98 321:55 322:103 323:104 324:32 325:81 326:79 327:45 328:94 329:92 330:31 331:81 332:77 333:32 334:82 335:78 336:255 337:255 338:255 339:44 340:93 341:91 342:44 343:93 344:91 345:46 346:95 347:93 348:43 349:92 350:90 351:31 352:79 353:80 354:39 355:87 356:88 357:48 358:96 359:97 360:34 361:84 362:84 363:39 364:89 365:89 366:53 367:103 368:103 369:37 370:87 371:85 372:42 373:92 374:88 375:29 376:79 377:75 378:35 379:85 380:81 381:255 382:255 383:255 384:51 385:100 386:98 387:47 388:96 389:94 390:52 391:101 392:99 393:58 394:107 395:105 396:34 397:82 398:83 399:49 400:97 401:98 402:52 403:100 404:101 405:255 406:255 407:255 408:255 409:255 410:255 411:255 412:255 413:255 414:255 415:255 416:255 417:255 418:255 419:255 420:255 421:255 422:255 423:255 424:255 425:255 426:255 427:255 428:255 429:50 430:99 431:97 432:43 433:92 434:90 435:52 436:101 437:99 438:63 439:112 440:110 441:48 442:96 443:97 444:57 445:105 446:106 447:55 448:103 449:104 450:32 451:87 452:84 453:21 454:78 455:75 456:39 457:94 458:91 459:36 460:91 461:88 462:27 463:78 464:74 465:22 466:72 467:68 468:35 469:85 470:81 471:52 472:102 473:98 474:50 475:99 476:97 477:47 478:96 479:94 480:57 481:106 482:104 483:67 484:116 485:114 486:56 487:104 488:105 489:51 490:99 491:100 492:49 493:97 494:98 495:40 496:97 497:94 498:19 499:78 500:74 501:30 502:87 503:84 504:30 505:85 506:82 507:28 508:79 509:75 510:24 511:74 512:70 513:37 514:87 515:83 516:54 517:104 518:100 519:56 520:105 521:103 522:55 523:104 524:102 525:59 526:108 527:106 528:61 529:110 530:108 531:44 532:92 533:93 534:38 535:86 536:87 537:37 538:85 539:86 540:41 541:100 542:96 543:17 544:76 545:72 546:23 547:82 548:78 549:23 550:80 551:77 552:44 553:95 554:91 555:39 556:89 557:85 558:47 559:97 560:93 561:59 562:109 563:105 564:61 565:110 566:108 567:58 568:107 569:105 570:53 571:102 572:100 573:44 574:93 575:91 576:24 577:72 578:73 579:31 580:79 581:80 582:28 583:76 584:77 585:38 586:98 587:92 588:15 589:75 590:69 591:8 592:68 593:62 594:20 595:78 596:73 597:46 598:97 599:93 600:58 601:108 602:104 603:61 604:111 605:107 606:60 607:110 608:106 609:60 610:109 611:107 612:49 613:98 614:96 615:32 616:81 617:79 618:24 619:73 620:71 621:17 622:65 623:66 624:27 625:75 626:76 627:36 628:84 629:85 630:37 631:95 632:90 633:21 634:79 635:74 636:20 637:78 638:73 639:34 640:90 641:85 642:50 643:101 644:97 645:51 646:101 647:97 648:49 649:99 650:95 651:45 652:95 653:91 654:42 655:91 656:89 657:43 658:92 659:90 660:41 661:90 662:88 663:35 664:84 665:82 666:25 667:73 668:74 669:32 670:80 671:81 672:36 673:84 674:85 675:-1 
1.240299034890075e-36 0:36 1:86 2:84 3:26 4:76 5:74 6:29 7:79 8:77 9:30 10:80 11:78 12:18 13:68 14:66 15:40 16:90 17:86 18:37 19:87 20:83 21:255 22:255 23:255 24:32 25:82 26:78 27:25 28:75 29:71 30:26 31:76 32:72 33:48 34:98 35:94 36:52 37:102 38:98 39:47 40:97 41:93 42:34 43:84 44:80 45:42 46:92 47:90 48:36 49:86 50:84 51:34 52:84 53:82 54:35 55:85 56:83 57:29 58:79 59:77 60:43 61:93 62:89 63:39 64:89 65:85 66:255 67:255 68:255 69:30 70:80 71:76 72:26 73:76 74:72 75:32 76:82 77:78 78:56 79:106 80:102 81:58 82:108 83:104 84:49 85:99 86:95 87:38 88:88 89:84 90:50 91:99 92:97 93:46 94:95 95:93 96:37 97:86 98:84 99:41 100:90 101:88 102:47 103:96 104:94 105:41 106:91 107:87 108:33 109:83 110:79 111:255 112:255 113:255 114:21 115:71 116:67 117:22 118:72 119:68 120:31 121:81 122:77 123:53 124:103 125:99 126:50 127:100 128:96 129:38 130:88 131:84 132:36 133:86 134:82 135:53 136:102 137:100 138:43 139:92 140:90 141:32 142:81 143:79 144:40 145:89 146:87 147:53 148:102 149:100 150:36 151:86 152:82 153:29 154:79 155:75 156:255 157:255 158:255 159:20 160:70 161:66 162:24 163:74 164:70 165:36 166:86 167:82 168:55 169:105 170:101 171:48 172:98 173:94 174:27 175:77 176:73 177:34 178:84 179:80 180:51 181:100 182:98 183:31 184:80 185:78 186:24 187:73 188:71 189:35 190:84 191:82 192:43 193:92 194:90 195:31 196:81 197:77 198:29 199:79 200:75 201:255 202:255 203:255 204:28 205:78 206:74 207:32 208:82 209:78 210:45 211:95 212:91 213:65 214:115 215:111 216:58 217:108 218:104 219:26 220:76 221:72 222:37 223:87 224:83 225:255 226:255 227:255 228:255 229:255 230:255 231:255 232:255 233:255 234:255 235:255 236:255 237:255 238:255 239:255 240:255 241:255 242:255 243:255 244:255 245:255 246:255 247:255 248:255 249:33 250:83 251:79 252:36 253:86 254:82 255:49 256:99 257:95 258:71 259:121 260:117 261:66 262:116 263:112 264:32 265:82 266:78 267:42 268:92 269:88 270:45 271:94 272:92 273:34 274:81 275:79 276:24 277:71 278:69 279:32 280:79 281:77 282:29 283:76 284:74 285:13 286:63 287:59 288:28 289:78 290:74 291:255 292:255 293:255 294:37 295:87 296:83 297:45 298:95 299:91 300:48 301:98 302:94 303:69 304:119 305:115 306:44 307:94 308:90 309:33 310:83 311:79 312:29 313:79 314:75 315:42 316:91 317:89 318:40 319:87 320:85 321:33 322:80 323:78 324:41 325:88 326:86 327:40 328:87 329:85 330:21 331:71 332:67 333:27 334:77 335:73 336:255 337:255 338:255 339:31 340:81 341:77 342:39 343:89 344:85 345:41 346:91 347:87 348:63 349:113 350:109 351:43 352:93 353:89 354:30 355:80 356:76 357:26 358:76 359:72 360:46 361:93 362:91 363:48 364:95 365:93 366:40 367:87 368:85 369:46 370:90 371:89 372:42 373:89 374:87 375:29 376:79 377:75 378:24 379:74 380:70 381:255 382:255 383:255 384:28 385:78 386:74 387:36 388:86 389:82 390:38 391:88 392:84 393:58 394:108 395:104 396:46 397:96 398:92 399:35 400:85 401:81 402:29 403:79 404:75 405:53 406:100 407:98 408:54 409:101 410:99 411:38 412:85 413:83 414:39 415:83 416:82 417:34 418:81 419:79 420:33 421:80 422:77 423:19 424:69 425:65 426:255 427:255 428:255 429:32 430:82 431:78 432:42 433:92 434:88 435:42 436:92 437:88 438:56 439:106 440:102 441:50 442:100 443:96 444:46 445:96 446:92 447:37 448:87 449:83 450:255 451:255 452:255 453:255 454:255 455:255 456:255 457:255 458:255 459:255 460:255 461:255 462:255 463:255 464:255 465:255 466:255 467:255 468:255 469:255 470:255 471:255 472:255 473:255 474:40 475:90 476:86 477:48 478:98 479:94 480:45 481:95 482:91 483:50 484:100 485:96 486:45 487:95 488:91 489:48 490:98 491:94 492:38 493:88 494:84 495:51 496:98 497:96 498:46 499:90 500:89 501:34 502:78 503:77 504:44 505:88 506:87 507:49 508:93 509:92 510:34 511:81 512:78 513:21 514:71 515:67 516:28 517:78 518:74 519:44 520:94 521:90 522:47 523:97 524:93 525:43 526:93 527:89 528:41 529:91 530:87 531:36 532:86 533:82 534:41 535:91 536:87 537:32 538:82 539:78 540:47 541:94 542:92 543:44 544:88 545:87 546:38 547:82 548:81 549:50 550:92 551:91 552:49 553:93 554:92 555:35 556:82 557:79 558:25 559:75 560:71 561:35 562:85 563:81 564:43 565:93 566:89 567:41 568:91 569:87 570:42 571:92 572:88 573:39 574:89 575:85 576:36 577:86 578:82 579:39 580:89 581:85 582:30 583:80 584:76 585:45 586:94 587:92 588:45 589:92 590:90 591:40 592:87 593:85 594:44 595:91 596:89 597:36 598:83 599:81 600:34 601:84 602:80 603:27 604:77 605:73 606:38 607:88 608:84 609:40 610:90 611:86 612:38 613:88 614:84 615:42 616:93 617:89 618:43 619:93 620:89 621:41 622:92 623:88 624:43 625:93 626:89 627:33 628:84 629:80 630:30 631:83 632:80 633:42 634:95 635:92 636:33 637:86 638:83 639:17 640:70 641:67 642:26 643:76 644:74 645:20 646:70 647:68 648:34 649:84 650:82 651:43 652:93 653:91 654:45 655:95 656:93 657:42 658:92 659:90 660:32 661:85 662:82 663:35 664:85 665:83 666:46 667:99 668:96 669:32 670:82 671:80 672:34 673:87 674:84 675:-1 
5.390008891301497e-34 0:27 1:81 2:74 3:21 4:75 5:68 6:34 7:86 8:79 9:35 10:87 11:80 12:40 13:91 14:84 15:25 16:76 17:69 18:14 19:62 20:56 21:28 22:76 23:70 24:34 25:80 26:74 27:30 28:76 29:70 30:30 31:76 32:70 33:14 34:60 35:54 36:26 37:70 38:63 39:38 40:82 41:75 42:34 43:78 44:71 45:28 46:82 47:75 48:23 49:77 50:70 51:36 52:88 53:81 54:33 55:85 56:78 57:35 58:86 59:79 60:24 61:75 62:68 63:18 64:66 65:60 66:30 67:78 68:72 69:32 70:78 71:72 72:24 73:70 74:64 75:28 76:74 77:68 78:18 79:64 80:58 81:22 82:69 83:61 84:34 85:81 86:73 87:20 88:67 89:59 90:35 91:89 92:82 93:31 94:85 95:78 96:44 97:96 98:89 99:36 100:88 101:81 102:35 103:87 104:80 105:30 106:81 107:74 108:26 109:77 110:70 111:39 112:87 113:81 114:33 115:81 116:75 117:22 118:70 119:64 120:30 121:78 122:72 123:26 124:74 125:68 126:20 127:66 128:60 129:30 130:77 131:69 132:10 133:57 134:49 135:58 136:114 137:109 138:36 139:92 140:87 141:19 142:73 143:68 144:30 145:84 146:79 147:37 148:91 149:86 150:48 151:99 152:95 153:32 154:83 155:79 156:53 157:103 158:99 159:55 160:105 161:101 162:35 163:85 164:81 165:42 166:92 167:88 168:24 169:75 170:68 171:19 172:67 173:61 174:20 175:68 176:62 177:20 178:66 179:60 180:51 181:107 182:102 183:36 184:92 185:87 186:21 187:75 188:70 189:29 190:83 191:78 192:48 193:102 194:97 195:42 196:96 197:91 198:17 199:68 200:64 201:37 202:88 203:84 204:51 205:102 206:98 207:42 208:93 209:89 210:46 211:97 212:93 213:24 214:74 215:70 216:14 217:65 218:58 219:25 220:73 221:67 222:27 223:73 224:67 225:43 226:97 227:92 228:39 229:93 230:88 231:26 232:80 233:75 234:29 235:83 236:78 237:49 238:100 239:96 240:35 241:86 242:82 243:4 244:55 245:51 246:18 247:69 248:65 249:37 250:88 251:84 252:37 253:88 254:84 255:44 256:94 257:90 258:24 259:74 260:70 261:19 262:69 263:65 264:34 265:84 266:80 267:37 268:84 269:81 270:37 271:91 272:86 273:42 274:96 275:91 276:32 277:86 278:81 279:31 280:85 281:80 282:38 283:89 284:85 285:29 286:80 287:76 288:7 289:58 290:54 291:14 292:65 293:61 294:26 295:77 296:73 297:29 298:80 299:76 300:39 301:89 302:85 303:28 304:78 305:74 306:28 307:78 308:74 309:42 310:92 311:88 312:48 313:95 314:92 315:35 316:89 317:84 318:44 319:98 320:93 321:38 322:89 323:85 324:35 325:86 326:82 327:32 328:83 329:79 330:26 331:77 332:73 333:14 334:64 335:60 336:20 337:70 338:66 339:32 340:82 341:78 342:38 343:88 344:84 345:42 346:92 347:88 348:33 349:83 350:79 351:29 352:80 353:76 354:36 355:87 356:83 357:47 358:97 359:93 360:33 361:87 362:82 363:42 364:96 365:91 366:37 367:88 368:84 369:36 370:87 371:83 372:32 373:83 374:79 375:22 376:73 377:69 378:14 379:64 380:60 381:20 382:70 383:66 384:37 385:87 386:83 387:47 388:97 389:93 390:42 391:92 392:88 393:30 394:80 395:76 396:24 397:75 398:71 399:28 400:79 401:75 402:43 403:93 404:89 405:33 406:84 407:80 408:37 409:88 410:84 411:32 412:82 413:78 414:36 415:86 416:82 417:37 418:87 419:83 420:29 421:79 422:75 423:27 424:74 425:71 426:24 427:71 428:68 429:33 430:80 431:77 432:42 433:89 434:86 435:37 436:84 437:81 438:28 439:78 440:74 441:27 442:78 443:74 444:31 445:82 446:78 447:45 448:96 449:92 450:30 451:81 452:77 453:31 454:82 455:78 456:27 457:77 458:73 459:35 460:85 461:81 462:44 463:94 464:90 465:44 466:94 467:90 468:47 469:94 470:91 471:33 472:80 473:77 474:25 475:72 476:69 477:30 478:77 479:74 480:31 481:78 482:75 483:36 484:83 485:80 486:36 487:86 488:82 489:41 490:92 491:88 492:51 493:102 494:98 495:31 496:81 497:77 498:31 499:81 500:77 501:30 502:77 503:74 504:35 505:82 506:79 507:44 508:91 509:88 510:56 511:103 512:100 513:50 514:95 515:92 516:49 517:94 518:91 519:49 520:94 521:91 522:42 523:87 524:84 525:46 526:91 527:88 528:43 529:90 530:87 531:48 532:97 533:95 534:33 535:83 536:81 537:44 538:94 539:92 540:38 541:88 542:84 543:38 544:88 545:84 546:35 547:82 548:79 549:37 550:84 551:81 552:40 553:87 554:84 555:48 556:95 557:92 558:46 559:91 560:88 561:51 562:96 563:93 564:50 565:95 566:92 567:50 568:95 569:92 570:59 571:104 572:101 573:51 574:98 575:95 576:45 577:94 578:92 579:30 580:80 581:78 582:42 583:92 584:90 585:49 586:96 587:93 588:48 589:95 590:92 591:42 592:87 593:84 594:40 595:85 596:82 597:48 598:93 599:90 600:48 601:93 602:90 603:48 604:93 605:90 606:53 607:98 608:95 609:47 610:90 611:87 612:52 613:95 614:92 615:68 616:111 617:108 618:54 619:99 620:96 621:52 622:99 623:97 624:32 625:81 626:79 627:44 628:93 629:91 630:53 631:100 632:97 633:52 634:99 635:96 636:43 637:88 638:85 639:39 640:84 641:81 642:65 643:110 644:107 645:62 646:107 647:104 648:62 649:107 650:104 651:61 652:106 653:103 654:44 655:87 656:84 657:50 658:93 659:90 660:76 661:119 662:116 663:63 664:106 665:103 666:59 667:106 668:104 669:34 670:83 671:81 672:42 673:91 674:89 675:-1 
4.681130203477241e-34 0:40 1:99 2:91 3:24 4:84 5:76 6:26 7:89 8:80 9:47 10:110 11:101 12:43 13:102 14:98 15:34 16:91 17:88 18:37 19:94 20:91 21:40 22:97 23:94 24:25 25:83 26:78 27:11 28:69 29:64 30:16 31:72 32:67 33:22 34:78 35:73 36:22 37:78 38:73 39:28 40:84 41:79 42:36 43:90 44:83 45:35 46:94 47:86 48:23 49:83 50:75 51:37 52:97 53:89 54:66 55:126 56:120 57:46 58:103 59:100 60:29 61:86 62:83 63:29 64:86 65:83 66:39 67:96 68:93 69:33 70:91 71:86 72:22 73:80 74:75 75:26 76:82 77:77 78:31 79:87 80:82 81:13 82:69 83:64 84:18 85:74 86:69 87:23 88:77 89:70 90:34 91:92 92:87 93:22 94:82 95:76 96:29 97:89 98:83 99:49 100:109 101:103 102:35 103:92 104:89 105:30 106:85 107:82 108:33 109:88 110:85 111:40 112:95 113:92 114:38 115:94 116:89 117:39 118:95 119:90 120:44 121:100 122:95 123:42 124:98 125:93 126:17 127:71 128:66 129:25 130:79 131:74 132:23 133:77 134:70 135:41 136:99 137:94 138:26 139:84 140:79 141:19 142:77 143:72 144:25 145:83 146:78 147:33 148:88 149:85 150:39 151:94 152:91 153:47 154:102 155:99 156:43 157:98 158:95 159:37 160:93 161:88 162:44 163:100 164:95 165:47 166:103 167:98 168:36 169:92 170:87 171:21 172:75 173:70 174:36 175:90 176:85 177:31 178:85 179:78 180:41 181:97 182:92 183:33 184:89 185:84 186:16 187:72 188:67 189:25 190:81 191:76 192:37 193:92 194:89 195:26 196:79 197:76 198:24 199:77 200:74 201:31 202:84 203:81 204:39 205:93 206:88 207:47 208:101 209:96 210:46 211:100 212:95 213:34 214:88 215:83 216:23 217:77 218:72 219:23 220:77 221:72 222:41 223:95 224:88 225:28 226:84 227:79 228:23 229:79 230:74 231:10 232:66 233:61 234:22 235:76 236:71 237:40 238:93 239:90 240:29 241:82 242:79 243:26 244:79 245:76 246:27 247:80 248:77 249:27 250:81 251:76 252:33 253:87 254:82 255:37 256:91 257:86 258:31 259:85 260:80 261:27 262:81 263:76 264:24 265:78 266:73 267:41 268:95 269:88 270:27 271:81 272:76 273:30 274:84 275:79 276:22 277:76 278:71 279:32 280:86 281:81 282:44 283:94 284:92 285:37 286:87 287:85 288:37 289:87 290:85 291:34 292:84 293:82 294:26 295:77 296:73 297:27 298:78 299:74 300:32 301:83 302:79 303:29 304:80 305:76 306:26 307:80 308:75 309:20 310:74 311:69 312:39 313:93 314:86 315:29 316:83 317:78 318:35 319:89 320:84 321:29 322:83 323:78 324:43 325:94 326:90 327:42 328:91 329:89 330:39 331:88 332:86 333:42 334:92 335:90 336:41 337:91 338:89 339:30 340:81 341:77 342:27 343:78 344:74 345:26 346:77 347:73 348:21 349:72 350:68 351:17 352:71 353:66 354:13 355:67 356:62 357:37 358:91 359:84 360:25 361:78 362:75 363:19 364:72 365:69 366:17 367:67 368:65 369:42 370:92 371:90 372:40 373:89 374:87 375:34 376:83 377:81 378:35 379:84 380:82 381:35 382:84 383:82 384:29 385:79 386:75 387:27 388:77 389:73 390:26 391:77 392:73 393:18 394:69 395:65 396:9 397:63 398:58 399:10 400:64 401:59 402:39 403:93 404:86 405:22 406:75 407:72 408:9 409:62 410:59 411:13 412:63 413:61 414:48 415:98 416:96 417:44 418:93 419:91 420:33 421:82 422:80 423:28 424:77 425:75 426:26 427:75 428:73 429:23 430:73 431:69 432:29 433:79 434:75 435:33 436:84 437:80 438:29 439:80 440:76 441:8 442:62 443:57 444:15 445:69 446:64 447:47 448:101 449:94 450:26 451:76 452:74 453:23 454:73 455:71 456:26 457:75 458:73 459:50 460:99 461:97 462:44 463:91 464:89 465:32 466:79 467:77 468:27 469:74 470:72 471:25 472:72 473:70 474:21 475:71 476:67 477:29 478:79 479:75 480:38 481:89 482:85 483:37 484:88 485:84 486:12 487:63 488:59 489:24 490:75 491:71 492:54 493:108 494:101 495:24 496:74 497:72 498:36 499:86 500:84 501:30 502:79 503:77 504:34 505:83 506:81 507:33 508:80 509:78 510:25 511:72 512:70 513:25 514:72 515:70 516:24 517:71 518:69 519:21 520:68 521:65 522:25 523:75 524:71 525:34 526:84 527:80 528:33 529:84 530:80 531:13 532:63 533:59 534:28 535:79 536:75 537:59 538:110 539:106 540:32 541:81 542:79 543:35 544:84 545:82 546:27 547:77 548:75 549:25 550:74 551:72 552:20 553:67 554:65 555:24 556:68 557:67 558:40 559:84 560:83 561:45 562:89 563:88 564:33 565:77 566:76 567:33 568:80 569:78 570:43 571:90 572:88 573:36 574:85 575:83 576:24 577:71 578:69 579:22 580:71 581:69 582:48 583:97 584:95 585:32 586:81 587:79 588:29 589:78 590:76 591:28 592:78 593:76 594:38 595:87 596:85 597:38 598:85 599:83 600:41 601:85 602:84 603:52 604:96 605:95 606:53 607:97 608:96 609:43 610:87 611:86 612:49 613:93 614:92 615:56 616:103 617:101 618:49 619:96 620:94 621:32 622:79 623:77 624:27 625:74 626:72 627:46 628:95 629:93 630:37 631:86 632:84 633:29 634:78 635:76 636:30 637:80 638:78 639:48 640:97 641:95 642:43 643:90 644:88 645:46 646:90 647:89 648:49 649:93 650:92 651:43 652:87 653:86 654:36 655:83 656:81 657:47 658:94 659:92 660:52 661:99 662:97 663:42 664:89 665:87 666:34 667:83 668:81 669:24 670:73 671:71 672:40 673:89 674:87 675:-1 
5.441835210454108e-34 0:59 1:125 2:120 3:56 4:120 5:115 6:26 7:87 8:83 9:12 10:69 11:66 12:21 13:76 14:73 15:34 16:87 17:84 18:37 19:87 20:85 21:23 22:72 23:70 24:14 25:64 26:62 27:17 28:70 29:67 30:19 31:74 32:71 33:23 34:80 35:77 36:16 37:75 38:71 39:4 40:63 41:59 42:19 43:76 44:73 45:59 46:123 47:118 48:51 49:112 50:108 51:31 52:90 53:86 54:19 55:76 56:73 57:19 58:74 59:71 60:37 61:87 62:85 63:41 64:91 65:89 66:25 67:74 68:72 69:20 70:69 71:67 72:20 73:70 74:68 75:15 76:68 77:65 78:23 79:78 80:75 81:23 82:80 83:77 84:8 85:65 86:62 87:14 88:69 89:66 90:51 91:112 92:108 93:38 94:99 95:95 96:34 97:93 98:89 99:25 100:82 101:79 102:14 103:69 104:66 105:30 106:80 107:78 108:36 109:86 110:84 111:21 112:70 113:68 114:21 115:70 116:68 117:21 118:71 119:69 120:14 121:67 122:64 123:27 124:82 125:79 126:37 127:94 128:91 129:20 130:77 131:74 132:15 133:70 134:67 135:42 136:101 137:97 138:29 139:88 140:84 141:34 142:91 143:88 144:30 145:85 146:82 147:10 148:63 149:60 150:21 151:71 152:69 153:29 154:79 155:77 156:9 157:58 158:56 159:14 160:63 161:61 162:16 163:66 164:64 165:11 166:61 167:59 168:30 169:83 170:80 171:48 172:103 173:100 174:29 175:84 176:81 177:18 178:71 179:68 180:18 181:76 182:71 183:24 184:82 185:77 186:36 187:92 188:87 189:15 190:71 191:66 192:13 193:67 194:62 195:34 196:85 197:81 198:23 199:74 200:70 201:18 202:68 203:64 204:25 205:75 206:71 207:22 208:73 209:69 210:21 211:72 212:68 213:34 214:85 215:81 216:40 217:94 218:89 219:34 220:88 221:83 222:28 223:82 224:77 225:12 226:68 227:63 228:14 229:70 230:65 231:27 232:83 233:78 234:19 235:73 236:68 237:20 238:74 239:69 240:39 241:90 242:86 243:26 244:77 245:73 246:21 247:71 248:67 249:31 250:81 251:77 252:29 253:80 254:76 255:27 256:78 257:74 258:40 259:91 260:87 261:52 262:103 263:99 264:45 265:96 266:92 267:32 268:83 269:79 270:27 271:81 272:76 273:28 274:82 275:77 276:39 277:93 278:88 279:31 280:82 281:78 282:30 283:81 284:77 285:46 286:97 287:93 288:38 289:89 290:85 291:21 292:71 293:67 294:25 295:75 296:71 297:25 298:75 299:71 300:30 301:80 302:76 303:49 304:99 305:95 306:66 307:116 308:112 309:56 310:106 311:102 312:35 313:85 314:81 315:26 316:80 317:75 318:31 319:85 320:80 321:38 322:92 323:87 324:27 325:78 326:74 327:20 328:71 329:67 330:38 331:89 332:85 333:37 334:88 335:84 336:22 337:72 338:68 339:14 340:64 341:60 342:15 343:65 344:61 345:31 346:81 347:77 348:51 349:101 350:97 351:62 352:112 353:108 354:53 355:103 356:99 357:33 358:83 359:79 360:23 361:74 362:70 363:23 364:74 365:70 366:33 367:84 368:80 369:30 370:81 371:77 372:24 373:75 374:71 375:35 376:86 377:82 378:34 379:85 380:81 381:19 382:69 383:65 384:9 385:59 386:55 387:21 388:71 389:67 390:41 391:91 392:87 393:46 394:93 395:90 396:46 397:93 398:90 399:50 400:97 401:94 402:49 403:96 404:93 405:33 406:84 407:80 408:20 409:71 410:67 411:29 412:80 413:76 414:36 415:87 416:83 417:32 418:83 419:79 420:32 421:83 422:79 423:24 424:75 425:71 426:8 427:58 428:54 429:6 430:56 431:52 432:30 433:80 434:76 435:49 436:99 437:95 438:40 439:87 440:84 441:40 442:87 443:84 444:62 445:109 446:106 447:76 448:123 449:120 450:45 451:96 452:89 453:24 454:76 455:69 456:25 457:77 458:70 459:29 460:81 461:74 462:21 463:73 464:66 465:22 466:74 467:67 468:19 469:71 470:64 471:18 472:69 473:62 474:13 475:64 476:57 477:33 478:81 479:75 480:43 481:91 482:85 483:35 484:83 485:77 486:50 487:98 488:92 489:75 490:121 491:115 492:73 493:119 494:113 495:61 496:112 497:105 498:45 499:96 500:89 501:38 502:89 503:82 504:33 505:84 506:77 507:22 508:74 509:67 510:34 511:85 512:78 513:46 514:97 515:90 516:46 517:97 518:90 519:29 520:80 521:73 522:29 523:77 524:71 525:29 526:77 527:71 528:32 529:80 530:74 531:59 532:107 533:101 534:68 535:116 536:110 537:37 538:85 539:79 540:58 541:106 542:100 543:56 544:104 545:98 546:46 547:94 548:88 549:29 550:77 551:71 552:23 553:74 554:67 555:46 556:94 557:88 558:71 559:122 560:115 561:48 562:99 563:92 564:40 565:91 566:84 567:40 568:91 569:84 570:19 571:70 572:63 573:30 574:81 575:74 576:60 577:111 578:104 579:44 580:95 581:88 582:30 583:82 584:75 585:47 586:93 587:87 588:49 589:95 590:89 591:41 592:89 593:83 594:31 595:79 596:73 597:30 598:78 599:72 600:45 601:93 602:87 603:59 604:110 605:103 606:49 607:100 608:93 609:32 610:83 611:76 612:26 613:77 614:70 615:46 616:97 617:90 618:55 619:106 620:99 621:42 622:94 623:87 624:39 625:91 626:84 627:40 628:94 629:87 630:40 631:87 632:84 633:41 634:88 635:85 636:36 637:86 638:82 639:35 640:85 641:81 642:41 643:91 644:87 645:49 646:99 647:95 648:54 649:104 650:100 651:50 652:100 653:96 654:40 655:91 656:87 657:28 658:79 659:75 660:63 661:114 662:110 663:63 664:114 665:110 666:27 667:81 668:76 669:40 670:94 671:89 672:48 673:104 674:99 675:-1 
4.379145503096149e-33 0:28 1:82 2:77 3:28 4:82 5:75 6:42 7:96 8:89 9:36 10:87 11:83 12:58 13:108 14:104 15:52 16:102 17:98 18:24 19:74 20:70 21:18 22:68 23:64 24:27 25:77 26:73 27:27 28:77 29:73 30:21 31:71 32:67 33:25 34:75 35:71 36:30 37:80 38:76 39:35 40:85 41:81 42:42 43:92 44:88 45:32 46:88 47:83 48:26 49:82 50:77 51:39 52:93 53:88 54:47 55:97 56:93 57:65 58:115 59:111 60:55 61:105 62:101 63:28 64:78 65:74 66:25 67:75 68:71 69:38 70:88 71:84 72:38 73:88 74:84 75:29 76:79 77:75 78:35 79:85 80:81 81:38 82:88 83:84 84:36 85:86 86:82 87:35 88:86 89:82 90:28 91:87 92:83 93:24 94:81 95:78 96:32 97:88 98:83 99:42 100:92 101:88 102:67 103:115 104:109 105:52 106:100 107:94 108:30 109:78 110:72 111:25 112:73 113:67 114:31 115:79 116:73 117:38 118:89 119:82 120:31 121:82 122:75 123:42 124:94 125:87 126:38 127:90 128:83 129:35 130:87 131:80 132:31 133:85 134:78 135:19 136:78 137:74 138:25 139:84 140:80 141:38 142:94 143:89 144:40 145:90 146:86 147:55 148:103 149:97 150:39 151:87 152:81 153:28 154:76 155:70 156:25 157:73 158:67 159:21 160:69 161:63 162:23 163:74 164:67 165:18 166:69 167:62 168:26 169:78 170:71 171:23 172:75 173:68 174:22 175:76 176:69 177:25 178:79 179:72 180:15 181:72 182:69 183:22 184:79 185:76 186:30 187:84 188:79 189:35 190:85 191:81 192:44 193:92 194:86 195:32 196:80 197:74 198:33 199:81 200:75 201:35 202:86 203:79 204:27 205:78 206:71 207:29 208:80 209:73 210:28 211:79 212:72 213:22 214:74 215:67 216:18 217:70 218:63 219:20 220:72 221:65 222:28 223:80 224:73 225:25 226:80 227:77 228:24 229:79 230:76 231:17 232:71 233:66 234:23 235:73 236:69 237:36 238:84 239:78 240:26 241:74 242:68 243:27 244:75 245:69 246:29 247:80 248:73 249:26 250:77 251:70 252:30 253:81 254:74 255:30 256:81 257:74 258:30 259:82 260:75 261:22 262:74 263:67 264:21 265:73 266:66 267:30 268:82 269:75 270:31 271:84 272:81 273:27 274:80 275:77 276:22 277:73 278:69 279:35 280:85 281:81 282:55 283:103 284:97 285:40 286:91 287:84 288:27 289:78 290:71 291:25 292:76 293:69 294:24 295:75 296:68 297:32 298:83 299:76 300:29 301:80 302:73 303:33 304:85 305:78 306:20 307:72 308:65 309:16 310:68 311:61 312:24 313:76 314:69 315:24 316:74 317:72 318:19 319:69 320:67 321:28 322:77 323:75 324:49 325:99 326:95 327:69 328:117 329:111 330:51 331:102 332:95 333:33 334:84 335:77 336:27 337:78 338:71 339:28 340:79 341:72 342:38 343:89 344:82 345:36 346:87 347:80 348:31 349:83 350:76 351:17 352:69 353:62 354:13 355:65 356:58 357:23 358:75 359:68 360:23 361:73 362:71 363:12 364:61 365:59 366:31 367:80 368:78 369:41 370:91 371:87 372:50 373:100 374:96 375:32 376:82 377:78 378:22 379:72 380:68 381:20 382:70 383:66 384:18 385:68 386:64 387:29 388:79 389:75 390:32 391:82 392:78 393:31 394:82 395:78 396:20 397:71 398:67 399:20 400:71 401:67 402:31 403:82 404:78 405:37 406:86 407:84 408:19 409:66 410:64 411:39 412:86 413:84 414:45 415:95 416:91 417:43 418:93 419:89 420:23 421:73 422:69 423:22 424:72 425:68 426:23 427:73 428:69 429:14 430:64 431:60 432:22 433:72 434:68 435:29 436:79 437:75 438:30 439:81 440:77 441:22 442:73 443:69 444:26 445:77 446:73 447:39 448:90 449:86 450:47 451:96 452:94 453:45 454:92 455:90 456:31 457:78 458:76 459:43 460:93 461:89 462:36 463:87 464:83 465:28 466:79 467:75 468:21 469:72 470:68 471:17 472:68 473:64 474:19 475:70 476:66 477:28 478:79 479:75 480:37 481:88 482:84 483:38 484:88 485:84 486:32 487:82 488:78 489:30 490:80 491:76 492:38 493:88 494:84 495:39 496:88 497:86 498:38 499:85 500:83 501:32 502:81 503:79 504:50 505:101 506:97 507:43 508:94 509:90 510:35 511:86 512:82 513:30 514:81 515:77 516:25 517:76 518:72 519:23 520:74 521:70 522:27 523:78 524:74 525:32 526:83 527:79 528:29 529:79 530:75 531:22 532:72 533:68 534:20 535:70 536:66 537:29 538:79 539:75 540:34 541:84 542:82 543:32 544:81 545:79 546:36 547:85 548:83 549:52 550:103 551:99 552:41 553:95 554:90 555:35 556:86 557:82 558:33 559:84 560:80 561:32 562:83 563:79 564:30 565:81 566:77 567:30 568:81 569:77 570:32 571:83 572:79 573:29 574:79 575:75 576:22 577:72 578:68 579:20 580:70 581:66 582:28 583:78 584:74 585:36 586:86 587:84 588:34 589:83 590:81 591:39 592:89 593:87 594:44 595:98 596:93 597:32 598:86 599:81 600:26 601:77 602:73 603:28 604:79 605:75 606:32 607:83 608:79 609:33 610:84 611:80 612:35 613:86 614:82 615:39 616:90 617:86 618:36 619:86 620:82 621:32 622:82 623:78 624:30 625:80 626:76 627:34 628:84 629:80 630:32 631:85 632:82 633:35 634:85 635:83 636:44 637:94 638:92 639:46 640:99 641:96 642:30 643:83 644:80 645:18 646:71 647:68 648:21 649:74 650:71 651:28 652:78 653:76 654:30 655:80 656:78 657:35 658:85 659:83 660:41 661:91 662:89 663:38 664:87 665:85 666:38 667:87 668:85 669:38 670:87 671:85 672:40 673:89 674:87 675:-1 
4.539081695353786e-34 0:40 1:94 2:87 3:34 4:91 5:83 6:28 7:85 8:77 9:35 10:92 11:84 12:38 13:95 14:87 15:41 16:95 17:88 18:38 19:92 20:85 21:34 22:86 23:79 24:33 25:85 26:78 27:37 28:88 29:81 30:42 31:93 32:86 33:36 34:87 35:80 36:33 37:84 38:77 39:38 40:90 41:83 42:24 43:76 44:69 45:39 46:93 47:86 48:34 49:91 50:83 51:27 52:84 53:76 54:34 55:91 56:83 57:37 58:94 59:86 60:41 61:95 62:88 63:37 64:91 65:84 66:32 67:84 68:77 69:31 70:83 71:76 72:39 73:90 74:83 75:46 76:97 77:90 78:34 79:85 80:78 81:27 82:78 83:71 84:40 85:92 86:85 87:31 88:83 89:76 90:37 91:94 92:86 93:34 94:91 95:83 96:27 97:84 98:76 99:29 100:86 101:78 102:33 103:90 104:82 105:38 106:92 107:85 108:35 109:89 110:82 111:31 112:83 113:76 114:30 115:82 116:75 117:38 118:89 119:82 120:47 121:95 122:89 123:42 124:90 125:84 126:28 127:79 128:72 129:41 130:93 131:86 132:37 133:89 134:82 135:36 136:93 137:85 138:34 139:91 140:83 141:30 142:87 143:79 144:24 145:81 146:73 147:27 148:84 149:76 150:32 151:86 152:79 153:29 154:83 155:76 156:27 157:79 158:72 159:29 160:80 161:73 162:36 163:84 164:78 165:42 166:90 167:84 168:52 169:100 170:94 171:35 172:83 173:77 174:38 175:89 176:82 177:36 178:88 179:81 180:31 181:88 182:80 183:32 184:89 185:81 186:31 187:88 188:80 189:24 190:83 191:75 192:27 193:84 194:76 195:28 196:82 197:75 198:26 199:80 200:73 201:27 202:79 203:72 204:30 205:81 206:74 207:38 208:86 209:80 210:43 211:91 212:85 213:52 214:100 215:94 216:36 217:84 218:78 219:33 220:84 221:77 222:36 223:88 224:81 225:24 226:81 227:73 228:28 229:85 230:77 231:30 232:87 233:79 234:33 235:90 236:82 237:33 238:87 239:80 240:30 241:84 242:77 243:29 244:81 245:74 246:31 247:82 248:75 249:35 250:86 251:79 252:43 253:91 254:85 255:48 256:96 257:90 258:47 259:95 260:89 261:34 262:82 263:76 264:29 265:80 266:73 267:39 268:90 269:83 270:33 271:90 272:82 273:26 274:83 275:75 276:19 277:73 278:66 279:35 280:87 281:80 282:36 283:87 284:80 285:39 286:90 287:83 288:41 289:92 290:85 291:40 292:88 293:82 294:38 295:86 296:80 297:44 298:92 299:86 300:54 301:102 302:96 303:51 304:99 305:93 306:40 307:88 308:82 309:38 310:86 311:80 312:38 313:86 314:80 315:31 316:88 317:80 318:31 319:88 320:80 321:29 322:83 323:76 324:32 325:83 326:76 327:35 328:83 329:77 330:38 331:86 332:80 333:39 334:87 335:81 336:36 337:84 338:78 339:33 340:81 341:75 342:39 343:87 344:81 345:48 346:96 347:90 348:37 349:85 350:79 351:30 352:78 353:72 354:34 355:82 356:76 357:37 358:85 359:79 360:29 361:86 362:78 363:33 364:90 365:82 366:36 367:90 368:83 369:38 370:89 371:82 372:37 373:85 374:79 375:35 376:83 377:77 378:33 379:81 380:75 381:31 382:79 383:73 384:32 385:80 386:74 387:38 388:86 389:80 390:45 391:93 392:87 393:37 394:85 395:79 396:33 397:81 398:75 399:38 400:86 401:80 402:40 403:88 404:82 405:27 406:84 407:76 408:30 409:87 410:79 411:34 412:88 413:81 414:50 415:101 416:94 417:44 418:92 419:86 420:35 421:83 422:77 423:31 424:79 425:73 426:33 427:81 428:75 429:36 430:84 431:78 432:40 433:88 434:82 435:42 436:90 437:84 438:41 439:89 440:83 441:37 442:85 443:79 444:41 445:89 446:83 447:41 448:89 449:83 450:27 451:81 452:74 453:31 454:85 455:78 456:35 457:89 458:82 459:50 460:101 461:94 462:42 463:93 464:86 465:34 466:85 467:78 468:33 469:84 470:77 471:38 472:89 473:82 474:40 475:91 476:84 477:34 478:85 479:78 480:26 481:77 482:70 483:30 484:81 485:74 486:25 487:76 488:69 489:29 490:80 491:73 492:33 493:84 494:77 495:25 496:79 497:72 498:35 499:89 500:82 501:41 502:95 503:88 504:36 505:87 506:80 507:36 508:87 509:80 510:36 511:87 512:80 513:38 514:89 515:82 516:42 517:93 518:86 519:40 520:91 521:84 522:27 523:78 524:71 525:14 526:65 527:58 528:26 529:77 530:70 531:21 532:72 533:65 534:23 535:74 536:67 537:26 538:77 539:70 540:30 541:84 542:77 543:39 544:93 545:86 546:43 547:97 548:90 549:30 550:81 551:74 552:36 553:87 554:80 555:40 556:91 557:84 558:40 559:91 560:84 561:39 562:90 563:83 564:37 565:88 566:81 567:30 568:81 569:74 570:22 571:73 572:66 573:38 574:89 575:82 576:32 577:83 578:76 579:30 580:81 581:74 582:27 583:78 584:71 585:36 586:90 587:83 588:41 589:95 590:88 591:43 592:95 593:88 594:32 595:84 596:77 597:41 598:92 599:85 600:45 601:96 602:89 603:38 604:89 605:82 606:32 607:83 608:76 609:34 610:85 611:78 612:39 613:90 614:83 615:42 616:93 617:86 618:47 619:98 620:91 621:42 622:93 623:86 624:38 625:89 626:82 627:30 628:81 629:74 630:30 631:82 632:75 633:45 634:97 635:90 636:37 637:89 638:82 639:36 640:88 641:81 642:38 643:90 644:83 645:47 646:99 647:92 648:39 649:91 650:84 651:42 652:94 653:87 654:39 655:91 656:84 657:26 658:78 659:71 660:53 661:105 662:98 663:50 664:102 665:95 666:27 667:79 668:72 669:46 670:98 671:91 672:50 673:102 674:95 675:-1 
3.744604268197333e-36 0:21 1:80 2:76 3:31 4:90 5:86 6:15 7:74 8:70 9:23 10:82 11:78 12:33 13:94 14:90 15:25 16:86 17:82 18:29 19:90 20:86 21:33 22:92 23:88 24:43 25:100 26:97 27:46 28:103 29:100 30:43 31:100 32:97 33:34 34:93 35:89 36:30 37:91 38:87 39:32 40:93 41:89 42:26 43:90 44:85 45:11 46:70 47:66 48:27 49:86 50:82 51:16 52:75 53:71 54:34 55:93 56:89 57:49 58:110 59:106 60:32 61:93 62:89 63:23 64:84 65:80 66:16 67:75 68:71 69:29 70:86 71:83 72:41 73:96 74:93 75:43 76:100 77:97 78:36 79:93 80:90 81:32 82:91 83:87 84:32 85:93 86:89 87:30 88:91 89:87 90:9 91:68 92:64 93:22 94:81 95:77 96:21 97:80 98:76 99:31 100:90 101:86 102:45 103:106 104:102 105:29 106:90 107:86 108:12 109:73 110:69 111:29 112:88 113:84 114:37 115:94 116:91 117:40 118:95 119:92 120:38 121:95 122:92 123:37 124:94 125:91 126:37 127:96 128:92 129:35 130:96 131:92 132:29 133:90 134:86 135:19 136:78 137:74 138:28 139:87 140:83 141:24 142:83 143:79 144:28 145:87 146:83 147:39 148:100 149:96 150:27 151:88 152:84 153:16 154:77 155:73 156:35 157:94 158:90 159:36 160:93 161:90 162:37 163:92 164:89 165:32 166:89 167:86 168:30 169:87 170:84 171:31 172:90 173:86 174:32 175:91 176:87 177:25 178:86 179:82 180:30 181:87 182:84 183:35 184:92 185:89 186:26 187:85 188:81 189:23 190:82 191:78 192:30 193:89 194:85 195:22 196:81 197:77 198:18 199:77 200:73 201:35 202:94 203:90 204:34 205:91 206:88 207:33 208:88 209:85 210:26 211:83 212:80 213:25 214:82 215:79 216:27 217:86 218:82 219:29 220:88 221:84 222:20 223:81 224:77 225:35 226:92 227:89 228:39 229:96 230:93 231:32 232:89 233:86 234:24 235:83 236:79 237:26 238:83 239:80 240:20 241:79 242:75 243:19 244:78 245:74 246:32 247:89 248:86 249:32 250:87 251:84 252:31 253:86 254:83 255:30 256:85 257:82 258:29 259:86 260:83 261:32 262:91 263:87 264:32 265:91 266:87 267:20 268:81 269:77 270:255 271:255 272:255 273:255 274:255 275:255 276:255 277:255 278:255 279:255 280:255 281:255 282:255 283:255 284:255 285:255 286:255 287:255 288:255 289:255 290:255 291:255 292:255 293:255 294:255 295:255 296:255 297:33 298:88 299:85 300:36 301:91 302:88 303:38 304:95 305:92 306:42 307:101 308:97 309:39 310:98 311:94 312:26 313:85 314:81 315:28 316:81 317:78 318:30 319:85 320:82 321:32 322:87 323:84 324:29 325:84 326:81 327:30 328:85 329:82 330:34 331:89 332:86 333:32 334:89 335:86 336:30 337:85 338:82 339:255 340:255 341:255 342:37 343:90 344:87 345:40 346:95 347:92 348:44 349:99 350:96 351:46 352:103 353:100 354:43 355:102 356:98 357:32 358:91 359:87 360:33 361:86 362:83 363:33 364:86 365:83 366:32 367:85 368:82 369:27 370:80 371:77 372:25 373:80 374:77 375:35 376:90 377:87 378:36 379:91 380:88 381:26 382:81 383:78 384:255 385:255 386:255 387:38 388:91 389:88 390:39 391:94 392:91 393:39 394:94 395:91 396:39 397:96 398:93 399:41 400:98 401:95 402:38 403:97 404:93 405:50 406:103 407:100 408:44 409:97 410:94 411:38 412:91 413:88 414:28 415:83 416:80 417:26 418:81 419:78 420:38 421:93 422:90 423:40 424:95 425:92 426:27 427:82 428:79 429:255 430:255 431:255 432:38 433:91 434:88 435:35 436:90 437:87 438:32 439:87 440:84 441:31 442:88 443:85 444:37 445:94 446:91 447:42 448:99 449:96 450:49 451:104 452:101 453:51 454:106 455:103 456:34 457:89 458:86 459:22 460:79 461:76 462:35 463:92 464:89 465:40 466:97 467:94 468:34 469:91 470:88 471:37 472:94 473:91 474:255 475:255 476:255 477:46 478:101 479:98 480:35 481:90 482:87 483:28 484:83 485:80 486:37 487:92 488:89 489:44 490:99 491:96 492:41 493:96 494:93 495:37 496:92 497:89 498:36 499:91 500:88 501:25 502:82 503:79 504:20 505:77 506:74 507:29 508:86 509:83 510:35 511:92 512:89 513:33 514:90 515:87 516:31 517:88 518:85 519:255 520:255 521:255 522:45 523:100 524:97 525:36 526:91 527:88 528:30 529:85 530:82 531:40 532:95 533:92 534:48 535:103 536:100 537:46 538:101 539:98 540:36 541:91 542:88 543:29 544:84 545:81 546:26 547:83 548:80 549:26 550:83 551:80 552:26 553:83 554:80 555:33 556:90 557:87 558:36 559:93 560:90 561:29 562:86 563:83 564:255 565:255 566:255 567:38 568:93 569:90 570:30 571:85 572:82 573:27 574:82 575:79 576:38 577:93 578:90 579:45 580:100 581:97 582:45 583:100 584:97 585:42 586:97 587:94 588:31 589:86 590:83 591:31 592:88 593:85 594:32 595:89 596:86 597:25 598:82 599:79 600:31 601:88 602:85 603:37 604:94 605:91 606:28 607:85 608:82 609:255 610:255 611:255 612:30 613:85 614:82 615:22 616:77 617:74 618:22 619:77 620:74 621:32 622:87 623:84 624:36 625:91 626:88 627:37 628:92 629:89 630:39 631:94 632:91 633:28 634:83 635:80 636:29 637:86 638:83 639:31 640:88 641:85 642:22 643:79 644:76 645:26 646:83 647:80 648:35 649:92 650:89 651:29 652:86 653:83 654:255 655:255 656:255 657:31 658:86 659:83 660:24 661:79 662:76 663:26 664:81 665:78 666:34 667:89 668:86 669:33 670:88 671:85 672:33 673:88 674:85 675:-1 
1.662669007143081e-36 0:26 1:81 2:84 3:39 4:96 5:97 6:34 7:97 8:95 9:19 10:82 11:80 12:19 13:82 14:80 15:38 16:98 17:97 18:42 19:100 20:99 21:29 22:86 23:85 24:27 25:81 26:81 27:39 28:91 29:91 30:42 31:94 32:94 33:35 34:87 35:87 36:30 37:82 38:82 39:32 40:84 41:84 42:42 43:94 44:94 45:31 46:85 47:86 48:34 49:91 50:90 51:27 52:87 53:86 54:21 55:81 56:80 57:21 58:81 59:80 60:30 61:90 62:89 63:41 64:99 65:98 66:40 67:97 68:96 69:33 70:90 71:89 72:29 73:83 74:83 75:36 76:90 77:90 78:30 79:82 80:82 81:33 82:85 83:85 84:41 85:93 86:93 87:43 88:95 89:95 90:33 91:85 92:85 93:39 94:93 95:93 96:32 97:90 98:89 99:24 100:84 101:83 102:20 103:80 104:79 105:23 106:83 107:82 108:33 109:91 110:90 111:38 112:96 113:95 114:36 115:93 116:92 117:30 118:87 119:86 120:37 121:91 122:91 123:28 124:82 125:82 126:29 127:81 128:81 129:34 130:86 131:86 132:40 133:90 134:90 135:32 136:84 137:84 138:35 139:89 140:89 141:29 142:87 143:86 144:27 145:87 146:86 147:25 148:83 149:82 150:24 151:82 152:81 153:31 154:89 155:88 156:41 157:99 158:98 159:39 160:96 161:95 162:31 163:88 164:87 165:27 166:81 167:81 168:22 169:76 170:76 171:25 172:77 173:77 174:28 175:80 176:80 177:37 178:87 179:87 180:36 181:88 182:88 183:31 184:85 185:85 186:21 187:79 188:78 189:25 190:85 191:84 192:28 193:86 194:85 195:27 196:85 197:84 198:35 199:93 200:92 201:45 202:103 203:102 204:42 205:99 206:98 207:28 208:85 209:84 210:26 211:80 212:80 213:27 214:81 215:81 216:33 217:85 218:85 219:31 220:83 221:83 222:32 223:82 224:82 225:44 226:96 227:96 228:30 229:84 230:84 231:18 232:75 233:74 234:24 235:82 236:81 237:25 238:83 239:82 240:24 241:82 242:81 243:33 244:90 245:89 246:43 247:100 248:99 249:42 250:96 251:96 252:30 253:84 254:84 255:44 256:96 257:96 258:45 259:97 260:97 261:47 262:99 263:99 264:38 265:90 266:90 267:27 268:77 269:77 270:255 271:255 272:255 273:255 274:255 275:255 276:22 277:79 278:78 279:22 280:80 281:79 282:19 283:77 284:76 285:17 286:75 287:74 288:24 289:81 290:80 291:34 292:91 293:90 294:37 295:91 296:91 297:32 298:86 299:86 300:47 301:99 302:99 303:47 304:99 305:99 306:51 307:103 308:103 309:44 310:96 311:96 312:31 313:81 314:81 315:41 316:93 317:93 318:255 319:255 320:255 321:28 322:85 323:84 324:23 325:81 326:80 327:19 328:77 329:76 330:19 331:77 332:76 333:24 334:81 335:80 336:255 337:255 338:255 339:255 340:255 341:255 342:255 343:255 344:255 345:255 346:255 347:255 348:255 349:255 350:255 351:255 352:255 353:255 354:255 355:255 356:255 357:255 358:255 359:255 360:42 361:94 362:94 363:255 364:255 365:255 366:30 367:87 368:86 369:25 370:83 371:82 372:24 373:82 374:81 375:28 376:86 377:85 378:31 379:88 380:87 381:255 382:255 383:255 384:25 385:79 386:79 387:24 388:78 389:78 390:26 391:78 392:78 393:27 394:79 395:79 396:50 397:100 398:100 399:68 400:118 401:118 402:60 403:108 404:109 405:43 406:95 407:95 408:255 409:255 410:255 411:36 412:93 413:92 414:38 415:95 416:94 417:27 418:84 419:83 420:31 421:88 422:87 423:41 424:95 425:95 426:255 427:255 428:255 429:45 430:97 431:97 432:28 433:80 434:80 435:33 436:85 437:85 438:21 439:73 440:73 441:42 442:92 443:92 444:68 445:118 446:118 447:63 448:111 449:112 450:36 451:88 452:88 453:255 454:255 455:255 456:44 457:98 458:98 459:45 460:102 461:101 462:34 463:91 464:90 465:36 466:93 467:92 468:43 469:97 470:97 471:255 472:255 473:255 474:49 475:101 476:101 477:36 478:88 479:88 480:34 481:86 482:86 483:20 484:72 485:72 486:38 487:88 488:88 489:63 490:113 491:113 492:60 493:108 494:109 495:36 496:88 497:88 498:255 499:255 500:255 501:46 502:100 503:100 504:44 505:101 506:100 507:31 508:88 509:87 510:32 511:89 512:88 513:36 514:90 515:90 516:255 517:255 518:255 519:41 520:93 521:93 522:33 523:85 524:85 525:49 526:99 527:99 528:31 529:81 530:81 531:41 532:89 533:90 534:59 535:107 536:108 537:57 538:105 539:106 540:39 541:91 542:91 543:255 544:255 545:255 546:45 547:99 548:99 549:38 550:95 551:94 552:22 553:79 554:78 555:25 556:82 557:81 558:29 559:83 560:83 561:255 562:255 563:255 564:33 565:85 566:85 567:27 568:79 569:79 570:64 571:114 572:114 573:43 574:93 575:93 576:44 577:92 578:93 579:53 580:101 581:102 582:255 583:255 584:255 585:39 586:91 587:91 588:255 589:255 590:255 591:46 592:100 593:100 594:35 595:92 596:91 597:20 598:74 599:74 600:28 601:82 602:82 603:34 604:88 605:88 606:255 607:255 608:255 609:39 610:91 611:91 612:35 613:87 614:87 615:69 616:119 617:119 618:48 619:98 620:98 621:46 622:94 623:95 624:47 625:95 626:96 627:255 628:255 629:255 630:39 631:91 632:91 633:255 634:255 635:255 636:40 637:94 638:94 639:30 640:87 641:86 642:20 643:74 644:74 645:32 646:86 647:86 648:40 649:94 650:94 651:255 652:255 653:255 654:46 655:98 656:98 657:46 658:98 659:98 660:69 661:119 662:119 663:53 664:103 665:103 666:53 667:101 668:102 669:50 670:98 671:99 672:255 673:255 674:255 675:-1 
-5.674024490493754e-33 0:0 1:0 2:0 3:0 4:0 5:0 6:0 7:0 8:0 9:0 10:0 11:0 12:0 13:0 14:0 15:0 16:0 17:0 18:0 19:0 20:0 21:0 22:0 23:0 24:0 25:0 26:0 27:0 28:0 29:0 30:0 31:0 32:0 33:48 34:18 35:1 36:48 37:18 38:1 39:48 40:18 41:1 42:48 43:18 44:1 45:48 46:18 47:1 48:48 49:18 50:1 51:49 52:19 53:2 54:49 55:19 56:2 57:0 58:0 59:0 60:48 61:18 62:1 63:48 64:18 65:1 66:48 67:18 68:1 69:49 70:19 71:2 72:49 73:19 74:2 75:0 76:0 77:0 78:48 79:18 80:1 81:48 82:18 83:1 84:48 85:18 86:1 87:48 88:18 89:1 90:48 91:18 92:1 93:48 94:18 95:1 96:49 97:19 98:2 99:49 100:19 101:2 102:0 103:0 104:0 105:48 106:18 107:1 108:48 109:18 110:1 111:48 112:18 113:1 114:49 115:19 116:2 117:49 118:19 119:2 120:0 121:0 122:0 123:48 124:18 125:1 126:48 127:18 128:1 129:48 130:18 131:1 132:48 133:18 134:1 135:50 136:20 137:3 138:50 139:20 140:3 141:47 142:17 143:0 144:47 145:17 146:0 147:0 148:0 149:0 150:48 151:18 152:1 153:48 154:18 155:1 156:49 157:19 158:2 159:49 160:19 161:2 162:49 163:19 164:2 165:0 166:0 167:0 168:48 169:18 170:1 171:48 172:18 173:1 174:48 175:18 176:1 177:48 178:18 179:1 180:50 181:20 182:3 183:50 184:20 185:3 186:48 187:18 188:1 189:48 190:18 191:1 192:0 193:0 194:0 195:48 196:18 197:1 198:48 199:18 200:1 201:49 202:19 203:2 204:49 205:19 206:2 207:49 208:19 209:2 210:0 211:0 212:0 213:48 214:18 215:1 216:48 217:18 218:1 219:48 220:18 221:1 222:48 223:18 224:1 225:50 226:20 227:3 228:50 229:20 230:3 231:49 232:19 233:2 234:49 235:19 236:2 237:0 238:0 239:0 240:48 241:18 242:1 243:48 244:18 245:1 246:48 247:18 248:1 249:48 250:18 251:1 252:48 253:18 254:1 255:0 256:0 257:0 258:48 259:18 260:1 261:48 262:18 263:1 264:48 265:18 266:1 267:48 268:18 269:1 270:49 271:19 272:2 273:49 274:19 275:2 276:49 277:19 278:2 279:49 280:19 281:2 282:0 283:0 284:0 285:48 286:18 287:1 288:48 289:18 290:1 291:48 292:18 293:1 294:47 295:17 296:0 297:47 298:17 299:0 300:0 301:0 302:0 303:48 304:18 305:1 306:48 307:18 308:1 309:48 310:18 311:1 312:48 313:18 314:1 315:49 316:19 317:2 318:49 319:19 320:2 321:49 322:19 323:2 324:49 325:19 326:2 327:0 328:0 329:0 330:48 331:18 332:1 333:48 334:18 335:1 336:48 337:18 338:1 339:47 340:17 341:0 342:47 343:17 344:0 345:0 346:0 347:0 348:48 349:18 350:1 351:48 352:18 353:1 354:48 355:18 356:1 357:48 358:18 359:1 360:49 361:19 362:2 363:49 364:19 365:2 366:49 367:19 368:2 369:49 370:19 371:2 372:0 373:0 374:0 375:48 376:18 377:1 378:48 379:18 380:1 381:48 382:18 383:1 384:48 385:18 386:1 387:48 388:18 389:1 390:0 391:0 392:0 393:48 394:18 395:1 396:48 397:18 398:1 399:48 400:18 401:1 402:48 403:18 404:1 405:0 406:0 407:0 408:0 409:0 410:0 411:0 412:0 413:0 414:0 415:0 416:0 417:0 418:0 419:0 420:48 421:18 422:1 423:48 424:18 425:1 426:49 427:19 428:2 429:49 430:19 431:2 432:49 433:19 434:2 435:0 436:0 437:0 438:48 439:18 440:1 441:48 442:18 443:1 444:48 445:18 446:1 447:48 448:18 449:1 450:48 451:18 452:1 453:48 454:18 455:1 456:47 457:17 458:0 459:47 460:17 461:0 462:48 463:18 464:1 465:48 466:18 467:1 468:48 469:18 470:1 471:49 472:19 473:2 474:49 475:19 476:2 477:49 478:19 479:2 480:0 481:0 482:0 483:48 484:18 485:1 486:48 487:18 488:1 489:48 490:18 491:1 492:48 493:18 494:1 495:48 496:18 497:1 498:48 499:18 500:1 501:48 502:18 503:1 504:48 505:18 506:1 507:48 508:18 509:1 510:48 511:18 512:1 513:48 514:18 515:1 516:48 517:18 518:1 519:48 520:18 521:1 522:48 523:18 524:1 525:0 526:0 527:0 528:48 529:18 530:1 531:48 532:18 533:1 534:48 535:18 536:1 537:48 538:18 539:1 540:48 541:18 542:1 543:48 544:18 545:1 546:48 547:18 548:1 549:48 550:18 551:1 552:48 553:18 554:1 555:48 556:18 557:1 558:48 559:18 560:1 561:48 562:18 563:1 564:48 565:18 566:1 567:48 568:18 569:1 570:0 571:0 572:0 573:48 574:18 575:1 576:48 577:18 578:1 579:48 580:18 581:1 582:48 583:18 584:1 585:48 586:18 587:1 588:48 589:18 590:1 591:48 592:18 593:1 594:48 595:18 596:1 597:48 598:18 599:1 600:48 601:18 602:1 603:48 604:18 605:1 606:48 607:18 608:1 609:48 610:18 611:1 612:48 613:18 614:1 615:0 616:0 617:0 618:48 619:18 620:1 621:48 622:18 623:1 624:48 625:18 626:1 627:48 628:18 629:1 630:0 631:0 632:0 633:0 634:0 635:0 636:0 637:0 638:0 639:0 640:0 641:0 642:0 643:0 644:0 645:0 646:0 647:0 648:0 649:0 650:0 651:0 652:0 653:0 654:0 655:0 656:0 657:0 658:0 659:0 660:0 661:0 662:0 663:48 664:18 665:1 666:48 667:18 668:1 669:48 670:18 671:1 672:48 673:18 674:1 675:-1 
-1.767992630967114e-35 0:62 1:116 2:111 3:69 4:123 5:118 6:51 7:102 8:98 9:42 10:93 11:89 12:50 13:101 14:97 15:45 16:96 17:92 18:38 19:89 20:85 21:36 22:87 23:83 24:44 25:95 26:91 27:51 28:102 29:98 30:49 31:100 32:96 33:39 34:93 35:88 36:33 37:91 38:86 39:24 40:84 41:78 42:33 43:93 44:87 45:61 46:112 47:108 48:77 49:128 50:124 51:54 52:105 53:101 54:60 55:111 56:107 57:55 58:106 59:102 60:43 61:94 62:90 63:42 64:93 65:89 66:46 67:97 68:93 69:44 70:95 71:91 72:38 73:89 74:85 75:35 76:86 77:82 78:31 79:85 80:80 81:37 82:95 83:90 84:27 85:87 86:81 87:31 88:89 89:84 90:70 91:120 92:116 93:78 94:128 95:124 96:59 97:109 98:105 99:73 100:123 101:119 102:64 103:114 104:110 105:45 106:95 107:91 108:46 109:96 110:92 111:54 112:104 113:100 114:42 115:92 116:88 117:30 118:80 119:76 120:34 121:84 122:80 123:39 124:90 125:86 126:39 127:95 128:90 129:34 130:92 131:87 132:36 133:92 134:87 135:87 136:132 137:129 138:76 139:123 140:120 141:62 142:109 143:106 144:72 145:119 146:116 147:72 148:119 149:116 150:50 151:100 152:96 153:53 154:100 155:97 156:55 157:105 158:101 159:44 160:91 161:88 162:42 163:92 164:88 165:59 166:106 167:103 168:61 169:111 170:107 171:41 172:95 173:90 174:45 175:99 176:94 177:43 178:97 179:92 180:93 181:136 182:133 183:67 184:112 185:109 186:61 187:106 188:103 189:59 190:104 191:101 192:70 193:115 194:112 195:60 196:107 197:104 198:67 199:112 200:109 201:62 202:109 203:106 204:57 205:102 206:99 207:78 208:125 209:122 210:96 211:141 212:138 213:78 214:125 215:122 216:53 217:103 218:99 219:57 220:108 221:104 222:45 223:96 224:92 225:91 226:131 227:129 228:59 229:99 230:97 231:61 232:101 233:99 234:48 235:91 236:88 237:65 238:108 239:105 240:71 241:114 242:111 243:81 244:124 245:121 246:71 247:116 248:113 249:73 250:116 251:113 252:109 253:154 254:151 255:120 256:165 257:162 258:82 259:127 260:124 261:67 262:114 263:111 264:68 265:115 266:112 267:44 268:91 269:88 270:100 271:138 272:138 273:69 274:107 275:107 276:58 277:96 278:96 279:73 280:113 281:112 282:79 283:119 284:118 285:65 286:105 287:104 288:90 289:130 290:129 291:88 292:130 293:129 294:84 295:124 296:123 297:102 298:144 299:143 300:88 301:130 302:129 303:61 304:103 305:102 306:83 307:128 308:125 309:81 310:126 311:123 312:23 313:68 314:65 315:91 316:125 317:125 318:98 319:134 320:134 321:95 322:131 323:131 324:67 325:103 326:103 327:77 328:113 329:113 330:70 331:108 332:108 333:100 334:138 335:138 336:92 337:132 338:131 339:72 340:112 341:111 342:87 343:127 344:126 345:75 346:115 347:114 348:37 349:79 350:78 351:73 352:113 353:111 354:90 355:133 356:130 357:61 358:101 359:99 360:100 361:131 362:132 363:130 364:161 365:162 366:124 367:155 368:156 369:60 370:94 371:94 372:70 373:104 374:104 375:70 376:106 377:106 378:107 379:143 380:143 381:96 382:134 383:134 384:61 385:99 386:99 387:73 388:111 389:111 390:72 391:110 392:110 393:35 394:75 395:74 396:38 397:77 398:75 399:75 400:115 401:113 402:83 403:122 404:120 405:113 406:141 407:142 408:133 409:163 410:164 411:125 412:155 413:156 414:84 415:115 416:116 417:84 418:115 419:116 420:79 421:113 422:113 423:110 424:144 425:144 426:104 427:140 428:140 429:62 430:98 431:98 432:64 433:102 434:102 435:79 436:117 437:117 438:57 439:95 440:95 441:34 442:73 443:71 444:72 445:111 446:109 447:103 448:140 449:138 450:112 451:137 452:141 453:125 454:152 455:156 456:121 457:148 458:152 459:118 460:147 461:151 462:113 463:144 464:147 465:92 466:125 467:128 468:104 469:137 470:140 471:106 472:139 473:142 474:65 475:98 476:101 477:55 478:90 479:93 480:81 481:116 482:119 483:79 484:115 485:115 486:72 487:109 488:107 489:94 490:131 491:129 492:127 493:161 494:160 495:122 496:147 497:151 498:132 499:157 500:161 501:119 502:144 503:148 504:121 505:148 506:152 507:125 508:154 509:158 510:98 511:129 512:132 513:90 514:121 515:124 516:96 517:129 518:132 519:72 520:105 521:108 522:58 523:91 524:94 525:83 526:118 527:121 528:96 529:130 530:130 531:85 532:119 533:119 534:94 535:128 536:127 537:121 538:153 539:152 540:142 541:164 542:169 543:142 544:167 545:171 546:128 547:153 548:157 549:120 550:147 551:151 552:130 553:159 554:163 555:111 556:142 557:145 558:90 559:121 560:124 561:102 562:133 563:136 564:98 565:131 566:134 567:87 568:120 569:123 570:107 571:140 572:143 573:116 574:150 575:150 576:89 577:120 578:121 579:98 580:130 581:129 582:115 583:146 584:145 585:141 586:166 587:170 588:144 589:169 590:173 591:147 592:172 593:176 594:145 595:170 596:174 597:149 598:176 599:180 600:138 601:167 602:171 603:111 604:140 605:144 606:122 607:151 608:155 609:133 610:164 611:167 612:124 613:155 614:158 615:134 616:165 617:168 618:136 619:167 620:168 621:118 622:146 623:146 624:131 625:159 626:159 627:141 628:167 629:167 630:128 631:158 632:159 633:130 634:158 635:159 636:128 637:153 638:155 639:114 640:139 641:141 642:136 643:161 644:163 645:139 646:164 647:166 648:117 649:142 650:144 651:123 652:151 653:152 654:134 655:162 656:163 657:128 658:156 659:157 660:129 661:159 662:160 663:120 664:148 665:149 666:98 667:122 668:122 669:142 670:163 671:164 672:153 673:173 674:174 675:-1 
-1.348105874900455e-36 0:67 1:103 2:103 3:77 4:113 5:113 6:70 7:108 8:108 9:100 10:138 11:138 12:92 13:132 14:131 15:72 16:112 17:111 18:87 19:127 20:126 21:0 22:0 23:0 24:37 25:79 26:78 27:73 28:113 29:111 30:90 31:133 32:130 33:0 34:0 35:0 36:55 37:98 38:95 39:74 40:114 41:112 42:63 43:106 44:103 45:60 46:94 47:94 48:70 49:104 50:104 51:70 52:106 53:106 54:107 55:143 56:143 57:96 58:134 59:134 60:61 61:99 62:99 63:73 64:111 65:111 66:0 67:0 68:0 69:35 70:75 71:74 72:38 73:77 74:75 75:75 76:115 77:113 78:0 79:0 80:0 81:69 82:109 83:107 84:71 85:110 86:108 87:71 88:111 89:109 90:84 91:115 92:116 93:84 94:115 95:116 96:79 97:113 98:113 99:110 100:144 101:144 102:104 103:140 104:140 105:62 106:98 107:98 108:64 109:102 110:102 111:0 112:0 113:0 114:57 115:95 116:95 117:34 118:73 119:71 120:72 121:111 122:109 123:0 124:0 125:0 126:86 127:125 128:123 129:73 130:110 131:108 132:71 133:110 134:108 135:118 136:147 137:151 138:113 139:144 140:147 141:92 142:125 143:128 144:104 145:137 146:140 147:106 148:139 149:142 150:65 151:98 152:101 153:55 154:90 155:93 156:0 157:0 158:0 159:79 160:115 161:115 162:72 163:109 164:107 165:94 166:131 167:129 168:0 169:0 170:0 171:116 172:153 173:151 174:92 175:126 176:125 177:81 178:118 179:116 180:121 181:148 182:152 183:125 184:154 185:158 186:98 187:129 188:132 189:90 190:121 191:124 192:96 193:129 194:132 195:72 196:105 197:108 198:58 199:91 200:94 201:0 202:0 203:0 204:96 205:130 206:130 207:85 208:119 209:119 210:94 211:128 212:127 213:0 214:0 215:0 216:125 217:159 218:158 219:100 220:132 221:131 222:86 223:120 224:119 225:120 226:147 227:151 228:130 229:159 230:163 231:111 232:142 233:145 234:90 235:121 236:124 237:102 238:133 239:136 240:98 241:131 242:134 243:87 244:120 245:123 246:0 247:0 248:0 249:116 250:150 251:150 252:89 253:120 254:121 255:98 256:130 257:129 258:0 259:0 260:0 261:131 262:163 263:162 264:104 265:135 266:134 267:91 268:123 269:122 270:145 271:170 272:174 273:149 274:176 275:180 276:138 277:167 278:171 279:111 280:140 281:144 282:122 283:151 284:155 285:133 286:164 287:167 288:124 289:155 290:158 291:0 292:0 293:0 294:136 295:167 296:168 297:118 298:146 299:146 300:131 301:159 302:159 303:0 304:0 305:0 306:157 307:183 308:183 309:124 310:150 311:150 312:108 313:134 314:134 315:0 316:0 317:0 318:0 319:0 320:0 321:0 322:0 323:0 324:0 325:0 326:0 327:0 328:0 329:0 330:0 331:0 332:0 333:0 334:0 335:0 336:0 337:0 338:0 339:0 340:0 341:0 342:0 343:0 344:0 345:0 346:0 347:0 348:0 349:0 350:0 351:143 352:163 353:164 354:155 355:175 356:176 357:135 358:155 359:156 360:107 361:132 362:134 363:119 364:144 365:146 366:120 367:145 368:147 369:106 370:131 371:133 372:112 373:137 374:139 375:119 376:144 377:146 378:121 379:149 380:150 381:0 382:0 383:0 384:123 385:148 386:150 387:105 388:126 389:127 390:139 391:157 392:158 393:133 394:151 395:152 396:123 397:141 398:142 399:166 400:181 401:183 402:156 403:171 404:173 405:108 406:136 407:137 408:129 409:157 410:158 411:126 412:154 413:155 414:116 415:144 416:145 417:110 418:138 419:139 420:104 421:132 422:133 423:119 424:147 425:148 426:0 427:0 428:0 429:130 430:158 431:159 432:126 433:150 434:150 435:149 436:169 437:170 438:139 439:159 440:160 441:127 442:147 443:148 444:176 445:194 446:195 447:167 448:185 449:186 450:100 451:130 452:131 453:122 454:152 455:153 456:118 457:148 458:149 459:119 460:147 461:148 462:100 463:130 464:131 465:80 466:108 467:109 468:99 469:129 470:130 471:0 472:0 473:0 474:127 475:155 476:156 477:140 478:166 479:166 480:155 481:176 482:177 483:165 484:186 485:187 486:159 487:179 488:180 489:179 490:199 491:200 492:170 493:188 494:189 495:78 496:112 497:112 498:93 499:124 500:125 501:98 502:129 503:130 504:115 505:145 506:146 507:99 508:130 509:131 510:75 511:105 512:106 513:93 514:124 515:125 516:0 517:0 518:0 519:120 520:150 521:151 522:137 523:165 524:165 525:133 526:159 527:159 528:161 529:185 530:185 531:173 532:194 533:195 534:170 535:190 536:191 537:170 538:188 539:189 540:71 541:107 542:107 543:73 544:107 545:107 546:85 547:119 548:119 549:115 550:149 551:149 552:108 553:142 554:142 555:92 556:123 557:124 558:99 559:133 560:133 561:0 562:0 563:0 564:108 565:139 566:140 567:137 568:168 569:167 570:119 571:147 572:147 573:135 574:161 575:161 576:162 577:186 578:186 579:154 580:175 581:176 582:164 583:184 584:185 585:0 586:0 587:0 588:0 589:0 590:0 591:0 592:0 593:0 594:0 595:0 596:0 597:0 598:0 599:0 600:0 601:0 602:0 603:0 604:0 605:0 606:0 607:0 608:0 609:84 610:118 611:118 612:125 613:159 614:158 615:120 616:152 617:151 618:110 619:141 620:140 621:139 622:167 623:167 624:140 625:164 626:164 627:145 628:166 629:167 630:52 631:94 632:93 633:59 634:99 635:98 636:64 637:102 638:102 639:82 640:120 641:120 642:83 643:121 644:121 645:91 646:129 647:129 648:94 649:132 650:132 651:74 652:112 653:112 654:80 655:118 656:118 657:100 658:137 659:135 660:119 661:153 662:152 663:97 664:129 665:128 666:123 667:154 668:153 669:129 670:155 671:155 672:123 673:147 674:147 675:-1 
-1.921871603631674e-37 0:0 1:0 2:0 3:124 4:140 5:139 6:0 7:0 8:0 9:152 10:168 11:167 12:144 13:162 14:161 15:0 16:0 17:0 18:153 19:175 20:173 21:147 22:169 23:167 24:0 25:0 26:0 27:118 28:142 29:140 30:0 31:0 32:0 33:117 34:141 35:139 36:0 37:0 38:0 39:96 40:118 41:116 42:116 43:138 44:136 45:0 46:0 47:0 48:157 49:171 50:170 51:0 52:0 53:0 54:168 55:182 56:181 57:165 58:181 59:180 60:0 61:0 62:0 63:155 64:173 65:172 66:162 67:183 68:181 69:0 70:0 71:0 72:140 73:161 74:159 75:0 76:0 77:0 78:138 79:159 80:157 81:0 82:0 83:0 84:109 85:127 86:126 87:125 88:143 89:142 90:0 91:0 92:0 93:181 94:193 95:193 96:0 97:0 98:0 99:180 100:192 101:192 102:184 103:198 104:197 105:0 106:0 107:0 108:161 109:175 110:174 111:165 112:181 113:180 114:0 115:0 116:0 117:155 118:171 119:170 120:0 121:0 122:0 123:153 124:169 125:168 126:0 127:0 128:0 129:130 130:144 131:143 132:144 133:158 134:157 135:0 136:0 137:0 138:182 139:192 140:192 141:0 142:0 143:0 144:178 145:190 146:190 147:186 148:198 149:198 150:0 151:0 152:0 153:178 154:190 155:190 156:175 157:187 158:187 159:0 160:0 161:0 162:161 163:173 164:173 165:0 166:0 167:0 168:157 169:169 170:169 171:0 172:0 173:0 174:141 175:153 176:153 177:159 178:171 179:171 180:0 181:0 182:0 183:173 184:185 185:185 186:0 187:0 188:0 189:194 190:204 191:204 192:175 193:185 194:185 195:0 196:0 197:0 198:176 199:186 200:186 201:171 202:181 203:181 204:0 205:0 206:0 207:174 208:184 209:184 210:0 211:0 212:0 213:164 214:174 215:174 216:0 217:0 218:0 219:150 220:160 221:160 222:168 223:178 224:178 225:0 226:0 227:0 228:176 229:188 230:188 231:0 232:0 233:0 234:193 235:205 236:205 237:187 238:197 239:197 240:0 241:0 242:0 243:157 244:167 245:167 246:156 247:164 248:164 249:0 250:0 251:0 252:181 253:189 254:189 255:0 256:0 257:0 258:180 259:188 260:188 261:0 262:0 263:0 264:169 265:179 266:179 267:177 268:187 269:187 270:0 271:0 272:0 273:175 274:189 275:188 276:0 277:0 278:0 279:175 280:189 281:188 282:178 283:190 284:190 285:0 286:0 287:0 288:171 289:181 290:181 291:162 292:170 293:170 294:0 295:0 296:0 297:183 298:191 299:191 300:0 301:0 302:0 303:186 304:194 305:194 306:0 307:0 308:0 309:185 310:195 311:195 312:186 313:196 314:196 315:0 316:0 317:0 318:0 319:0 320:0 321:0 322:0 323:0 324:161 325:177 326:176 327:160 328:174 329:173 330:0 331:0 332:0 333:183 334:193 335:193 336:171 337:181 338:181 339:0 340:0 341:0 342:179 343:187 344:187 345:0 346:0 347:0 348:179 349:187 350:187 351:0 352:0 353:0 354:192 355:202 356:202 357:189 358:201 359:201 360:0 361:0 362:0 363:0 364:0 365:0 366:0 367:0 368:0 369:0 370:0 371:0 372:0 373:0 374:0 375:0 376:0 377:0 378:160 379:172 380:172 381:162 382:172 383:172 384:0 385:0 386:0 387:174 388:184 389:184 390:0 391:0 392:0 393:177 394:187 395:187 396:0 397:0 398:0 399:200 400:210 401:210 402:194 403:206 404:206 405:0 406:0 407:0 408:0 409:0 410:0 411:0 412:0 413:0 414:0 415:0 416:0 417:0 418:0 419:0 420:0 421:0 422:0 423:0 424:0 425:0 426:0 427:0 428:0 429:0 430:0 431:0 432:0 433:0 434:0 435:0 436:0 437:0 438:187 439:197 440:197 441:0 442:0 443:0 444:201 445:213 446:213 447:192 448:206 449:205 450:0 451:0 452:0 453:0 454:0 455:0 456:0 457:0 458:0 459:0 460:0 461:0 462:0 463:0 464:0 465:0 466:0 467:0 468:0 469:0 470:0 471:0 472:0 473:0 474:0 475:0 476:0 477:0 478:0 479:0 480:0 481:0 482:0 483:0 484:0 485:0 486:0 487:0 488:0 489:182 490:196 491:195 492:174 493:190 494:189 495:0 496:0 497:0 498:0 499:0 500:0 501:0 502:0 503:0 504:0 505:0 506:0 507:0 508:0 509:0 510:0 511:0 512:0 513:0 514:0 515:0 516:0 517:0 518:0 519:0 520:0 521:0 522:0 523:0 524:0 525:0 526:0 527:0 528:0 529:0 530:0 531:0 532:0 533:0 534:156 535:172 536:171 537:155 538:171 539:170 540:113 541:145 542:144 543:100 544:131 545:130 546:133 547:161 548:161 549:131 550:159 551:159 552:117 553:143 554:143 555:130 556:151 557:152 558:141 559:161 560:162 561:156 562:174 563:175 564:184 565:199 566:201 567:165 568:180 569:182 570:156 571:171 572:173 573:163 574:176 575:178 576:154 577:169 578:171 579:137 580:152 581:154 582:152 583:170 584:171 585:96 586:130 587:129 588:100 589:132 590:131 591:121 592:152 593:151 594:118 595:146 596:146 597:113 598:139 599:139 600:133 601:157 602:157 603:145 604:166 605:167 606:151 607:171 608:172 609:171 610:189 611:190 612:154 613:169 614:171 615:144 616:159 617:161 618:155 619:170 620:172 621:161 622:176 623:178 624:147 625:165 626:166 627:155 628:173 629:174 630:87 631:124 632:122 633:95 634:127 635:126 636:110 637:141 638:140 639:110 640:138 641:138 642:114 643:140 644:140 645:132 646:156 647:156 648:140 649:161 650:162 651:146 652:166 653:167 654:165 655:183 656:184 657:147 658:162 659:164 660:137 661:152 662:154 663:152 664:167 665:169 666:169 667:184 668:186 669:162 670:177 671:179 672:161 673:176 674:178 675:-1 
-1.530481152061993e-37 0:65 1:105 2:104 3:62 4:99 5:97 6:66 7:100 8:99 9:81 10:113 11:112 12:89 13:120 14:119 15:102 16:130 17:130 18:0 19:0 20:0 21:0 22:0 23:0 24:0 25:0 26:0 27:0 28:0 29:0 30:0 31:0 32:0 33:0 34:0 35:0 36:0 37:0 38:0 39:0 40:0 41:0 42:0 43:0 44:0 45:64 46:103 47:101 48:50 49:84 50:83 51:56 52:88 53:87 54:82 55:113 56:112 57:89 58:120 59:119 60:91 61:119 62:119 63:0 64:0 65:0 66:121 67:145 68:145 69:138 70:162 71:162 72:135 73:155 74:156 75:140 76:160 77:161 78:144 79:159 80:161 81:150 82:165 83:167 84:150 85:162 86:164 87:156 88:168 89:170 90:57 91:96 92:94 93:52 94:86 95:85 96:53 97:85 98:84 99:91 100:122 101:121 102:106 103:137 104:136 105:91 106:119 107:119 108:0 109:0 110:0 111:102 112:126 113:126 114:128 115:149 116:150 117:135 118:155 119:156 120:146 121:164 122:165 123:145 124:160 125:162 126:150 127:165 128:167 129:154 130:167 131:169 132:162 133:174 134:176 135:57 136:94 137:90 138:76 139:108 140:107 141:75 142:106 143:105 144:109 145:137 146:137 147:122 148:150 149:150 150:108 151:134 152:134 153:0 154:0 155:0 156:97 157:121 158:121 159:103 160:124 161:125 162:128 163:148 164:149 165:142 166:160 167:161 168:139 169:154 170:156 171:145 172:160 173:162 174:157 175:170 176:172 177:164 178:177 179:179 180:64 181:99 182:95 183:96 184:127 185:126 186:99 187:130 188:129 189:119 190:147 191:147 192:122 193:150 194:150 195:133 196:159 197:159 198:0 199:0 200:0 201:0 202:0 203:0 204:0 205:0 206:0 207:0 208:0 209:0 210:0 211:0 212:0 213:0 214:0 215:0 216:0 217:0 218:0 219:0 220:0 221:0 222:0 223:0 224:0 225:70 226:105 227:101 228:101 229:132 230:131 231:107 232:135 233:135 234:112 235:140 236:140 237:111 238:139 239:139 240:142 241:168 242:168 243:0 244:0 245:0 246:153 247:174 248:175 249:132 250:153 251:154 252:140 253:158 254:159 255:150 256:168 257:169 258:133 259:148 260:150 261:136 262:151 263:153 264:166 265:179 266:181 267:182 268:195 269:197 270:76 271:107 272:106 273:105 274:133 275:133 276:104 277:131 278:128 279:101 280:127 281:127 282:102 283:129 284:126 285:132 286:156 287:156 288:0 289:0 290:0 291:0 292:0 293:0 294:0 295:0 296:0 297:0 298:0 299:0 300:0 301:0 302:0 303:0 304:0 305:0 306:0 307:0 308:0 309:0 310:0 311:0 312:0 313:0 314:0 315:102 316:123 317:131 318:118 319:139 320:140 321:111 322:134 323:130 324:121 325:143 326:141 327:117 328:140 329:136 330:130 331:152 332:150 333:150 334:172 335:170 336:138 337:159 338:157 339:137 340:158 341:156 342:142 343:163 344:161 345:146 346:167 347:165 348:146 349:166 350:167 351:130 352:148 353:149 354:152 355:170 356:171 357:157 358:175 359:176 360:111 361:128 362:137 363:130 364:150 365:151 366:127 367:148 368:145 369:130 370:151 371:148 372:117 373:138 374:135 375:127 376:148 377:145 378:153 379:174 380:171 381:147 382:168 383:166 384:142 385:163 386:161 387:137 388:158 389:156 390:143 391:164 392:162 393:145 394:165 395:166 396:130 397:150 398:151 399:148 400:168 401:169 402:151 403:171 404:172 405:97 406:116 407:121 408:116 409:137 410:135 411:109 412:130 413:127 414:109 415:130 416:128 417:104 418:125 419:123 420:118 421:139 422:137 423:142 424:163 425:161 426:147 427:168 428:166 429:151 430:172 431:170 432:136 433:156 434:157 435:148 436:168 437:169 438:152 439:172 440:173 441:142 442:162 443:163 444:156 445:175 446:178 447:157 448:176 449:179 450:81 451:99 452:100 453:116 454:134 455:133 456:105 457:126 458:123 459:107 460:128 461:126 462:117 463:138 464:136 465:130 466:151 467:149 468:142 469:163 470:161 471:154 472:175 473:173 474:169 475:190 476:188 477:136 478:156 479:157 480:153 481:173 482:174 483:159 484:179 485:180 486:156 487:176 488:177 489:166 490:185 491:188 492:167 493:186 494:189 495:67 496:82 497:78 498:121 499:140 500:137 501:129 502:147 503:146 504:132 505:150 506:149 507:135 508:153 509:152 510:137 511:155 512:154 513:143 514:161 515:160 516:153 517:171 518:172 519:156 520:174 521:175 522:133 523:151 524:152 525:153 526:171 527:172 528:159 529:176 530:179 531:161 532:178 533:181 534:167 535:184 536:187 537:172 538:189 539:192 540:77 541:91 542:85 543:111 544:128 545:125 546:144 547:162 548:161 549:151 550:167 551:166 552:135 553:153 554:152 555:128 556:144 557:143 558:136 559:154 560:153 561:148 562:163 563:165 564:130 565:148 566:149 567:136 568:151 569:153 570:154 571:172 572:173 573:158 574:173 575:176 576:159 577:176 578:179 579:162 580:177 581:180 582:171 583:188 584:191 585:118 586:131 587:123 588:111 589:126 590:122 591:147 592:164 593:161 594:157 595:171 596:169 597:148 598:165 599:162 600:136 601:150 602:149 603:133 604:149 605:148 606:152 607:166 608:165 609:142 610:158 611:157 612:143 613:156 614:158 615:160 616:175 617:177 618:157 619:170 620:172 621:157 622:172 623:174 624:155 625:168 626:170 627:167 628:182 629:184 630:135 631:146 632:136 633:117 634:128 635:125 636:135 637:149 638:147 639:145 640:158 641:156 642:157 643:171 644:169 645:142 646:155 647:153 648:118 649:132 650:131 651:142 652:154 653:154 654:157 655:171 656:170 657:147 658:159 659:159 660:163 661:176 662:178 663:154 664:166 665:168 666:152 667:165 668:167 669:145 670:157 671:159 672:160 673:173 674:175 675:-1 
-6.793566673677639e-37 0:0 1:0 2:0 3:118 4:139 5:140 6:111 7:134 8:130 9:121 10:143 11:141 12:117 13:140 14:136 15:130 16:152 17:150 18:150 19:172 20:170 21:138 22:159 23:157 24:137 25:158 26:156 27:142 28:163 29:161 30:146 31:167 32:165 33:146 34:166 35:167 36:130 37:148 38:149 39:152 40:170 41:171 42:0 43:0 44:0 45:0 46:0 47:0 48:130 49:150 50:151 51:127 52:148 53:145 54:130 55:151 56:148 57:117 58:138 59:135 60:127 61:148 62:145 63:153 64:174 65:171 66:147 67:168 68:166 69:142 70:163 71:161 72:137 73:158 74:156 75:143 76:164 77:162 78:145 79:165 80:166 81:130 82:150 83:151 84:148 85:168 86:169 87:0 88:0 89:0 90:0 91:0 92:0 93:116 94:137 95:135 96:109 97:130 98:127 99:109 100:130 101:128 102:104 103:125 104:123 105:118 106:139 107:137 108:142 109:163 110:161 111:147 112:168 113:166 114:151 115:172 116:170 117:136 118:156 119:157 120:148 121:168 122:169 123:152 124:172 125:173 126:142 127:162 128:163 129:156 130:175 131:178 132:0 133:0 134:0 135:0 136:0 137:0 138:116 139:134 140:133 141:105 142:126 143:123 144:107 145:128 146:126 147:117 148:138 149:136 150:130 151:151 152:149 153:142 154:163 155:161 156:154 157:175 158:173 159:169 160:190 161:188 162:136 163:156 164:157 165:153 166:173 167:174 168:159 169:179 170:180 171:156 172:176 173:177 174:166 175:185 176:188 177:0 178:0 179:0 180:0 181:0 182:0 183:121 184:140 185:137 186:129 187:147 188:146 189:132 190:150 191:149 192:135 193:153 194:152 195:137 196:155 197:154 198:143 199:161 200:160 201:153 202:171 203:172 204:156 205:174 206:175 207:133 208:151 209:152 210:153 211:171 212:172 213:159 214:176 215:179 216:161 217:178 218:181 219:167 220:184 221:187 222:0 223:0 224:0 225:0 226:0 227:0 228:111 229:128 230:125 231:144 232:162 233:161 234:151 235:167 236:166 237:135 238:153 239:152 240:128 241:144 242:143 243:136 244:154 245:153 246:148 247:163 248:165 249:130 250:148 251:149 252:136 253:151 254:153 255:154 256:172 257:173 258:158 259:173 260:176 261:159 262:176 263:179 264:162 265:177 266:180 267:0 268:0 269:0 270:0 271:0 272:0 273:111 274:126 275:122 276:147 277:164 278:161 279:157 280:171 281:169 282:148 283:165 284:162 285:136 286:150 287:149 288:133 289:149 290:148 291:152 292:166 293:165 294:142 295:158 296:157 297:143 298:156 299:158 300:160 301:175 302:177 303:157 304:170 305:172 306:157 307:172 308:174 309:155 310:168 311:170 312:0 313:0 314:0 315:0 316:0 317:0 318:0 319:0 320:0 321:0 322:0 323:0 324:0 325:0 326:0 327:0 328:0 329:0 330:0 331:0 332:0 333:0 334:0 335:0 336:0 337:0 338:0 339:0 340:0 341:0 342:0 343:0 344:0 345:0 346:0 347:0 348:0 349:0 350:0 351:0 352:0 353:0 354:0 355:0 356:0 357:0 358:0 359:0 360:0 361:0 362:0 363:0 364:0 365:0 366:0 367:0 368:0 369:0 370:0 371:0 372:0 373:0 374:0 375:0 376:0 377:0 378:0 379:0 380:0 381:0 382:0 383:0 384:0 385:0 386:0 387:0 388:0 389:0 390:0 391:0 392:0 393:0 394:0 395:0 396:0 397:0 398:0 399:0 400:0 401:0 402:0 403:0 404:0 405:117 406:124 407:117 408:149 409:156 410:151 411:108 412:118 413:112 414:89 415:98 416:95 417:100 418:110 419:104 420:133 421:142 422:139 423:149 424:158 425:155 426:134 427:143 428:140 429:132 430:141 431:138 432:135 433:143 434:142 435:159 436:167 437:166 438:151 439:159 440:158 441:129 442:137 443:136 444:138 445:146 446:145 447:155 448:163 449:162 450:110 451:115 452:106 453:150 454:157 455:150 456:94 457:101 458:94 459:82 460:88 461:83 462:99 463:106 464:99 465:123 466:129 467:124 468:148 469:154 470:149 471:140 472:146 473:141 474:120 475:126 476:121 477:127 478:132 479:130 480:150 481:155 482:153 483:145 484:150 485:148 486:124 487:129 488:127 489:127 490:132 491:130 492:144 493:149 494:147 495:114 496:117 497:108 498:130 499:133 500:124 501:89 502:92 503:83 504:105 505:108 506:99 507:125 508:128 509:119 510:120 511:123 512:114 513:136 514:138 515:132 516:136 517:138 518:132 519:114 520:116 521:110 522:126 523:128 524:122 525:147 526:149 527:143 528:147 529:148 530:144 531:128 532:129 533:125 534:128 535:129 536:125 537:142 538:143 539:139 540:112 541:113 542:103 543:112 544:113 545:103 546:87 547:88 548:78 549:115 550:116 551:106 552:127 553:128 554:118 555:105 556:106 557:96 558:113 559:114 560:105 561:120 562:121 563:112 564:108 565:109 566:100 567:121 568:122 569:113 570:138 571:139 572:130 573:141 574:141 575:135 576:126 577:126 578:120 579:126 580:126 581:120 582:143 583:143 584:137 585:97 586:100 587:85 588:110 589:110 590:98 591:90 592:88 593:77 594:102 595:100 596:89 597:101 598:99 599:88 600:88 601:86 602:75 603:96 604:94 605:84 606:103 607:101 608:91 609:103 610:101 611:91 612:106 613:104 614:94 615:119 616:116 617:108 618:125 619:122 620:114 621:113 622:110 623:102 624:112 625:109 626:101 627:136 628:133 629:125 630:87 631:90 632:74 633:107 634:106 635:92 636:96 637:93 638:79 639:91 640:88 641:74 642:84 643:81 644:67 645:89 646:86 647:72 648:95 649:91 650:80 651:89 652:85 653:74 654:98 655:94 656:83 657:91 658:87 659:76 660:109 661:104 662:95 663:122 664:117 665:108 666:109 667:104 668:95 669:100 670:95 671:86 672:124 673:119 674:110 675:-1 
-5.302908129135753e-37 0:125 1:128 2:119 3:120 4:123 5:114 6:136 7:138 8:132 9:136 10:138 11:132 12:114 13:116 14:110 15:126 16:128 17:122 18:147 19:149 20:143 21:147 22:148 23:144 24:128 25:129 26:125 27:0 28:0 29:0 30:0 31:0 32:0 33:139 34:140 35:136 36:120 37:124 38:119 39:112 40:116 41:110 42:132 43:137 44:128 45:127 46:128 47:118 48:105 49:106 50:96 51:113 52:114 53:105 54:120 55:121 56:112 57:108 58:109 59:100 60:121 61:122 62:113 63:138 64:139 65:130 66:141 67:141 68:135 69:126 70:126 71:120 72:0 73:0 74:0 75:0 76:0 77:0 78:142 79:142 80:136 81:120 82:120 83:114 84:108 85:109 86:100 87:128 88:129 89:119 90:101 91:99 92:88 93:88 94:86 95:75 96:96 97:94 98:84 99:103 100:101 101:91 102:103 103:101 104:91 105:106 106:104 107:94 108:119 109:116 110:108 111:125 112:122 113:114 114:113 115:110 116:102 117:0 118:0 119:0 120:0 121:0 122:0 123:145 124:142 125:134 126:125 127:123 128:115 129:110 130:109 131:99 132:126 133:126 134:114 135:0 136:0 137:0 138:0 139:0 140:0 141:0 142:0 143:0 144:0 145:0 146:0 147:0 148:0 149:0 150:0 151:0 152:0 153:0 154:0 155:0 156:0 157:0 158:0 159:0 160:0 161:0 162:0 163:0 164:0 165:0 166:0 167:0 168:139 169:134 170:125 171:123 172:118 173:109 174:109 175:107 176:96 177:118 178:117 179:103 180:91 181:84 182:69 183:106 184:99 185:84 186:104 187:97 188:82 189:84 190:76 191:63 192:98 193:90 194:77 195:93 196:85 197:72 198:115 199:109 200:96 201:135 202:129 203:116 204:122 205:116 206:103 207:0 208:0 209:0 210:121 211:115 212:102 213:135 214:129 215:118 216:119 217:113 218:100 219:107 220:104 221:90 222:110 223:107 224:93 225:107 226:95 227:77 228:106 229:94 230:76 231:108 232:96 233:78 234:105 235:95 236:77 237:100 238:90 239:72 240:99 241:92 242:73 243:115 244:109 245:90 246:147 247:141 248:122 249:138 250:132 251:113 252:0 253:0 254:0 255:124 256:120 257:101 258:118 259:114 260:96 261:103 262:99 263:81 264:99 265:94 266:79 267:111 268:105 269:92 270:111 271:96 272:77 273:109 274:95 275:76 276:112 277:98 278:79 279:111 280:100 281:80 282:108 283:97 284:77 285:95 286:86 287:66 288:98 289:91 290:71 291:119 292:112 293:92 294:116 295:111 296:90 297:0 298:0 299:0 300:111 301:108 302:87 303:103 304:98 305:77 306:96 307:92 308:73 309:97 310:92 311:77 312:101 313:95 314:82 315:111 316:96 317:77 318:109 319:95 320:76 321:110 322:96 323:77 324:112 325:98 326:79 327:111 328:100 329:80 330:105 331:94 332:74 333:99 334:90 335:70 336:105 337:96 338:76 339:105 340:98 341:78 342:0 343:0 344:0 345:111 346:106 347:85 348:95 349:88 350:68 351:97 352:91 353:72 354:101 355:96 356:81 357:95 358:89 359:76 360:0 361:0 362:0 363:0 364:0 365:0 366:0 367:0 368:0 369:0 370:0 371:0 372:0 373:0 374:0 375:0 376:0 377:0 378:0 379:0 380:0 381:0 382:0 383:0 384:0 385:0 386:0 387:0 388:0 389:0 390:122 391:113 392:93 393:100 394:91 395:71 396:103 397:96 398:77 399:108 400:101 401:86 402:93 403:87 404:74 405:127 406:113 407:95 408:121 409:107 410:89 411:115 412:101 413:83 414:118 415:104 416:86 417:126 418:112 419:94 420:126 421:112 422:94 423:133 424:119 425:101 426:131 427:117 428:99 429:116 430:104 431:86 432:125 433:113 434:95 435:129 436:117 437:99 438:109 439:97 440:79 441:108 442:98 443:80 444:108 445:101 446:86 447:94 448:89 449:74 450:124 451:112 452:94 453:118 454:106 455:88 456:112 457:100 458:82 459:122 460:108 461:90 462:134 463:122 464:104 465:129 466:115 467:97 468:136 469:122 470:104 471:139 472:125 473:107 474:124 475:110 476:92 477:125 478:111 479:93 480:132 481:118 482:100 483:118 484:104 485:86 486:112 487:102 488:85 489:113 490:106 491:91 492:101 493:98 494:83 495:116 496:106 497:89 498:110 499:100 500:83 501:106 502:96 503:79 504:121 505:108 506:92 507:139 508:129 509:112 510:142 511:129 512:113 513:134 514:121 515:105 516:140 517:127 518:111 519:132 520:119 521:103 522:123 523:110 524:94 525:126 526:113 527:97 528:120 529:107 530:91 531:118 532:108 533:91 534:117 535:114 536:99 537:109 538:110 539:94 540:114 541:107 542:90 543:107 544:98 545:84 546:104 547:96 548:79 549:120 550:111 551:97 552:144 553:136 554:119 555:152 556:143 557:129 558:129 559:121 560:104 561:137 562:126 563:112 564:136 565:126 566:109 567:121 568:110 569:96 570:117 571:107 572:90 573:115 574:104 575:90 576:115 577:108 578:93 579:117 580:117 581:101 582:109 583:115 584:98 585:99 586:99 587:83 588:102 589:99 590:85 591:101 592:98 593:83 594:110 595:107 596:93 597:152 598:149 599:134 600:145 601:139 602:126 603:116 604:111 605:96 606:122 607:116 608:103 609:129 610:124 611:109 612:126 613:120 614:107 615:128 616:123 617:108 618:116 619:110 620:97 621:102 622:101 623:87 624:111 625:116 626:101 627:118 628:128 629:112 630:92 631:94 632:82 633:96 634:98 635:86 636:106 637:108 638:96 639:117 640:119 641:107 642:149 643:151 644:139 645:127 646:127 647:115 648:117 649:117 650:105 651:134 652:134 653:122 654:138 655:138 656:126 657:131 658:131 659:119 660:135 661:135 662:123 663:124 664:124 665:112 666:105 667:109 668:97 669:123 670:133 671:120 672:123 673:138 674:124 675:-1 
-1.276152080020392e-36 0:0 1:0 2:0 3:0 4:0 5:0 6:0 7:0 8:0 9:0 10:0 11:0 12:163 13:178 14:181 15:159 16:176 17:179 18:150 19:167 20:170 21:159 22:176 23:179 24:164 25:181 26:184 27:162 28:177 29:180 30:160 31:173 32:175 33:166 34:178 35:180 36:165 37:177 38:179 39:156 40:168 41:170 42:149 43:159 44:159 45:157 46:170 47:172 48:157 49:172 50:174 51:0 52:0 53:0 54:0 55:0 56:0 57:160 58:172 59:176 60:159 61:174 62:177 63:172 64:190 65:191 66:163 67:181 68:182 69:164 70:179 71:181 72:159 73:172 74:174 75:150 76:163 77:165 78:166 79:178 80:180 81:172 82:182 83:182 84:146 85:156 86:156 87:138 88:146 89:146 90:0 91:0 92:0 93:0 94:0 95:0 96:0 97:0 98:0 99:0 100:0 101:0 102:153 103:165 104:167 105:155 106:168 107:170 108:189 109:204 110:206 111:171 112:187 113:186 114:171 115:184 116:186 117:164 118:176 119:176 120:153 121:165 122:167 123:172 124:182 125:182 126:166 127:174 128:174 129:115 130:121 131:120 132:129 133:134 134:135 135:0 136:0 137:0 138:0 139:0 140:0 141:0 142:0 143:0 144:0 145:0 146:0 147:153 148:163 149:163 150:140 151:152 152:152 153:169 154:181 155:181 156:191 157:204 158:202 159:175 160:187 161:187 162:165 163:176 164:174 165:176 166:184 167:184 168:172 169:178 170:177 171:143 172:148 173:147 174:107 175:112 176:110 177:128 178:133 179:132 180:151 181:159 182:158 183:129 184:137 185:136 186:0 187:0 188:0 189:0 190:0 191:0 192:154 193:162 194:162 195:147 196:155 197:154 198:152 199:163 200:161 201:173 202:184 203:181 204:173 205:182 206:179 207:158 208:167 209:164 210:171 211:176 212:174 213:172 214:177 215:175 216:139 217:142 218:140 219:110 220:111 221:107 222:144 223:145 224:141 225:145 226:150 227:148 228:124 229:129 230:127 231:0 232:0 233:0 234:0 235:0 236:0 237:145 238:150 239:149 240:136 241:141 242:139 243:130 244:137 245:132 246:149 247:156 248:151 249:168 250:174 251:169 252:150 253:156 254:151 255:159 256:160 257:156 258:168 259:170 260:164 261:130 262:130 263:124 264:107 265:107 266:101 267:136 268:133 269:128 270:0 271:0 272:0 273:0 274:0 275:0 276:0 277:0 278:0 279:0 280:0 281:0 282:0 283:0 284:0 285:0 286:0 287:0 288:0 289:0 290:0 291:0 292:0 293:0 294:0 295:0 296:0 297:0 298:0 299:0 300:0 301:0 302:0 303:0 304:0 305:0 306:115 307:112 308:104 309:103 310:101 311:91 312:109 313:104 314:95 315:0 316:0 317:0 318:0 319:0 320:0 321:0 322:0 323:0 324:0 325:0 326:0 327:0 328:0 329:0 330:0 331:0 332:0 333:0 334:0 335:0 336:0 337:0 338:0 339:0 340:0 341:0 342:157 343:156 344:146 345:137 346:135 347:125 348:0 349:0 350:0 351:105 352:98 353:89 354:101 355:95 356:84 357:97 358:91 359:80 360:0 361:0 362:0 363:0 364:0 365:0 366:0 367:0 368:0 369:0 370:0 371:0 372:0 373:0 374:0 375:0 376:0 377:0 378:0 379:0 380:0 381:0 382:0 383:0 384:0 385:0 386:0 387:0 388:0 389:0 390:136 391:132 392:121 393:0 394:0 395:0 396:101 397:92 398:82 399:100 400:92 401:79 402:102 403:93 404:80 405:0 406:0 407:0 408:0 409:0 410:0 411:0 412:0 413:0 414:0 415:0 416:0 417:139 418:134 419:125 420:123 421:118 422:109 423:109 424:107 425:96 426:0 427:0 428:0 429:0 430:0 431:0 432:0 433:0 434:0 435:138 436:132 437:119 438:0 439:0 440:0 441:102 442:93 443:80 444:97 445:88 446:74 447:103 448:92 449:78 450:135 451:129 452:116 453:122 454:116 455:103 456:0 457:0 458:0 459:121 460:115 461:102 462:135 463:129 464:118 465:119 466:113 467:100 468:107 469:104 470:90 471:0 472:0 473:0 474:0 475:0 476:0 477:0 478:0 479:0 480:139 481:132 482:117 483:0 484:0 485:0 486:101 487:92 488:78 489:93 490:84 491:70 492:95 493:86 494:72 495:147 496:141 497:122 498:138 499:132 500:113 501:0 502:0 503:0 504:124 505:120 506:101 507:118 508:114 509:96 510:103 511:99 512:81 513:99 514:94 515:79 516:0 517:0 518:0 519:0 520:0 521:0 522:0 523:0 524:0 525:120 526:114 527:101 528:0 529:0 530:0 531:98 532:90 533:77 534:93 535:85 536:72 537:93 538:86 539:71 540:119 541:112 542:92 543:116 544:111 545:90 546:0 547:0 548:0 549:111 550:108 551:87 552:103 553:98 554:77 555:96 556:92 557:73 558:97 559:92 560:77 561:0 562:0 563:0 564:0 565:0 566:0 567:0 568:0 569:0 570:125 571:119 572:106 573:0 574:0 575:0 576:108 577:102 578:89 579:98 580:92 581:79 582:97 583:92 584:77 585:105 586:96 587:76 588:105 589:98 590:78 591:0 592:0 593:0 594:111 595:106 596:85 597:95 598:88 599:68 600:97 601:91 602:72 603:101 604:96 605:81 606:0 607:0 608:0 609:0 610:0 611:0 612:0 613:0 614:0 615:128 616:125 617:110 618:0 619:0 620:0 621:119 622:116 623:101 624:102 625:99 626:84 627:105 628:102 629:87 630:0 631:0 632:0 633:0 634:0 635:0 636:0 637:0 638:0 639:122 640:113 641:93 642:100 643:91 644:71 645:103 646:96 647:77 648:108 649:101 650:86 651:0 652:0 653:0 654:0 655:0 656:0 657:0 658:0 659:0 660:123 661:120 662:105 663:0 664:0 665:0 666:118 667:115 668:100 669:98 670:98 671:82 672:108 673:108 674:92 675:-1 
-5.873164074493064e-37 0:0 1:0 2:0 3:0 4:0 5:0 6:0 7:0 8:0 9:0 10:0 11:0 12:0 13:0 14:0 15:0 16:0 17:0 18:0 19:0 20:0 21:0 22:0 23:0 24:0 25:0 26:0 27:0 28:0 29:0 30:0 31:0 32:0 33:0 34:0 35:0 36:149 37:161 38:161 39:145 40:155 41:155 42:137 43:149 44:149 45:0 46:0 47:0 48:160 49:172 50:176 51:159 52:174 53:177 54:172 55:190 56:191 57:163 58:181 59:182 60:164 61:179 62:181 63:159 64:172 65:174 66:150 67:163 68:165 69:166 70:178 71:180 72:172 73:182 74:182 75:146 76:156 77:156 78:0 79:0 80:0 81:158 82:168 83:168 84:151 85:159 86:158 87:132 88:143 89:141 90:0 91:0 92:0 93:153 94:165 95:167 96:155 97:168 98:170 99:189 100:204 101:206 102:171 103:187 104:186 105:171 106:184 107:186 108:164 109:176 110:176 111:153 112:165 113:167 114:172 115:182 116:182 117:166 118:174 119:174 120:115 121:121 122:120 123:0 124:0 125:0 126:166 127:172 128:171 129:157 130:163 131:162 132:134 133:143 134:140 135:0 136:0 137:0 138:153 139:163 140:163 141:140 142:152 143:152 144:169 145:181 146:181 147:191 148:204 149:202 150:175 151:187 152:187 153:165 154:176 155:174 156:176 157:184 158:184 159:172 160:178 161:177 162:143 163:148 164:147 165:107 166:112 167:110 168:0 169:0 170:0 171:174 172:179 173:177 174:166 175:171 176:169 177:136 178:142 179:137 180:0 181:0 182:0 183:154 184:162 185:162 186:147 187:155 188:154 189:152 190:163 191:161 192:173 193:184 194:181 195:173 196:182 197:179 198:158 199:167 200:164 201:171 202:176 203:174 204:172 205:177 206:175 207:139 208:142 209:140 210:110 211:111 212:107 213:0 214:0 215:0 216:151 217:152 218:148 219:152 220:153 221:149 222:130 223:134 224:128 225:0 226:0 227:0 228:145 229:150 230:149 231:136 232:141 233:139 234:130 235:137 236:132 237:149 238:156 239:151 240:168 241:174 242:169 243:150 244:156 245:151 246:159 247:160 248:156 249:168 250:170 251:164 252:130 253:130 254:124 255:107 256:107 257:101 258:0 259:0 260:0 261:117 262:115 263:107 264:141 265:142 266:133 267:137 268:138 269:129 270:0 271:0 272:0 273:0 274:0 275:0 276:0 277:0 278:0 279:0 280:0 281:0 282:0 283:0 284:0 285:0 286:0 287:0 288:0 289:0 290:0 291:0 292:0 293:0 294:0 295:0 296:0 297:115 298:112 299:104 300:103 301:101 302:91 303:0 304:0 305:0 306:96 307:91 308:82 309:140 310:138 311:128 312:142 313:140 314:129 315:0 316:0 317:0 318:0 319:0 320:0 321:0 322:0 323:0 324:0 325:0 326:0 327:0 328:0 329:0 330:0 331:0 332:0 333:157 334:156 335:146 336:137 337:135 338:125 339:0 340:0 341:0 342:105 343:98 344:89 345:101 346:95 347:84 348:0 349:0 350:0 351:97 352:91 353:80 354:129 355:123 356:112 357:124 358:118 359:105 360:0 361:0 362:0 363:0 364:0 365:0 366:0 367:0 368:0 369:0 370:0 371:0 372:0 373:0 374:0 375:0 376:0 377:0 378:0 379:0 380:0 381:136 382:132 383:121 384:0 385:0 386:0 387:101 388:92 389:82 390:100 391:92 392:79 393:0 394:0 395:0 396:102 397:94 398:81 399:108 400:99 401:86 402:97 403:90 404:75 405:0 406:0 407:0 408:139 409:134 410:125 411:123 412:118 413:109 414:109 415:107 416:96 417:0 418:0 419:0 420:0 421:0 422:0 423:0 424:0 425:0 426:138 427:132 428:119 429:0 430:0 431:0 432:102 433:93 434:80 435:97 436:88 437:74 438:0 439:0 440:0 441:101 442:92 443:78 444:102 445:91 446:77 447:94 448:86 449:69 450:121 451:115 452:102 453:135 454:129 455:118 456:119 457:113 458:100 459:107 460:104 461:90 462:0 463:0 464:0 465:0 466:0 467:0 468:0 469:0 470:0 471:139 472:132 473:117 474:0 475:0 476:0 477:101 478:92 479:78 480:93 481:84 482:70 483:0 484:0 485:0 486:100 487:91 488:77 489:107 490:99 491:82 492:108 493:100 494:83 495:124 496:120 497:101 498:118 499:114 500:96 501:103 502:99 503:81 504:99 505:94 506:79 507:0 508:0 509:0 510:0 511:0 512:0 513:0 514:0 515:0 516:120 517:114 518:101 519:0 520:0 521:0 522:98 523:90 524:77 525:93 526:85 527:72 528:0 529:0 530:0 531:99 532:92 533:77 534:103 535:96 536:81 537:102 538:95 539:80 540:111 541:108 542:87 543:103 544:98 545:77 546:96 547:92 548:73 549:97 550:92 551:77 552:0 553:0 554:0 555:0 556:0 557:0 558:0 559:0 560:0 561:125 562:119 563:106 564:0 565:0 566:0 567:108 568:102 569:89 570:98 571:92 572:79 573:0 574:0 575:0 576:93 577:90 578:75 579:96 580:91 581:76 582:96 583:93 584:78 585:111 586:106 587:85 588:95 589:88 590:68 591:97 592:91 593:72 594:101 595:96 596:81 597:0 598:0 599:0 600:0 601:0 602:0 603:0 604:0 605:0 606:128 607:125 608:110 609:0 610:0 611:0 612:119 613:116 614:101 615:102 616:99 617:84 618:0 619:0 620:0 621:96 622:96 623:80 624:93 625:90 626:75 627:93 628:93 629:77 630:0 631:0 632:0 633:0 634:0 635:0 636:0 637:0 638:0 639:0 640:0 641:0 642:0 643:0 644:0 645:0 646:0 647:0 648:0 649:0 650:0 651:0 652:0 653:0 654:0 655:0 656:0 657:0 658:0 659:0 660:0 661:0 662:0 663:0 664:0 665:0 666:104 667:105 668:89 669:98 670:99 671:83 672:91 673:92 674:76 675:-1 
-5.593135416012821e-39 0:140 1:159 2:162 3:127 4:144 5:147 6:157 7:172 8:174 9:183 10:198 11:200 12:178 13:191 14:193 15:166 16:179 17:181 18:171 19:183 20:183 21:156 22:168 23:168 24:164 25:178 26:177 27:177 28:191 29:190 30:172 31:186 32:185 33:174 34:190 35:189 36:180 37:197 38:194 39:172 40:189 41:186 42:155 43:169 44:168 45:158 46:175 47:178 48:150 49:167 50:170 51:163 52:178 53:180 54:173 55:186 56:188 57:165 58:177 59:179 60:157 61:169 62:171 63:160 64:172 65:172 66:149 67:161 68:161 69:151 70:163 71:163 72:156 73:170 74:169 75:155 76:169 77:168 78:162 79:178 80:177 81:173 82:190 83:187 84:170 85:187 86:184 87:175 88:189 89:187 90:0 91:0 92:0 93:0 94:0 95:0 96:0 97:0 98:0 99:0 100:0 101:0 102:0 103:0 104:0 105:0 106:0 107:0 108:0 109:0 110:0 111:0 112:0 113:0 114:0 115:0 116:0 117:0 118:0 119:0 120:141 121:153 122:153 123:152 124:166 125:165 126:160 127:174 128:172 129:164 130:178 131:176 132:186 133:200 134:198 135:164 136:179 137:181 138:159 139:172 140:174 141:150 142:163 143:165 144:166 145:178 146:180 147:172 148:182 149:182 150:146 151:156 152:156 153:0 154:0 155:0 156:158 157:168 158:168 159:151 160:159 161:158 162:0 163:0 164:0 165:144 166:155 167:153 168:153 169:166 170:164 171:155 172:168 173:166 174:163 175:176 176:174 177:170 178:184 179:180 180:171 181:184 182:186 183:164 184:176 185:176 186:153 187:165 188:167 189:172 190:182 191:182 192:166 193:174 194:174 195:115 196:121 197:120 198:0 199:0 200:0 201:166 202:172 203:171 204:157 205:163 206:162 207:0 208:0 209:0 210:152 211:160 212:159 213:161 214:172 215:169 216:157 217:168 218:166 219:166 220:177 221:174 222:162 223:174 224:168 225:175 226:187 227:187 228:165 229:176 230:174 231:176 232:184 233:184 234:172 235:178 236:177 237:143 238:148 239:147 240:107 241:112 242:110 243:0 244:0 245:0 246:174 247:179 248:177 249:166 250:171 251:169 252:0 253:0 254:0 255:135 256:140 257:138 258:146 259:153 260:148 261:162 262:169 263:166 264:168 265:178 266:172 267:175 268:186 269:178 270:173 271:182 272:179 273:158 274:167 275:164 276:171 277:176 278:174 279:172 280:177 281:175 282:139 283:142 284:140 285:110 286:111 287:107 288:0 289:0 290:0 291:151 292:152 293:148 294:152 295:153 296:149 297:0 298:0 299:0 300:117 301:121 302:115 303:127 304:134 305:127 306:139 307:146 308:139 309:138 310:146 311:139 312:161 313:170 314:160 315:168 316:174 317:169 318:150 319:156 320:151 321:159 322:160 323:156 324:168 325:170 326:164 327:130 328:130 329:124 330:107 331:107 332:101 333:0 334:0 335:0 336:117 337:115 338:107 339:141 340:142 341:133 342:0 343:0 344:0 345:112 346:113 347:104 348:118 349:121 350:112 351:129 352:132 353:123 354:141 355:146 356:137 357:138 358:144 359:133 360:0 361:0 362:0 363:0 364:0 365:0 366:0 367:0 368:0 369:0 370:0 371:0 372:115 373:112 374:104 375:103 376:101 377:91 378:0 379:0 380:0 381:96 382:91 383:82 384:140 385:138 386:128 387:0 388:0 389:0 390:115 391:115 392:103 393:111 394:111 395:99 396:120 397:122 398:110 399:168 400:170 401:158 402:132 403:136 404:125 405:0 406:0 407:0 408:157 409:156 410:146 411:137 412:135 413:125 414:0 415:0 416:0 417:105 418:98 419:89 420:101 421:95 422:84 423:0 424:0 425:0 426:97 427:91 428:80 429:129 430:123 431:112 432:0 433:0 434:0 435:108 436:105 437:91 438:96 439:93 440:79 441:98 442:97 443:83 444:169 445:168 446:154 447:146 448:146 449:134 450:0 451:0 452:0 453:0 454:0 455:0 456:136 457:132 458:121 459:0 460:0 461:0 462:101 463:92 464:82 465:100 466:92 467:79 468:0 469:0 470:0 471:102 472:94 473:81 474:108 475:99 476:86 477:0 478:0 479:0 480:99 481:92 482:77 483:91 484:86 485:71 486:92 487:87 488:72 489:147 490:144 491:129 492:141 493:140 494:126 495:0 496:0 497:0 498:0 499:0 500:0 501:138 502:132 503:119 504:0 505:0 506:0 507:102 508:93 509:80 510:97 511:88 512:74 513:0 514:0 515:0 516:101 517:92 518:78 519:102 520:91 521:77 522:0 523:0 524:0 525:93 526:85 527:68 528:95 529:88 530:71 531:103 532:96 533:79 534:117 535:112 536:97 537:115 538:112 539:98 540:0 541:0 542:0 543:0 544:0 545:0 546:139 547:132 548:117 549:0 550:0 551:0 552:101 553:92 554:78 555:93 556:84 557:70 558:0 559:0 560:0 561:100 562:91 563:77 564:107 565:99 566:82 567:0 568:0 569:0 570:89 571:81 572:64 573:91 574:84 575:67 576:108 577:101 578:84 579:89 580:84 581:69 582:96 583:93 584:78 585:0 586:0 587:0 588:0 589:0 590:0 591:120 592:114 593:101 594:0 595:0 596:0 597:98 598:90 599:77 600:93 601:85 602:72 603:0 604:0 605:0 606:99 607:92 608:77 609:103 610:96 611:81 612:0 613:0 614:0 615:97 616:90 617:75 618:91 619:86 620:71 621:93 622:88 623:73 624:97 625:92 626:77 627:88 628:85 629:70 630:0 631:0 632:0 633:0 634:0 635:0 636:125 637:119 638:106 639:0 640:0 641:0 642:108 643:102 644:89 645:98 646:92 647:79 648:0 649:0 650:0 651:93 652:90 653:75 654:96 655:91 656:76 657:0 658:0 659:0 660:93 661:90 662:75 663:88 664:85 665:70 666:90 667:87 668:72 669:97 670:94 671:79 672:80 673:78 674:60 675:-1 
