svm_type c_svc
kernel_type polynomial
degree 5
gamma 0.00333333
coef0 0
nr_class 2
total_sv 16
rho 0.997672
label 1 -1
nr_sv 4 12
SV
2.565096345502572e-18 0:33 1:81 2:82 3:43 4:91 5:92 6:43 7:91 8:93 9:33 10:81 11:82 12:40 13:91 14:87 15:40 16:92 17:85 18:41 19:93 20:86 21:44 22:96 23:89 24:42 25:94 26:87 27:35 28:87 29:80 30:28 31:78 32:76 33:29 34:79 35:77 36:37 37:87 38:87 39:37 40:87 41:85 42:45 43:95 44:91 45:38 46:88 47:84 48:29 49:79 50:75 51:34 52:84 53:80 54:27 55:77 56:73 57:20 58:70 59:66 60:24 61:74 62:72 63:27 64:77 65:75 66:32 67:82 68:80 69:24 70:74 71:72 72:39 73:89 74:85 75:34 76:84 77:80 78:27 79:77 80:73 81:31 82:81 83:77 84:23 85:73 86:69 87:19 88:69 89:65 90:26 91:76 92:74 93:29 94:79 95:77 96:30 97:80 98:78 99:18 100:68 101:66 102:40 103:90 104:86 105:37 106:87 107:83 108:30 109:80 110:76 111:32 112:82 113:78 114:25 115:75 116:71 117:26 118:76 119:72 120:36 121:86 122:84 123:34 124:84 125:82 126:35 127:85 128:83 129:29 130:79 131:77 132:43 133:93 134:89 135:39 136:89 137:85 138:29 139:79 140:75 141:30 142:80 143:76 144:26 145:76 146:72 147:32 148:82 149:78 150:46 151:95 152:93 153:37 154:86 155:84 156:41 157:90 158:88 159:47 160:96 161:94 162:41 163:91 164:87 165:33 166:83 167:79 168:19 169:69 170:65 171:21 172:71 173:67 174:22 175:72 176:68 177:31 178:81 179:77 180:43 181:92 182:90 183:32 184:81 185:79 186:40 187:89 188:87 189:53 190:102 191:100 192:36 193:86 194:82 195:29 196:79 197:75 198:16 199:66 200:62 201:20 202:70 203:66 204:24 205:74 206:70 207:36 208:86 209:82 210:31 211:80 212:78 213:24 214:73 215:71 216:35 217:84 218:82 219:43 220:92 221:90 222:31 223:81 224:77 225:29 226:79 227:75 228:22 229:72 230:68 231:28 232:78 233:74 234:32 235:82 236:78 237:45 238:95 239:91 240:22 241:71 242:69 243:19 244:68 245:66 246:31 247:80 248:78 249:32 250:81 251:79 252:24 253:74 254:70 255:27 256:77 257:73 258:26 259:76 260:72 261:33 262:83 263:79 264:36 265:86 266:82 267:49 268:99 269:95 270:34 271:81 272:79 273:24 274:71 275:69 276:32 277:79 278:77 279:29 280:76 281:74 282:13 283:63 284:59 285:28 286:78 287:74 288:19 289:69 290:65 291:37 292:87 293:83 294:45 295:95 296:91 297:48 298:98 299:94 300:-1 
1.057584243241919e-18 0:23 1:70 2:67 3:37 4:82 5:79 6:51 7:96 8:93 9:36 10:81 11:78 12:28 13:71 14:68 15:33 16:76 17:73 18:42 19:85 20:82 21:57 22:100 23:97 24:55 25:97 26:96 27:60 28:104 29:103 30:11 31:64 32:61 33:36 34:86 35:84 36:33 37:83 38:81 39:27 40:77 41:75 42:26 43:75 44:73 45:32 46:79 47:77 48:39 49:86 50:84 51:42 52:86 53:85 54:36 55:83 56:81 57:44 58:93 59:91 60:4 61:59 62:56 63:31 64:86 65:83 66:28 67:83 68:80 69:25 70:78 71:75 72:24 73:77 74:74 75:33 76:83 77:81 78:40 79:89 80:87 81:41 82:88 83:86 84:33 85:82 86:80 87:34 88:84 89:82 90:7 91:62 92:59 93:28 94:83 95:80 96:25 97:80 98:77 99:24 100:77 101:74 102:23 103:76 104:73 105:31 106:81 107:79 108:37 109:87 110:85 111:36 112:85 113:83 114:31 115:80 116:78 117:27 118:77 119:75 120:14 121:69 122:66 123:28 124:83 125:80 126:29 127:84 128:81 129:29 130:82 131:79 132:26 133:79 134:76 135:28 136:78 137:76 138:32 139:82 140:80 141:36 142:85 143:83 144:33 145:83 146:81 147:32 148:82 149:80 150:18 151:73 152:70 153:32 154:87 155:84 156:37 157:92 158:89 159:39 160:92 161:89 162:31 163:84 164:81 165:27 166:77 167:75 168:30 169:80 170:78 171:37 172:86 173:84 174:41 175:91 176:89 177:41 178:91 179:89 180:24 181:79 182:76 183:30 184:85 185:82 186:36 187:91 188:88 189:39 190:92 191:89 192:31 193:84 194:81 195:25 196:75 197:73 198:27 199:77 200:75 201:35 202:84 203:82 204:40 205:90 206:88 207:39 208:89 209:87 210:28 211:85 212:82 213:25 214:82 215:79 216:30 217:87 218:84 219:34 220:89 221:86 222:31 223:84 224:81 225:30 226:80 227:78 228:32 229:82 230:80 231:36 232:85 233:83 234:35 235:85 236:83 237:34 238:84 239:82 240:29 241:86 242:83 243:28 244:85 245:82 246:32 247:89 248:86 249:35 250:90 251:87 252:35 253:90 254:87 255:39 256:92 257:89 258:43 259:93 260:91 261:42 262:91 263:89 264:37 265:87 266:85 267:36 268:89 269:86 270:28 271:85 272:82 273:20 274:77 275:74 276:26 277:83 278:80 279:38 280:93 281:90 282:38 283:93 284:90 285:35 286:88 287:85 288:41 289:94 290:91 291:48 292:98 293:96 294:40 295:90 296:88 297:38 298:91 299:88 300:-1 
3.052997903955802e-18 0:34 1:81 2:78 3:32 4:79 5:76 6:35 7:82 8:79 9:39 10:86 11:83 12:40 13:87 14:84 15:40 16:85 17:82 18:38 19:83 20:80 21:45 22:90 23:87 24:36 25:81 26:78 27:28 28:73 29:70 30:30 31:77 32:74 33:26 34:73 35:70 36:30 37:77 38:74 39:38 40:85 41:82 42:43 43:90 44:87 45:47 46:92 47:89 48:48 49:93 50:90 51:47 52:92 53:89 54:40 55:85 56:82 57:33 58:78 59:75 60:41 61:86 62:83 63:31 64:76 65:73 66:32 67:77 68:74 69:35 70:82 71:79 72:36 73:83 74:80 75:35 76:82 77:79 78:37 79:84 80:81 81:52 82:99 83:96 84:39 85:86 86:83 87:32 88:79 89:76 90:42 91:87 92:84 93:38 94:83 95:80 96:39 97:84 98:81 99:36 100:83 101:80 102:33 103:80 104:77 105:33 106:80 107:77 108:33 109:83 110:79 111:45 112:95 113:91 114:36 115:86 116:82 117:33 118:83 119:79 120:46 121:90 122:84 123:46 124:92 125:86 126:45 127:91 128:85 129:38 130:86 131:80 132:32 133:80 134:74 135:29 136:80 137:73 138:32 139:83 140:76 141:42 142:93 143:86 144:37 145:89 146:82 147:38 148:90 149:83 150:48 151:92 152:86 153:48 154:94 155:88 156:47 157:93 158:87 159:40 160:88 161:82 162:32 163:83 164:76 165:30 166:81 167:74 168:30 169:82 170:75 171:41 172:93 173:86 174:39 175:91 176:84 177:41 178:93 179:86 180:49 181:93 182:87 183:44 184:90 185:84 186:42 187:88 188:82 189:39 190:87 191:81 192:37 193:88 194:81 195:33 196:84 197:77 198:29 199:81 200:74 201:34 202:86 203:79 204:30 205:84 206:77 207:31 208:85 209:78 210:49 211:90 212:85 213:39 214:83 215:77 216:35 217:81 218:75 219:37 220:85 221:79 222:39 223:90 224:83 225:34 226:86 227:79 228:26 229:80 230:73 231:23 232:77 233:70 234:20 235:74 236:67 237:19 238:73 239:66 240:44 241:85 242:80 243:35 244:79 245:73 246:30 247:76 248:70 249:33 250:81 251:75 252:37 253:88 254:81 255:33 256:85 257:78 258:24 259:78 260:71 261:21 262:75 263:68 264:14 265:71 266:63 267:14 268:68 269:61 270:38 271:82 272:76 273:31 274:77 275:71 276:27 277:73 278:67 279:27 280:78 281:71 282:32 283:84 284:77 285:31 286:83 287:76 288:23 289:77 290:70 291:26 292:80 293:73 294:20 295:74 296:67 297:16 298:70 299:63 300:-1 
3.691361014670619e-22 0:52 1:97 2:100 3:53 4:98 5:101 6:51 7:96 8:99 9:49 10:93 11:94 12:47 13:91 14:92 15:44 16:88 17:89 18:44 19:88 20:89 21:58 22:102 23:103 24:63 25:107 26:108 27:40 28:84 29:85 30:56 31:99 32:102 33:51 34:94 35:97 36:44 37:87 38:90 39:45 40:88 41:91 42:39 43:83 44:84 45:43 46:87 47:88 48:54 49:98 50:99 51:65 52:109 53:110 54:58 55:102 56:103 57:38 58:82 59:83 60:50 61:93 62:96 63:42 64:85 65:88 66:40 67:85 68:88 69:55 70:100 71:103 72:49 73:93 74:94 75:50 76:94 77:95 78:64 79:108 80:109 81:71 82:115 83:116 84:58 85:102 86:103 87:47 88:91 89:92 90:37 91:80 92:83 93:40 94:83 95:86 96:52 97:97 98:100 99:80 100:125 101:128 102:69 103:113 104:114 105:58 106:102 107:103 108:62 109:106 110:107 111:65 112:109 113:110 114:56 115:100 116:101 117:56 118:100 119:101 120:31 121:75 122:76 123:53 124:97 125:98 126:68 127:114 128:115 129:89 130:135 131:136 132:71 133:115 134:116 135:59 136:103 137:104 138:58 139:102 140:103 141:55 142:99 143:100 144:46 145:90 146:91 147:51 148:95 149:96 150:40 151:84 152:85 153:70 154:114 155:115 156:70 157:116 158:117 159:74 160:120 161:121 162:61 163:105 164:106 165:61 166:105 167:106 168:64 169:108 170:109 171:57 172:101 173:102 174:45 175:89 176:90 177:46 178:90 179:91 180:54 181:98 182:99 183:73 184:117 185:118 186:58 187:104 188:105 189:57 190:103 191:104 192:56 193:100 194:101 195:65 196:109 197:110 198:68 199:112 200:113 201:64 202:108 203:109 204:59 205:103 206:104 207:52 208:96 209:97 210:255 211:255 212:255 213:255 214:255 215:255 216:255 217:255 218:255 219:255 220:255 221:255 222:255 223:255 224:255 225:255 226:255 227:255 228:255 229:255 230:255 231:255 232:255 233:255 234:255 235:255 236:255 237:255 238:255 239:255 240:70 241:114 242:113 243:61 244:105 245:104 246:48 247:95 248:93 249:53 250:100 251:98 252:57 253:103 254:104 255:68 256:114 257:115 258:39 259:85 260:86 261:51 262:97 263:98 264:61 265:107 266:108 267:255 268:255 269:255 270:73 271:117 272:116 273:60 274:107 275:105 276:42 277:89 278:87 279:41 280:88 281:86 282:44 283:90 284:91 285:58 286:104 287:105 288:39 289:85 290:86 291:57 292:103 293:104 294:70 295:116 296:117 297:255 298:255 299:255 300:-1 
-1.441907108369461e-18 0:0 1:0 2:0 3:0 4:0 5:0 6:0 7:0 8:0 9:0 10:0 11:0 12:0 13:0 14:0 15:0 16:0 17:0 18:0 19:0 20:0 21:0 22:0 23:0 24:0 25:0 26:0 27:0 28:0 29:0 30:0 31:0 32:0 33:48 34:18 35:1 36:47 37:17 38:0 39:48 40:18 41:1 42:48 43:18 44:1 45:49 46:19 47:2 48:50 49:20 50:3 51:51 52:19 53:0 54:51 55:19 56:0 57:0 58:0 59:0 60:0 61:0 62:0 63:48 64:18 65:1 66:47 67:17 68:0 69:48 70:18 71:1 72:48 73:18 74:1 75:49 76:19 77:2 78:50 79:20 80:3 81:51 82:19 83:0 84:51 85:19 86:0 87:0 88:0 89:0 90:0 91:0 92:0 93:48 94:18 95:1 96:48 97:18 98:1 99:48 100:18 101:1 102:48 103:18 104:1 105:48 106:18 107:1 108:48 109:18 110:1 111:47 112:17 113:0 114:47 115:17 116:0 117:0 118:0 119:0 120:0 121:0 122:0 123:48 124:18 125:1 126:48 127:18 128:1 129:48 130:18 131:1 132:48 133:18 134:1 135:48 136:18 137:1 138:48 139:18 140:1 141:48 142:18 143:0 144:48 145:18 146:0 147:0 148:0 149:0 150:0 151:0 152:0 153:48 154:18 155:1 156:48 157:18 158:1 159:48 160:18 161:1 162:48 163:18 164:1 165:48 166:18 167:1 168:48 169:18 170:1 171:48 172:18 173:0 174:48 175:18 176:0 177:0 178:0 179:0 180:0 181:0 182:0 183:48 184:18 185:1 186:48 187:18 188:1 189:48 190:18 191:1 192:48 193:18 194:1 195:48 196:18 197:1 198:48 199:18 200:1 201:48 202:18 203:0 204:48 205:18 206:0 207:0 208:0 209:0 210:0 211:0 212:0 213:48 214:18 215:1 216:48 217:18 218:1 219:48 220:18 221:1 222:48 223:18 224:1 225:48 226:18 227:1 228:48 229:18 230:1 231:48 232:18 233:0 234:48 235:18 236:0 237:0 238:0 239:0 240:0 241:0 242:0 243:0 244:0 245:0 246:0 247:0 248:0 249:0 250:0 251:0 252:0 253:0 254:0 255:0 256:0 257:0 258:0 259:0 260:0 261:0 262:0 263:0 264:0 265:0 266:0 267:0 268:0 269:0 270:0 271:0 272:0 273:48 274:18 275:1 276:48 277:18 278:1 279:48 280:18 281:1 282:48 283:18 284:1 285:48 286:18 287:1 288:48 289:18 290:1 291:49 292:19 293:0 294:49 295:19 296:0 297:49 298:19 299:0 300:-1 
-4.479242917281599e-18 0:0 1:0 2:0 3:48 4:18 5:1 6:47 7:17 8:0 9:48 10:18 11:1 12:48 13:18 14:1 15:49 16:19 17:2 18:50 19:20 20:3 21:51 22:19 23:0 24:51 25:19 26:0 27:0 28:0 29:0 30:0 31:0 32:0 33:48 34:18 35:1 36:48 37:18 38:1 39:48 40:18 41:1 42:48 43:18 44:1 45:48 46:18 47:1 48:48 49:18 50:1 51:47 52:17 53:0 54:47 55:17 56:0 57:0 58:0 59:0 60:0 61:0 62:0 63:48 64:18 65:1 66:48 67:18 68:1 69:48 70:18 71:1 72:48 73:18 74:1 75:48 76:18 77:1 78:48 79:18 80:1 81:48 82:18 83:0 84:48 85:18 86:0 87:0 88:0 89:0 90:0 91:0 92:0 93:48 94:18 95:1 96:48 97:18 98:1 99:48 100:18 101:1 102:48 103:18 104:1 105:48 106:18 107:1 108:48 109:18 110:1 111:48 112:18 113:0 114:48 115:18 116:0 117:0 118:0 119:0 120:0 121:0 122:0 123:48 124:18 125:1 126:48 127:18 128:1 129:48 130:18 131:1 132:48 133:18 134:1 135:48 136:18 137:1 138:48 139:18 140:1 141:48 142:18 143:0 144:48 145:18 146:0 147:0 148:0 149:0 150:0 151:0 152:0 153:48 154:18 155:1 156:48 157:18 158:1 159:48 160:18 161:1 162:48 163:18 164:1 165:48 166:18 167:1 168:48 169:18 170:1 171:48 172:18 173:0 174:48 175:18 176:0 177:0 178:0 179:0 180:0 181:0 182:0 183:0 184:0 185:0 186:0 187:0 188:0 189:0 190:0 191:0 192:0 193:0 194:0 195:0 196:0 197:0 198:0 199:0 200:0 201:0 202:0 203:0 204:0 205:0 206:0 207:0 208:0 209:0 210:0 211:0 212:0 213:48 214:18 215:1 216:48 217:18 218:1 219:48 220:18 221:1 222:48 223:18 224:1 225:48 226:18 227:1 228:48 229:18 230:1 231:49 232:19 233:0 234:49 235:19 236:0 237:49 238:19 239:0 240:0 241:0 242:0 243:0 244:0 245:0 246:0 247:0 248:0 249:0 250:0 251:0 252:0 253:0 254:0 255:0 256:0 257:0 258:0 259:0 260:0 261:0 262:0 263:0 264:0 265:0 266:0 267:0 268:0 269:0 270:48 271:18 272:1 273:48 274:18 275:1 276:48 277:18 278:1 279:48 280:18 281:1 282:48 283:18 284:1 285:48 286:18 287:1 288:48 289:18 290:1 291:48 292:18 293:0 294:48 295:18 296:0 297:48 298:18 299:0 300:-1 
-8.095056962347007e-20 0:88 1:92 2:97 3:81 4:85 5:90 6:72 7:76 8:81 9:70 10:74 11:79 12:71 13:75 14:80 15:69 16:73 17:78 18:70 19:73 20:81 21:69 22:72 23:80 24:71 25:75 26:80 27:74 28:79 29:82 30:89 31:93 32:98 33:82 34:86 35:91 36:73 37:77 38:82 39:71 40:75 41:80 42:72 43:76 44:81 45:70 46:74 47:79 48:70 49:73 50:81 51:69 52:72 53:80 54:71 55:75 56:80 57:74 58:79 59:82 60:88 61:92 62:97 63:81 64:85 65:90 66:72 67:76 68:81 69:70 70:74 71:79 72:71 73:75 74:80 75:69 76:73 77:78 78:70 79:73 80:81 81:69 82:72 83:80 84:71 85:75 86:80 87:74 88:79 89:82 90:87 91:91 92:96 93:80 94:84 95:89 96:71 97:75 98:80 99:69 100:73 101:78 102:69 103:73 104:78 105:68 106:72 107:77 108:71 109:74 110:82 111:70 112:73 113:81 114:71 115:75 116:80 117:74 118:79 119:82 120:89 121:93 122:98 123:82 124:86 125:91 126:73 127:77 128:82 129:71 130:75 131:80 132:71 133:75 134:80 135:70 136:74 137:79 138:72 139:75 140:83 141:70 142:73 143:81 144:71 145:75 146:80 147:74 148:79 149:82 150:92 151:96 152:101 153:85 154:89 155:94 156:76 157:80 158:85 159:74 160:78 161:83 162:0 163:0 164:0 165:0 166:0 167:0 168:0 169:0 170:0 171:0 172:0 173:0 174:0 175:0 176:0 177:0 178:0 179:0 180:88 181:92 182:97 183:80 184:84 185:89 186:71 187:75 188:80 189:68 190:72 191:77 192:0 193:0 194:0 195:67 196:71 197:76 198:67 199:70 200:78 201:70 202:73 203:81 204:68 205:72 206:77 207:69 208:74 209:77 210:92 211:96 212:101 213:84 214:88 215:93 216:76 217:80 218:85 219:74 220:78 221:83 222:0 223:0 224:0 225:74 226:78 227:83 228:72 229:75 230:83 231:76 232:79 233:87 234:75 235:79 236:84 237:76 238:81 239:84 240:93 241:97 242:102 243:86 244:90 245:95 246:78 247:82 248:87 249:78 250:82 251:87 252:0 253:0 254:0 255:80 256:84 257:89 258:81 259:84 260:92 261:84 262:87 263:95 264:83 265:87 266:92 267:84 268:89 269:92 270:91 271:95 272:100 273:84 274:88 275:93 276:76 277:80 278:85 279:76 280:80 281:85 282:0 283:0 284:0 285:79 286:83 287:88 288:0 289:0 290:0 291:0 292:0 293:0 294:0 295:0 296:0 297:0 298:0 299:0 300:-1 
-2.116448161963302e-19 0:69 1:73 2:78 3:82 4:86 5:91 6:89 7:93 8:98 9:82 10:86 11:91 12:73 13:77 14:82 15:71 16:75 17:80 18:71 19:75 20:80 21:70 22:74 23:79 24:72 25:75 26:83 27:71 28:74 29:82 30:68 31:72 32:77 33:81 34:85 35:90 36:88 37:92 38:97 39:81 40:85 41:90 42:72 43:76 44:81 45:70 46:74 47:79 48:70 49:74 50:79 51:69 52:73 53:78 54:71 55:74 56:82 57:70 58:73 59:81 60:68 61:72 62:77 63:81 64:85 65:90 66:0 67:0 68:0 69:0 70:0 71:0 72:0 73:0 74:0 75:0 76:0 77:0 78:0 79:0 80:0 81:0 82:0 83:0 84:0 85:0 86:0 87:0 88:0 89:0 90:69 91:73 92:78 93:82 94:86 95:91 96:0 97:0 98:0 99:82 100:86 101:91 102:73 103:77 104:82 105:71 106:75 107:80 108:72 109:76 110:81 111:70 112:74 113:79 114:70 115:73 116:81 117:69 118:72 119:80 120:68 121:72 122:77 123:81 124:85 125:90 126:0 127:0 128:0 129:81 130:85 131:90 132:72 133:76 134:81 135:70 136:74 137:79 138:71 139:75 140:80 141:69 142:73 143:78 144:70 145:73 146:81 147:69 148:72 149:80 150:67 151:71 152:76 153:80 154:84 155:89 156:0 157:0 158:0 159:80 160:84 161:89 162:71 163:75 164:80 165:69 166:73 167:78 168:69 169:73 170:78 171:68 172:72 173:77 174:71 175:74 176:82 177:70 178:73 179:81 180:69 181:73 182:78 183:82 184:86 185:91 186:0 187:0 188:0 189:82 190:86 191:91 192:73 193:77 194:82 195:71 196:75 197:80 198:71 199:75 200:80 201:70 202:74 203:79 204:72 205:75 206:83 207:70 208:73 209:81 210:72 211:76 212:81 213:86 214:90 215:95 216:0 217:0 218:0 219:85 220:89 221:94 222:76 223:80 224:85 225:74 226:78 227:83 228:0 229:0 230:0 231:0 232:0 233:0 234:0 235:0 236:0 237:0 238:0 239:0 240:69 241:73 242:78 243:82 244:86 245:91 246:0 247:0 248:0 249:80 250:84 251:89 252:71 253:75 254:80 255:68 256:72 257:77 258:0 259:0 260:0 261:67 262:71 263:76 264:67 265:70 266:78 267:70 268:73 269:81 270:72 271:76 272:81 273:85 274:89 275:94 276:0 277:0 278:0 279:84 280:88 281:93 282:76 283:80 284:85 285:74 286:78 287:83 288:0 289:0 290:0 291:74 292:78 293:83 294:72 295:75 296:83 297:76 298:79 299:87 300:-1 
-9.277242072385663e-20 0:0 1:111 2:154 3:0 4:111 5:154 6:0 7:112 8:155 9:0 10:112 11:155 12:0 13:112 14:155 15:0 16:112 17:155 18:0 19:112 20:155 21:0 22:112 23:155 24:0 25:112 26:155 27:0 28:112 29:155 30:0 31:110 32:153 33:0 34:111 35:154 36:0 37:111 38:154 39:0 40:112 41:155 42:0 43:111 44:154 45:0 46:111 47:154 48:0 49:111 50:154 51:0 52:111 53:154 54:0 55:111 56:154 57:0 58:111 59:154 60:0 61:109 62:153 63:0 64:109 65:153 66:1 67:110 68:154 69:1 70:110 71:154 72:1 73:110 74:154 75:1 76:110 77:154 78:1 79:110 80:154 81:1 82:110 83:154 84:1 85:110 86:154 87:1 88:110 89:154 90:0 91:109 92:153 93:0 94:109 95:153 96:1 97:110 98:154 99:1 100:110 101:154 102:1 103:110 104:154 105:1 106:110 107:154 108:1 109:110 110:154 111:1 112:110 113:154 114:1 115:110 116:154 117:1 118:110 119:154 120:0 121:110 122:152 123:1 124:111 125:153 126:1 127:111 128:153 129:0 130:110 131:152 132:0 133:110 134:152 135:0 136:110 137:152 138:0 139:110 140:152 141:0 142:110 143:152 144:0 145:110 146:152 147:0 148:110 149:152 150:0 151:110 152:152 153:1 154:111 155:153 156:0 157:110 158:152 159:0 160:110 161:152 162:0 163:110 164:152 165:0 166:110 167:152 168:0 169:110 170:152 171:0 172:110 173:152 174:0 175:110 176:152 177:0 178:110 179:152 180:2 181:110 182:152 183:3 184:111 185:153 186:2 187:110 188:152 189:2 190:110 191:152 192:2 193:110 194:152 195:2 196:110 197:152 198:2 199:110 200:152 201:2 202:110 203:152 204:2 205:110 206:152 207:2 208:110 209:152 210:1 211:109 212:151 213:2 214:110 215:152 216:2 217:110 218:152 219:1 220:109 221:151 222:1 223:109 224:151 225:1 226:109 227:151 228:1 229:109 230:151 231:1 232:109 233:151 234:1 235:109 236:151 237:1 238:109 239:151 240:1 241:109 242:151 243:2 244:110 245:152 246:2 247:110 248:152 249:1 250:109 251:151 252:1 253:109 254:151 255:1 256:109 257:151 258:1 259:109 260:151 261:1 262:109 263:151 264:1 265:109 266:151 267:1 268:109 269:151 270:1 271:109 272:151 273:2 274:110 275:152 276:1 277:109 278:151 279:1 280:109 281:151 282:1 283:109 284:151 285:1 286:109 287:151 288:1 289:109 290:151 291:1 292:109 293:151 294:1 295:109 296:151 297:1 298:109 299:151 300:-1 
-1.857083989460059e-19 0:0 1:107 2:149 3:0 4:108 5:150 6:0 7:110 8:152 9:0 10:112 11:154 12:0 13:113 14:156 15:0 16:115 17:157 18:0 19:121 20:162 21:0 22:127 23:167 24:2 25:132 26:175 27:8 28:138 29:181 30:0 31:106 32:148 33:0 34:107 35:149 36:0 37:108 38:150 39:0 40:110 41:152 42:0 43:112 44:155 45:0 46:114 47:156 48:0 49:120 50:161 51:0 52:126 53:166 54:1 55:132 56:172 57:7 58:138 59:178 60:0 61:106 62:148 63:0 64:107 65:149 66:0 67:108 68:150 69:0 70:110 71:152 72:0 73:111 74:154 75:0 76:113 77:155 78:0 79:120 80:161 81:0 82:125 83:166 84:1 85:132 86:172 87:7 88:138 89:178 90:0 91:107 92:148 93:2 94:108 95:149 96:3 97:108 98:151 99:2 100:110 101:152 102:0 103:111 104:153 105:0 106:113 107:154 108:0 109:119 110:161 111:0 112:124 113:165 114:0 115:131 116:171 117:6 118:137 119:177 120:1 121:107 122:148 123:1 124:107 125:148 126:2 127:107 128:150 129:1 130:109 131:151 132:1 133:111 134:153 135:0 136:112 137:153 138:0 139:118 140:160 141:0 142:123 143:164 144:1 145:129 146:170 147:7 148:135 149:176 150:0 151:106 152:147 153:1 154:106 155:147 156:2 157:107 158:148 159:2 160:108 161:149 162:1 163:109 164:151 165:0 166:111 167:152 168:0 169:116 170:156 171:0 172:121 173:161 174:0 175:126 176:167 177:4 178:132 179:173 180:0 181:105 182:146 183:2 184:104 185:146 186:3 187:105 188:147 189:1 190:106 191:147 192:1 193:106 194:149 195:0 196:108 197:150 198:0 199:113 200:154 201:0 202:118 203:158 204:0 205:124 206:165 207:1 208:129 209:170 210:1 211:104 212:143 213:3 214:104 215:143 216:4 217:104 218:146 219:3 220:105 221:147 222:3 223:108 224:149 225:0 226:109 227:149 228:1 229:117 230:158 231:4 232:125 233:165 234:0 235:124 236:164 237:0 238:127 239:166 240:4 241:105 242:144 243:5 244:106 245:145 246:8 247:106 248:148 249:6 250:106 251:148 252:2 253:107 254:148 255:0 256:107 257:148 258:0 259:107 260:148 261:0 262:118 263:158 264:0 265:123 266:163 267:5 268:132 269:171 270:6 271:107 272:146 273:9 274:107 275:147 276:12 277:108 278:148 279:10 280:108 281:148 282:5 283:107 284:149 285:2 286:108 287:149 288:0 289:114 290:154 291:1 292:120 293:159 294:0 295:119 296:159 297:0 298:121 299:161 300:-1 
-7.840951246120095e-21 0:117 1:115 2:97 3:117 4:115 5:97 6:119 7:115 8:97 9:120 10:116 11:98 12:120 13:116 14:98 15:120 16:116 17:98 18:121 19:117 20:99 21:119 22:115 23:97 24:0 25:0 26:0 27:0 28:0 29:0 30:117 31:115 32:97 33:117 34:115 35:97 36:119 37:115 38:97 39:119 40:115 41:97 42:120 43:116 44:98 45:120 46:116 47:98 48:120 49:116 50:98 51:119 52:115 53:97 54:0 55:0 56:0 57:0 58:0 59:0 60:116 61:114 62:96 63:116 64:114 65:96 66:119 67:115 68:97 69:119 70:115 71:97 72:119 73:115 74:97 75:119 76:115 77:97 78:119 79:115 80:97 81:118 82:114 83:96 84:0 85:0 86:0 87:0 88:0 89:0 90:115 91:113 92:95 93:116 94:114 95:96 96:118 97:114 98:96 99:118 100:114 101:96 102:118 103:114 104:96 105:119 106:115 107:97 108:118 109:114 110:96 111:117 112:113 113:95 114:0 115:0 116:0 117:0 118:0 119:0 120:115 121:113 122:95 123:115 124:113 125:95 126:117 127:113 128:95 129:118 130:114 131:96 132:118 133:114 134:96 135:118 136:114 137:96 138:118 139:114 140:96 141:117 142:113 143:95 144:0 145:0 146:0 147:0 148:0 149:0 150:0 151:0 152:0 153:0 154:0 155:0 156:0 157:0 158:0 159:0 160:0 161:0 162:0 163:0 164:0 165:0 166:0 167:0 168:0 169:0 170:0 171:0 172:0 173:0 174:0 175:0 176:0 177:0 178:0 179:0 180:0 181:0 182:0 183:0 184:0 185:0 186:0 187:0 188:0 189:0 190:0 191:0 192:0 193:0 194:0 195:0 196:0 197:0 198:0 199:0 200:0 201:0 202:0 203:0 204:0 205:0 206:0 207:0 208:0 209:0 210:113 211:111 212:93 213:114 214:112 215:94 216:116 217:112 218:94 219:116 220:112 221:94 222:116 223:112 224:94 225:116 226:112 227:94 228:119 229:115 230:97 231:118 232:114 233:96 234:120 235:113 236:96 237:0 238:0 239:0 240:0 241:0 242:0 243:0 244:0 245:0 246:0 247:0 248:0 249:0 250:0 251:0 252:0 253:0 254:0 255:0 256:0 257:0 258:0 259:0 260:0 261:0 262:0 263:0 264:0 265:0 266:0 267:0 268:0 269:0 270:114 271:112 272:94 273:114 274:112 275:94 276:116 277:112 278:94 279:116 280:112 281:94 282:116 283:112 284:94 285:116 286:112 287:94 288:117 289:113 290:95 291:118 292:114 293:96 294:120 295:113 296:96 297:120 298:113 299:96 300:-1 
-1.515862923726933e-20 0:151 1:166 2:168 3:154 4:169 5:171 6:153 7:165 8:167 9:165 10:177 11:179 12:166 13:175 14:178 15:158 16:167 17:170 18:185 19:197 20:199 21:196 22:209 23:211 24:193 25:205 26:207 27:187 28:200 29:202 30:141 31:156 32:158 33:154 34:169 35:171 36:151 37:163 38:165 39:153 40:165 41:167 42:171 43:180 44:183 45:156 46:168 47:170 48:182 49:195 50:197 51:193 52:208 53:210 54:198 55:211 56:213 57:177 58:190 59:192 60:140 61:155 62:157 63:150 64:165 65:167 66:147 67:159 68:161 69:152 70:164 71:166 72:171 73:180 74:183 75:160 76:172 77:174 78:169 79:182 80:184 81:181 82:196 83:198 84:192 85:207 86:209 87:179 88:194 89:196 90:144 91:159 92:161 93:150 94:165 95:167 96:150 97:162 98:164 99:156 100:168 101:170 102:175 103:187 104:189 105:167 106:180 107:182 108:156 109:171 110:173 111:166 112:184 113:185 114:180 115:198 116:199 117:177 118:195 119:196 120:145 121:160 122:162 123:150 124:165 125:167 126:154 127:167 128:169 129:162 130:174 131:176 132:176 133:188 134:190 135:168 136:181 137:183 138:150 139:165 140:167 141:152 142:170 143:171 144:164 145:182 146:183 147:168 148:186 149:187 150:139 151:154 152:156 153:145 154:160 155:162 156:157 157:170 158:172 159:164 160:177 161:179 162:172 163:184 164:186 165:162 166:175 167:177 168:145 169:163 170:164 171:138 172:158 173:159 174:152 175:170 176:171 177:164 178:182 179:183 180:136 181:151 182:153 183:141 184:156 185:158 186:163 187:176 188:178 189:173 190:186 191:188 192:176 193:188 194:190 195:164 196:177 197:179 198:149 199:167 200:168 201:137 202:157 203:158 204:152 205:170 206:171 207:172 208:190 209:191 210:133 211:148 212:150 213:136 214:151 215:153 216:166 217:179 218:181 219:182 220:195 221:197 222:186 223:198 224:200 225:175 226:188 227:190 228:157 229:175 230:176 231:137 232:157 233:158 234:147 235:167 236:168 237:171 238:191 239:192 240:125 241:143 242:144 243:128 244:143 245:145 246:161 247:176 248:178 249:182 250:197 251:199 252:189 253:202 254:204 255:179 256:194 257:196 258:159 259:177 260:178 261:133 262:153 263:154 264:136 265:156 266:157 267:160 268:180 269:181 270:146 271:166 272:167 273:130 274:148 275:149 276:152 277:170 278:171 279:157 280:175 281:176 282:168 283:186 284:187 285:164 286:182 287:183 288:160 289:179 290:182 291:144 292:165 293:167 294:139 295:159 296:160 297:146 298:166 299:167 300:-1 
-2.587599601220115e-21 0:99 1:140 2:135 3:101 4:138 5:134 6:114 7:149 8:145 9:93 10:124 11:121 12:61 13:90 14:87 15:97 16:128 17:125 18:99 19:136 20:134 21:87 22:126 23:124 24:75 25:114 26:112 27:51 28:90 29:88 30:110 31:150 32:145 33:107 34:142 35:138 36:118 37:149 38:146 39:91 40:118 41:115 42:58 43:82 44:80 45:103 46:130 47:127 48:117 49:149 50:148 51:102 52:136 53:135 54:74 55:108 56:107 57:64 58:98 59:97 60:105 61:142 62:138 63:108 64:139 65:136 66:123 67:150 68:147 69:100 70:122 71:120 72:80 73:101 74:99 75:121 76:143 77:141 78:138 79:166 80:166 81:123 82:154 83:153 84:71 85:102 86:101 87:92 88:123 89:122 90:101 91:136 92:132 93:115 94:144 95:141 96:140 97:162 98:160 99:123 100:141 101:140 102:121 103:137 104:136 105:146 106:164 107:163 108:135 109:159 110:159 111:111 112:139 113:139 114:72 115:100 116:100 117:102 118:130 119:130 120:109 121:144 122:140 123:129 124:158 125:155 126:158 127:179 128:177 129:145 130:161 131:160 132:150 133:164 134:163 135:160 136:176 137:175 138:115 139:136 140:137 141:81 142:107 143:107 144:78 145:104 146:104 147:93 148:119 149:119 150:109 151:144 152:140 153:134 154:163 155:160 156:155 157:176 158:174 159:162 160:178 161:177 162:175 163:187 164:187 165:168 166:182 167:181 168:110 169:130 170:131 171:82 172:106 173:106 174:118 175:142 176:142 177:87 178:111 179:111 180:100 181:135 182:131 183:118 184:147 185:144 186:144 187:166 188:164 189:161 190:179 191:178 192:181 193:193 194:193 195:177 196:191 197:190 198:112 199:133 200:134 201:111 202:135 203:135 204:122 205:146 206:146 207:90 208:114 209:114 210:106 211:146 212:141 213:108 214:141 215:137 216:135 217:159 218:157 219:157 220:178 221:176 222:173 223:187 224:186 225:166 226:182 227:181 228:112 229:133 230:134 231:139 232:165 233:165 234:117 235:143 236:143 237:100 238:126 239:126 240:116 241:160 242:154 243:106 244:141 245:137 246:129 247:158 248:155 249:149 250:171 251:169 252:151 253:169 254:168 255:138 256:156 257:155 258:104 259:128 260:128 261:142 262:168 263:168 264:96 265:122 266:122 267:108 268:134 269:134 270:105 271:153 272:147 273:100 274:140 275:135 276:122 277:155 278:151 279:134 280:161 281:158 282:130 283:151 284:149 285:113 286:135 287:133 288:97 289:123 290:123 291:121 292:149 293:149 294:71 295:99 296:99 297:104 298:132 299:132 300:-1 
-4.821548597693859e-21 0:109 1:140 2:139 3:99 4:130 5:129 6:92 7:123 8:122 9:127 10:158 11:157 12:145 13:176 14:175 15:110 16:144 17:143 18:75 19:115 20:113 21:65 22:110 23:107 24:74 25:117 26:114 27:96 28:141 29:138 30:125 31:151 32:151 33:99 34:125 35:125 36:113 37:139 38:139 39:139 40:165 41:165 42:138 43:164 44:164 45:119 46:150 47:149 48:112 49:149 50:147 51:87 52:127 53:125 54:77 55:117 56:115 57:103 58:143 59:141 60:134 61:158 62:158 63:88 64:112 65:112 66:123 67:147 68:147 69:140 70:164 71:164 72:117 73:141 74:141 75:104 76:130 77:130 78:133 79:164 80:165 81:111 82:147 83:147 84:77 85:115 86:115 87:88 88:126 89:126 90:152 91:173 92:174 93:117 94:138 95:139 96:144 97:165 98:166 99:145 100:166 101:167 102:109 103:130 104:131 105:95 106:119 107:119 108:122 109:152 110:153 111:110 112:144 113:144 114:84 115:118 116:118 117:80 118:114 119:114 120:154 121:175 122:176 123:135 124:156 125:157 126:160 127:181 128:182 129:165 130:186 131:187 132:135 133:156 134:157 135:128 136:152 137:152 138:133 139:161 140:162 141:123 142:153 143:154 144:101 145:131 146:132 147:90 148:121 149:122 150:161 151:182 152:183 153:134 154:155 155:156 156:143 157:164 158:165 159:158 160:179 161:180 162:138 163:159 164:160 165:136 166:160 167:160 168:164 169:189 170:191 171:145 172:173 173:174 174:105 175:133 176:134 177:91 178:121 179:122 180:158 181:182 182:182 183:124 184:148 185:148 186:116 187:140 188:140 189:140 190:164 191:164 192:125 193:146 194:147 195:120 196:141 197:142 198:180 199:203 200:205 201:167 202:192 203:196 204:101 205:126 206:130 207:74 208:101 209:105 210:148 211:172 212:172 213:126 214:150 215:150 216:111 217:135 218:135 219:140 220:164 221:164 222:122 223:143 224:144 225:111 226:132 227:133 228:169 229:191 230:196 231:183 232:205 233:210 234:120 235:142 236:147 237:84 238:109 239:113 240:140 241:166 242:166 243:126 244:152 245:152 246:105 247:131 248:131 249:130 250:156 251:156 252:109 253:133 254:133 255:98 256:122 257:122 258:161 259:181 260:186 261:178 262:198 263:203 264:138 265:158 266:163 267:116 268:138 269:143 270:119 271:151 272:150 273:111 274:143 275:142 276:92 277:123 278:122 279:121 280:152 281:151 282:103 283:134 284:133 285:104 286:132 287:132 288:158 289:183 290:185 291:153 292:178 293:182 294:125 295:150 296:154 297:124 298:149 299:153 300:-1 
-1.732534399817147e-20 0:77 1:115 2:117 3:81 4:119 5:121 6:74 7:112 8:114 9:103 10:141 11:143 12:84 13:122 14:124 15:69 16:107 17:109 18:88 19:126 20:128 21:71 22:109 23:111 24:51 25:89 26:91 27:80 28:118 29:120 30:86 31:121 32:124 33:85 34:118 35:121 36:88 37:121 38:124 39:112 40:145 41:148 42:97 43:130 44:133 45:85 46:118 47:121 48:102 49:135 50:138 51:90 52:123 53:126 54:75 55:108 56:111 57:100 58:133 59:136 60:105 61:138 62:141 63:95 64:126 65:129 66:110 67:141 68:144 69:123 70:154 71:157 72:112 73:143 74:146 75:98 76:127 77:131 78:110 79:139 80:143 81:102 82:131 83:135 84:99 85:128 86:132 87:123 88:152 89:156 90:120 91:151 92:154 93:100 94:131 95:134 96:122 97:153 98:156 99:130 100:159 101:163 102:120 103:149 104:153 105:101 106:128 107:132 108:105 109:132 110:136 111:100 112:127 113:131 114:106 115:133 116:137 117:136 118:161 119:165 120:106 121:139 122:142 123:122 124:153 125:156 126:124 127:155 128:158 129:138 130:167 131:171 132:134 133:163 134:167 135:112 136:139 137:143 138:98 139:123 140:127 141:97 142:122 143:126 144:121 145:146 146:150 147:151 148:173 149:178 150:108 151:143 152:146 153:118 154:151 155:154 156:136 157:167 158:170 159:157 160:188 161:191 162:150 163:179 164:183 165:132 166:159 167:163 168:129 169:154 170:158 171:128 172:153 173:157 174:138 175:160 176:165 177:154 178:176 179:181 180:98 181:137 182:139 183:96 184:134 185:136 186:133 187:168 188:171 189:159 190:192 191:195 192:145 193:176 194:179 195:127 196:156 197:160 198:140 199:167 200:171 201:146 202:173 203:177 204:142 205:167 206:171 207:150 208:175 209:179 210:88 211:132 212:133 213:78 214:117 215:119 216:117 217:156 218:158 219:149 220:184 221:187 222:124 223:159 224:162 225:106 226:137 227:140 228:127 229:158 230:161 231:140 232:169 233:173 234:126 235:155 236:159 237:135 238:162 239:166 240:91 241:139 242:140 243:76 244:120 245:121 246:96 247:140 248:141 249:136 250:175 251:177 252:111 253:150 254:152 255:89 256:124 257:127 258:114 259:149 260:152 261:132 262:165 263:168 264:113 265:144 266:147 267:114 268:143 269:147 270:90 271:140 272:140 273:76 274:124 275:125 276:76 277:122 278:123 279:103 280:147 281:148 282:91 283:132 284:134 285:74 286:113 287:115 288:101 289:139 290:141 291:125 292:160 293:163 294:101 295:136 296:139 297:97 298:130 299:133 300:-1 
-1.360873249805615e-19 0:48 1:97 2:95 3:52 4:99 5:97 6:83 7:127 8:126 9:81 10:125 11:124 12:74 13:116 14:115 15:93 16:133 17:132 18:56 19:96 20:95 21:51 22:93 23:92 24:52 25:96 26:95 27:44 28:91 29:89 30:65 31:107 32:106 33:59 34:99 35:98 36:93 37:131 38:131 39:91 40:129 41:129 42:104 43:142 44:142 45:106 46:142 47:142 48:75 49:113 50:113 51:47 52:87 53:86 54:50 55:92 56:91 57:70 58:114 59:113 60:70 61:108 62:108 63:69 64:103 65:103 66:102 67:136 68:136 69:106 70:137 71:138 72:121 73:152 74:153 75:114 76:148 77:148 78:94 79:130 80:130 81:70 82:108 83:108 84:60 85:100 86:99 87:67 88:109 89:108 90:87 91:121 92:121 93:95 94:125 95:126 96:123 97:153 98:154 99:121 100:149 101:150 102:129 103:159 104:160 105:118 106:149 107:150 108:110 109:146 110:146 111:99 112:135 113:135 114:74 115:112 116:112 117:66 118:106 119:105 120:108 121:139 122:140 123:123 124:153 125:154 126:141 127:169 128:170 129:124 130:149 131:151 132:118 133:146 134:147 135:110 136:141 137:142 138:110 139:144 140:144 141:111 142:145 143:145 144:87 145:123 146:123 147:68 148:106 149:106 150:111 151:142 152:143 153:129 154:159 155:160 156:136 157:166 158:167 159:113 160:141 161:142 162:106 163:134 164:135 165:105 166:136 167:137 168:102 169:136 170:136 171:110 172:144 173:144 174:100 175:136 176:136 177:80 178:118 179:118 180:93 181:127 182:127 183:112 184:143 185:144 186:119 187:150 188:151 189:109 190:139 191:140 192:113 193:143 194:144 195:119 196:149 197:150 198:108 199:139 200:140 201:113 202:144 203:145 204:113 205:147 206:147 207:101 208:137 209:137 210:79 211:115 212:115 213:91 214:127 215:127 216:97 217:131 218:131 219:101 220:132 221:133 222:118 223:149 224:150 225:131 226:161 227:162 228:115 229:146 230:147 231:105 232:136 233:137 234:104 235:138 236:138 237:104 238:140 239:140 240:75 241:117 242:116 243:81 244:121 245:120 246:75 247:115 248:114 249:77 250:117 251:116 252:100 253:138 254:138 255:123 256:161 257:161 258:108 259:144 260:144 261:84 262:122 263:122 264:79 265:117 266:117 267:87 268:127 269:126 270:58 271:108 272:106 273:58 274:108 275:106 276:54 277:104 278:102 279:58 280:108 281:106 282:68 283:118 284:116 285:93 286:143 287:141 288:79 289:129 290:127 291:59 292:108 293:106 294:54 295:103 296:101 297:63 298:112 299:110 300:-1 
